(self.webpackChunkUpscaler=self.webpackChunkUpscaler||[]).push([[767],{848:s=>{"use strict";s.exports=JSON.parse('{"conv1":{"weights":[[[[-0.00945916399359703,0.14240452647209167,-0.18961136043071747],[0.3299035429954529,-0.1059407889842987,0.1267545521259308],[-0.029683226719498634,0.022002896293997765,-0.1907348483800888]]],[[[0.030048690736293793,0.05139721557497978,0.128891721367836],[0.0022197102662175894,-0.16924737393856049,0.23185327649116516],[-0.15831080079078674,0.001988343894481659,-0.13920718431472778]]],[[[0.005217249970883131,0.02156590111553669,0.02478705905377865],[0.03509846329689026,-0.07109379023313522,-0.11723483353853226],[0.001862004748545587,-0.0765148401260376,0.20488351583480835]]],[[[0.04642004892230034,0.21265347301959991,-0.07924263179302216],[0.03172739967703819,-0.2662341296672821,0.10732662677764893],[-0.008899121545255184,0.12304609268903732,-0.06166135519742966]]],[[[-0.07287105917930603,-0.11259614676237106,-0.1154693216085434],[-0.12214794009923935,0.18883080780506134,0.0946914479136467],[-0.007603482808917761,0.10662762820720673,0.05621849745512009]]],[[[-0.03364083915948868,-0.04355010390281677,-0.020656632259488106],[0.14213086664676666,-0.2119804471731186,0.00870655570179224],[0.031939975917339325,-0.06197851523756981,-0.0049550957046449184]]],[[[-0.086856409907341,0.1874472051858902,0.03343978896737099],[0.2713751196861267,-0.13275477290153503,0.15146669745445251],[-0.10546008497476578,-0.03681672364473343,-0.32689741253852844]]],[[[-0.1333916187286377,0.07600679248571396,0.055620621889829636],[0.065070740878582,-0.13738618791103363,-0.11792362481355667],[0.08499784767627716,-0.017628008499741554,0.20869037508964539]]]],"biases":[0.04231502115726471,-0.03247616067528725,0.08440091460943222,-0.04817042499780655,0.10262680798768997,-0.0809585452079773,0.01011081226170063,-0.10032130777835846]},"conv2":{"weights":[[[[0.07763173431158066,-0.051773104816675186,-0.0687539279460907],[0.26913949847221375,0.12044862657785416,-0.1347944140434265],[-0.14928573369979858,0.20726880431175232,0.13287968933582306]],[[0.10839717090129852,0.09854380786418915,-0.11166957765817642],[0.005448365584015846,0.3704419732093811,0.05560346692800522],[-0.20585967600345612,-0.12345349043607712,-0.2245727926492691]],[[-0.0100718317553401,-0.012663847766816616,0.16473333537578583],[0.07555998116731644,0.48930785059928894,0.3740887939929962],[0.023962827399373055,0.10759056359529495,0.32945266366004944]],[[0.07977885752916336,-0.23285968601703644,-0.13231991231441498],[-0.21288684010505676,0.22059164941310883,-0.11347603052854538],[-0.12134913355112076,-0.34286385774612427,0.06603910773992538]],[[0.0923350378870964,-0.1215418353676796,0.1993202269077301],[0.3010715842247009,0.217869833111763,-0.035080909729003906],[0.17286287248134613,0.08906883001327515,0.19567187130451202]],[[0.05129804089665413,0.024847310036420822,-0.04650355502963066],[-0.013165122829377651,0.3051747679710388,-0.08367522805929184],[0.06741496175527573,-0.07674076408147812,-0.21107754111289978]],[[0.03568526729941368,0.06671848148107529,0.11053239554166794],[-0.03083278052508831,-0.059969257563352585,-0.021574879065155983],[0.2216218262910843,-0.17639878392219543,0.22611352801322937]],[[-0.02759893797338009,-0.11597137153148651,-0.04272215813398361],[0.15862354636192322,-0.18781274557113647,-0.38683199882507324],[-0.1118578389286995,-0.43622806668281555,-0.0837259590625763]]],[[[-0.15678077936172485,-0.28966811299324036,0.15979185700416565],[-0.013031654059886932,0.0006947063957341015,0.09490662068128586],[0.016959745436906815,0.1441856473684311,-0.2998301088809967]],[[-0.05919133126735687,0.028177598491311073,0.15528719127178192],[0.24752572178840637,-0.02698015235364437,-0.09127578139305115],[-0.0370912067592144,0.011801056563854218,-0.0326264388859272]],[[0.37595608830451965,-0.33356234431266785,0.08483392745256424],[0.15646684169769287,0.06482398509979248,0.3348795771598816],[-0.07890482246875763,0.29923081398010254,-0.04797655716538429]],[[0.07672116160392761,0.07720179855823517,-0.17983874678611755],[0.09737243503332138,0.032157789915800095,-0.05681317299604416],[-0.05035684257745743,-0.08167828619480133,0.19018760323524475]],[[-0.13324758410453796,-0.030219459906220436,0.038524601608514786],[-0.17498166859149933,0.18835312128067017,-0.00403838325291872],[-0.08669328689575195,0.22854936122894287,-0.14873604476451874]],[[0.17490024864673615,-0.38865000009536743,0.20949870347976685],[0.11312886327505112,-0.1923808753490448,-0.26642096042633057],[0.029208291321992874,0.11155783385038376,0.2981274724006653]],[[-0.0397750549018383,-0.1301513910293579,-0.033021483570337296],[-0.029150109738111496,-0.09614802151918411,0.12469432502985],[-0.15388157963752747,0.19747541844844818,-0.03679367154836655]],[[0.13283932209014893,-0.26027563214302063,-0.04254971072077751],[0.35206905007362366,0.14202632009983063,-0.14002373814582825],[-0.22022207081317902,0.18854686617851257,-0.17493374645709991]]],[[[0.0209055095911026,0.16022948920726776,-0.05335315689444542],[0.03449222072958946,-0.07039255648851395,0.31181618571281433],[-0.21580985188484192,0.18159322440624237,-0.051009032875299454]],[[-0.013485793955624104,-0.1375121772289276,0.0287468284368515],[0.3169035315513611,-0.23883886635303497,0.15603849291801453],[-0.09752961993217468,-0.0633227601647377,0.07988981157541275]],[[0.06024618446826935,0.1321742832660675,0.006460005883127451],[0.16919760406017303,0.13847678899765015,-0.08308140188455582],[-0.009316259063780308,-0.3425002992153168,-0.24668167531490326]],[[-0.12271640449762344,0.15928050875663757,-0.134040966629982],[-0.04868531972169876,-0.30603885650634766,0.1441221982240677],[0.048488348722457886,-0.04032101482152939,0.2916816174983978]],[[-0.21767032146453857,-0.07257424294948578,0.11718309670686722],[0.3059636950492859,0.347420334815979,0.11606119573116302],[-0.17046786844730377,-0.2204442024230957,0.14882861077785492]],[[-0.04225041717290878,-0.10099085420370102,-0.10455022752285004],[0.10236173123121262,-0.29673877358436584,0.08704785257577896],[0.07945097982883453,-0.21313253045082092,0.23977233469486237]],[[-0.2542177140712738,-0.14437350630760193,0.1992431879043579],[-0.08931616693735123,-0.07131127268075943,0.08299950510263443],[0.21488754451274872,0.043207429349422455,-0.21458907425403595]],[[0.2647818922996521,-0.007143446244299412,0.1400521695613861],[-0.15337678790092468,-0.46199744939804077,0.3287961781024933],[0.1357002556324005,0.2454340010881424,-0.026866354048252106]]],[[[-0.01649695821106434,-0.29406577348709106,0.06473642587661743],[-0.0909595862030983,0.018222026526927948,0.1527499407529831],[-0.07359696179628372,0.10481720417737961,-0.007825471460819244]],[[0.15472890436649323,0.08164383471012115,0.04528065025806427],[0.08276883512735367,-0.22828815877437592,0.08557087928056717],[0.010918671265244484,-0.25472724437713623,0.04044525697827339]],[[0.2642492651939392,0.290409117937088,-0.11645548045635223],[-0.008712454698979855,0.033606354147195816,0.14646326005458832],[0.052028290927410126,-0.058030493557453156,-0.033197205513715744]],[[0.0033181034959852695,-0.05013140290975571,0.09802622348070145],[0.08040636032819748,-0.026595471426844597,0.11196784675121307],[-0.18419189751148224,0.2594103515148163,0.09777510166168213]],[[-0.25661972165107727,0.2520819902420044,0.02148822881281376],[-0.11354706436395645,0.1526888757944107,0.015743235126137733],[-0.18875445425510406,-0.10920178890228271,-0.023621374741196632]],[[0.2824508547782898,0.11239112168550491,0.04513884708285332],[-0.180479496717453,-0.27913638949394226,0.029808150604367256],[0.12695027887821198,0.05268717557191849,-0.10290414839982986]],[[-0.3773443102836609,0.030839519575238228,-0.08438381552696228],[0.06547964364290237,0.1471303552389145,0.14253269135951996],[-0.0013017713790759444,0.05151030793786049,0.003714687656611204]],[[0.1447025090456009,-0.5472460389137268,-0.09893497824668884],[0.014997179619967937,0.046507030725479126,0.2275143265724182],[-0.2046811580657959,0.13167370855808258,0.1908995807170868]]],[[[0.12071512639522552,-0.061216630041599274,0.14946189522743225],[0.07127437740564346,-0.18077708780765533,-0.09262943267822266],[-0.034222833812236786,-0.09488898515701294,-0.15730862319469452]],[[0.22689653933048248,-0.06334777176380157,0.040854260325431824],[-0.37407487630844116,0.1416880488395691,0.03057710826396942],[0.14548762142658234,-0.11193803697824478,-0.1397382616996765]],[[-0.36884939670562744,0.30254122614860535,-0.04362611472606659],[0.04459525644779205,0.02169474959373474,-0.14119382202625275],[-0.08482600748538971,0.0267106331884861,-0.0649435967206955]],[[0.13766860961914062,-0.07286553829908371,0.09603371471166611],[-0.22607207298278809,0.3392784297466278,-0.11106276512145996],[-0.04354781657457352,-0.28643694519996643,-0.21412856876850128]],[[0.20034800469875336,0.184739887714386,-0.18101882934570312],[-0.19171300530433655,-0.4302911162376404,-0.043583184480667114],[-0.11584365367889404,-0.02937140129506588,0.041315581649541855]],[[-0.03295401111245155,0.22260253131389618,-0.02462359517812729],[0.0877082422375679,0.36697134375572205,-0.31352415680885315],[-0.07799127697944641,0.15848928689956665,0.13829368352890015]],[[0.22660410404205322,0.2657466232776642,-0.1529638022184372],[-0.0783916711807251,0.12170100957155228,-0.23447488248348236],[-0.21230849623680115,0.030234340578317642,0.17092570662498474]],[[-0.1429237574338913,0.06143207475543022,0.0028683755081146955],[0.25817862153053284,0.20894765853881836,-0.14562195539474487],[-0.06839446723461151,0.022978493943810463,0.0018408057512715459]]],[[[0.13808652758598328,0.04788300022482872,0.10642962902784348],[0.015192852355539799,0.1888982653617859,0.1215142011642456],[-0.011823833920061588,-0.14141634106636047,0.1748180091381073]],[[0.09558022022247314,-0.12322160601615906,-0.03012710250914097],[-0.14272478222846985,0.07052924484014511,0.21900783479213715],[-0.13257184624671936,-0.2659332752227783,0.19028806686401367]],[[0.18112964928150177,-0.06223072111606598,-0.0037239950615912676],[-0.027674168348312378,-0.10086018592119217,0.0599777027964592],[-0.19301356375217438,-0.19172203540802002,0.15036386251449585]],[[-0.15963642299175262,-0.23676684498786926,-0.0023314999416470528],[0.010093134827911854,-0.012596354819834232,0.2039255052804947],[-0.30745813250541687,-0.00929213222116232,-0.01573476940393448]],[[-0.10719048231840134,-0.012566707096993923,-0.14020872116088867],[-0.00940830446779728,0.1705433577299118,0.09056529402732849],[-0.16019713878631592,0.2144925892353058,0.4914449155330658]],[[-0.18084558844566345,0.06492970883846283,-0.0922037735581398],[0.14725248515605927,-0.21973884105682373,-0.1787918359041214],[-0.16589349508285522,-0.28211814165115356,0.2055215686559677]],[[0.025456847622990608,-0.029802031815052032,-0.020718952640891075],[-0.16025283932685852,-0.07395212352275848,0.19117160141468048],[0.13040976226329803,0.052905187010765076,0.13036592304706573]],[[0.13535384833812714,0.04990285262465477,-0.08071646839380264],[0.08267252892255783,-0.14347384870052338,0.21044783294200897],[-0.03312155231833458,-0.15860432386398315,0.16904954612255096]]],[[[0.04922763258218765,0.045064859092235565,0.11643363535404205],[-0.14124180376529694,0.03628910332918167,0.11659420281648636],[0.053293533623218536,-0.07065658271312714,-0.18213340640068054]],[[0.42846864461898804,-0.11164581030607224,0.17556504905223846],[-0.03665873035788536,-0.06215137243270874,0.1246338039636612],[-0.09330525994300842,-0.07085873931646347,-0.3201463520526886]],[[-0.24940454959869385,-0.08288421481847763,0.36484137177467346],[0.2250957190990448,0.0345408096909523,0.12244677543640137],[-0.14159394800662994,0.009428366087377071,-0.20201164484024048]],[[0.000255067105172202,-0.35873231291770935,-0.02743695117533207],[0.01931953988969326,0.3219001889228821,0.09175397455692291],[0.03865789994597435,-0.1312629133462906,0.21514248847961426]],[[0.21129126846790314,0.05058376118540764,-0.05742946267127991],[-0.2220686674118042,-0.43828150629997253,0.09655582159757614],[-0.02725689858198166,0.0013798169093206525,-0.13772711157798767]],[[0.14310753345489502,-0.25320112705230713,0.0712687224149704],[0.09914902597665787,-0.08974232524633408,-0.18809747695922852],[0.014720240607857704,0.2715841233730316,-0.20284564793109894]],[[0.06781835108995438,-0.05775449052453041,0.05410119518637657],[0.1172146126627922,0.09541439265012741,-0.25207287073135376],[-0.11914394050836563,-0.06385944783687592,0.18952536582946777]],[[-0.1042637825012207,-0.0256977379322052,-0.1606752723455429],[0.15957503020763397,0.10974279791116714,-0.06704790145158768],[-0.31623589992523193,-0.27244511246681213,0.22286182641983032]]],[[[0.040120482444763184,0.06707078218460083,-0.12301474809646606],[-0.012593661434948444,-0.10878027230501175,0.003707142313942313],[0.01863991655409336,-0.12391148507595062,-0.024640019983053207]],[[0.01252774614840746,-0.013266146183013916,0.044193267822265625],[-0.27559399604797363,0.020969530567526817,-0.1511966735124588],[-0.05510568246245384,0.016483141109347343,-0.05406995117664337]],[[0.07618588209152222,0.3270428776741028,0.16746443510055542],[0.19398842751979828,0.0474000945687294,-0.09953055530786514],[0.04943586140871048,0.2729664742946625,-0.055815767496824265]],[[-0.11663902550935745,0.015599383041262627,0.3100276291370392],[0.17581798136234283,0.19401082396507263,0.047309763729572296],[-0.10970736294984818,0.04892353340983391,-0.1524541825056076]],[[0.3040083348751068,-0.11664409190416336,0.04089402034878731],[-0.07598777860403061,0.044711884111166,0.008517459966242313],[0.28889209032058716,-0.1943686306476593,-0.08850788325071335]],[[-0.1808926910161972,-0.09220055490732193,0.20179350674152374],[0.0722920149564743,-0.35423538088798523,-0.14944510161876678],[-0.026803666725754738,0.028112851083278656,0.12372901290655136]],[[0.09277601540088654,0.14599718153476715,-0.008815578185021877],[0.10799305140972137,0.0825342983007431,0.03979478403925896],[0.1561320275068283,-0.10793035477399826,-0.03250133618712425]],[[-0.05853130668401718,-0.19439643621444702,-0.022339820861816406],[-0.3123767375946045,-0.003181279404088855,0.1488945186138153],[0.14354892075061798,-0.25154271721839905,-0.12448596954345703]]]],"biases":[0.14370569586753845,-0.03341667354106903,0.16566258668899536,0.005880738142877817,-0.07984137535095215,0.12951035797595978,-0.027317820116877556,0.11637503653764725]},"conv3":{"weights":[[[[-0.08840373903512955,0.08899401128292084,-0.030256403610110283],[0.1218407079577446,-0.3029318153858185,0.14464643597602844],[-0.08884935826063156,-0.2914436161518097,0.10531026124954224]],[[0.03286975622177124,-0.16372732818126678,0.07676677405834198],[-0.10637232661247253,-0.1613801270723343,0.30074408650398254],[-0.012596352957189083,-0.008099215105175972,0.11097388714551926]],[[0.13672058284282684,0.2473958134651184,-0.036861419677734375],[-0.06233127415180206,0.28979548811912537,-0.03354160860180855],[0.03759400174021721,0.064677894115448,0.07170502096414566]],[[-0.01602228358387947,0.12589573860168457,0.1001005619764328],[0.08022243529558182,0.17485953867435455,-0.13363340497016907],[-0.04078298807144165,-0.06788235157728195,-0.07045010477304459]],[[-0.14242422580718994,-0.18812592327594757,0.11000147461891174],[0.1042327880859375,-0.26737159490585327,0.10405237227678299],[-0.016129299998283386,0.021888993680477142,-0.05319942161440849]],[[-0.0755114033818245,0.3366958200931549,-0.18214796483516693],[0.20655058324337006,0.0711955800652504,0.10561726987361908],[0.03193899244070053,0.08951494842767715,-0.018840311095118523]],[[0.028950167819857597,-0.12688545882701874,-0.09802275896072388],[0.11328032612800598,0.14969152212142944,0.04286494851112366],[-0.054616767913103104,0.23158356547355652,0.14839965105056763]],[[0.10610724240541458,0.1688896119594574,-0.1393970549106598],[0.17798730731010437,0.22286127507686615,0.3710826337337494],[-0.06531544029712677,0.22934003174304962,0.27110278606414795]]],[[[-0.12872283160686493,0.18621237576007843,0.06875193864107132],[0.05015372484922409,-0.17784298956394196,-0.18215949833393097],[0.16821447014808655,-0.11642784625291824,0.20094799995422363]],[[-0.03561563789844513,-0.07127363234758377,0.13387346267700195],[-0.20984579622745514,0.35408347845077515,-0.2677059471607208],[-0.14385473728179932,0.12264116108417511,-0.270404189825058]],[[0.12400531768798828,-0.2905212640762329,-0.07715635746717453],[-0.11047929525375366,0.15491238236427307,0.21101805567741394],[-0.05518012493848801,0.1906878501176834,-0.12747423350811005]],[[-0.004617035388946533,0.146667942404747,0.18287070095539093],[0.13505171239376068,0.029819857329130173,0.4139404892921448],[0.3000163435935974,-0.044419918209314346,0.3931339979171753]],[[0.017638828605413437,0.08268803358078003,0.008835439570248127],[0.11914216727018356,-0.571703314781189,-0.2498466521501541],[-0.1254216730594635,-0.05350805073976517,0.16945353150367737]],[[0.00445411866530776,-0.3390452563762665,0.07350708544254303],[0.268243670463562,-0.04506317898631096,0.04232608526945114],[-0.17385686933994293,0.08777031302452087,0.018631188198924065]],[[-0.061396364122629166,0.05164055526256561,-0.0020739231258630753],[-0.001320413313806057,0.6621707081794739,0.08449552953243256],[0.06458628922700882,0.10108765214681625,-0.15898677706718445]],[[-0.007996906526386738,-0.13980498909950256,0.020991424098610878],[0.04071275517344475,0.21309694647789001,-0.2253732830286026],[0.12137588858604431,-0.2655068337917328,-0.12144182622432709]]],[[[-0.009314983151853085,-0.03662285953760147,-0.033284880220890045],[0.05878974497318268,0.17442820966243744,-0.0046984003856778145],[-0.16810545325279236,-0.02938785031437874,0.06745421886444092]],[[0.02592879720032215,-0.09311384707689285,-0.0810365080833435],[0.010331282392144203,-0.21735559403896332,0.09921395033597946],[0.05532562732696533,-0.3971198797225952,0.11495101451873779]],[[0.023504741489887238,0.08700041472911835,-0.02430967427790165],[-0.028093894943594933,-0.11137543618679047,-0.07252727448940277],[-0.11523318290710449,0.10989981889724731,-0.007990395650267601]],[[-0.07706323266029358,-0.004932739771902561,0.017946241423487663],[0.004434051923453808,0.08927279710769653,-0.08954732120037079],[0.03509119898080826,0.22069759666919708,0.08551447093486786]],[[0.03885183483362198,-0.015346037223935127,-0.04789004847407341],[0.11350974440574646,0.7323452234268188,0.07785886526107788],[0.03561446815729141,-0.204387828707695,-0.0893685594201088]],[[-0.06484523415565491,0.35155895352363586,0.016380883753299713],[-0.1475967913866043,0.21302929520606995,-0.11411421746015549],[0.09540598839521408,-0.3290940523147583,-0.10666413605213165]],[[-0.011614227667450905,-0.028260132297873497,0.009408407844603062],[-0.11126857995986938,-0.44882285594940186,-0.03598266467452049],[-0.0946601927280426,-0.3759615123271942,0.07276498526334763]],[[-0.05558221414685249,-0.04522641748189926,0.06347513943910599],[-0.0049906945787370205,-0.010198202915489674,0.06123235449194908],[-0.057818811386823654,0.3160770833492279,0.08529441803693771]]],[[[0.2810371518135071,-0.05142317712306976,0.08451811969280243],[-0.05948910489678383,0.17206457257270813,-0.1748422235250473],[0.014996334910392761,0.25974753499031067,-0.02216004580259323]],[[0.017031118273735046,0.02980032004415989,0.07219570130109787],[-0.026084600016474724,-0.12635307013988495,0.1693413257598877],[0.01856844313442707,-0.10689596086740494,0.21292856335639954]],[[0.07447978109121323,0.1505398452281952,0.026031900197267532],[-0.0739307701587677,-0.34431180357933044,0.024204108864068985],[0.02441289834678173,-0.02713838964700699,0.1560828685760498]],[[-0.020321890711784363,-0.021647926419973373,0.011856521479785442],[-0.10024982690811157,0.010063046589493752,-0.04346126317977905],[-0.030297404155135155,0.10441388934850693,-0.07984946668148041]],[[-0.040717385709285736,-0.08391185104846954,0.0763319730758667],[0.04912153258919716,0.19463297724723816,0.028699858114123344],[0.03814020752906799,0.07031640410423279,-0.10685624927282333]],[[-0.14351820945739746,-0.19547533988952637,-0.02493911050260067],[-0.018633661791682243,0.08278648555278778,0.004000953398644924],[0.04941892996430397,-0.022338250651955605,-0.003339419374242425]],[[0.010547754354774952,-0.06137732416391373,-0.053429145365953445],[0.21519650518894196,0.09809546917676926,0.1617782860994339],[0.10882507264614105,0.19001829624176025,0.12290695309638977]],[[0.11838804185390472,0.17202958464622498,-0.1776571422815323],[-0.177487313747406,0.2010536938905716,0.13660122454166412],[-0.07205995917320251,0.057021256536245346,-0.13228020071983337]]],[[[0.3986065983772278,-0.03972988948225975,-0.23403997719287872],[-0.21829301118850708,0.2521897554397583,-0.01739674061536789],[-0.02742721699178219,-0.2170940339565277,0.0677143856883049]],[[0.015832338482141495,0.13839592039585114,0.10542131215333939],[0.23745927214622498,0.41227197647094727,0.09919026494026184],[0.2455289512872696,-0.007937776856124401,0.05321871489286423]],[[-0.0008733791182748973,-0.20231668651103973,-0.020506998524069786],[0.06567294895648956,-0.1467103511095047,-0.07167014479637146],[0.2548132836818695,0.07328192889690399,0.0066924928687512875]],[[-0.17913194000720978,-0.273691862821579,-0.24614672362804413],[-0.3711789548397064,-0.4019289016723633,-0.16903923451900482],[-0.3603323996067047,-0.16191202402114868,-0.15514688193798065]],[[-0.02174249477684498,0.2306545078754425,0.0021215167362242937],[-0.4196225702762604,0.11590351164340973,0.10158994793891907],[-0.14973166584968567,-0.16662441194057465,-0.002306851791217923]],[[0.20708326995372772,-0.07613177597522736,0.1873563528060913],[-0.027141815051436424,-0.19945766031742096,0.1530744880437851],[0.046026770025491714,0.026172960177063942,-0.14173848927021027]],[[-0.026691123843193054,-0.06248344108462334,-0.060678668320178986],[-0.12128649652004242,0.036111898720264435,-0.09771985560655594],[0.09795542806386948,0.09920308738946915,0.069992795586586]],[[-0.03982844576239586,-0.14235131442546844,-0.0566675066947937],[-0.0019300665007904172,-0.38833320140838623,0.10961171239614487],[0.11803016811609268,0.3399789333343506,0.06676695495843887]]],[[[0.0544348880648613,0.03207988291978836,0.01805702969431877],[0.3537903428077698,0.4540269672870636,0.012874145060777664],[-0.15046200156211853,0.039722662419080734,-0.03616921231150627]],[[0.09352361410856247,0.029454192146658897,-0.20516064763069153],[-0.03334300220012665,-0.06707397848367691,0.009145776741206646],[0.0034360273275524378,-0.040827278047800064,0.23418284952640533]],[[-0.04865029826760292,-0.06511759757995605,-0.023514851927757263],[0.08863432705402374,-0.2056429237127304,-0.051910143345594406],[0.023462524637579918,0.038515813648700714,-0.1983802765607834]],[[-0.056436046957969666,0.08824453502893448,0.04852274805307388],[0.0035048353020101786,-0.1186860203742981,0.05585455894470215],[-0.061104293912649155,0.08978739380836487,-0.005348354112356901]],[[0.05488353595137596,0.0890614464879036,-0.029236365109682083],[-0.08511699736118317,0.3586055040359497,0.013984821736812592],[-0.038404691964387894,0.05313273146748543,0.15799322724342346]],[[-0.01693328097462654,-0.1186819076538086,-0.02178412675857544],[0.011273081414401531,-0.2529049515724182,0.16852028667926788],[0.011992682702839375,0.14142152667045593,0.04666826128959656]],[[-0.06324037164449692,-0.014398446306586266,0.04265530779957771],[0.1192697212100029,0.29772627353668213,0.07148903608322144],[0.10311435908079147,-0.10254160314798355,-0.12879712879657745]],[[-0.04465392976999283,-0.12195032089948654,-0.059052255004644394],[0.2694959044456482,0.17580761015415192,0.04524632915854454],[-0.12930242717266083,0.2009199559688568,-0.18688979744911194]]],[[[-0.13222727179527283,0.14917521178722382,-0.07405517995357513],[0.30545374751091003,0.2744205594062805,0.020502177998423576],[-0.2646966874599457,0.16561108827590942,-0.10964217782020569]],[[0.04801249876618385,0.07656782865524292,-0.10103564709424973],[-0.05920293182134628,0.12863664329051971,-0.06630244851112366],[-0.11941739171743393,0.16849832236766815,-0.001288897474296391]],[[0.07107561826705933,0.011661147698760033,-0.038416214287281036],[0.03470279648900032,-0.04821588844060898,0.12552152574062347],[0.1621319055557251,0.17579776048660278,0.006954309996217489]],[[0.03486588969826698,-0.06415007263422012,-0.00853664055466652],[-0.014727354049682617,-0.22917164862155914,0.06603886932134628],[0.039451539516448975,-0.1762097328901291,-0.007191053591668606]],[[-0.0315106175839901,0.11876377463340759,0.05190129950642586],[-0.05122680217027664,0.17093996703624725,-0.0839260146021843],[-0.16343455016613007,-0.02459896169602871,-0.010775957256555557]],[[0.181986004114151,-0.11272569000720978,0.004832724574953318],[0.0833122581243515,0.19182062149047852,0.09968847036361694],[0.059436503797769547,0.08499997854232788,0.10445745289325714]],[[-0.063987597823143,0.0019965008832514286,-0.008285576477646828],[0.00010021404887083918,0.06693580001592636,-0.027447404339909554],[0.045437395572662354,0.3441036343574524,0.029795421287417412]],[[-0.01702984608709812,0.033564627170562744,0.005833822768181562],[0.2746477425098419,-0.2715032994747162,-0.02827879600226879],[-0.1999693512916565,-0.010434973984956741,0.17551282048225403]]],[[[-0.04492922127246857,0.0024416781961917877,-0.10371629148721695],[-0.0706024095416069,-0.1549820899963379,0.23859763145446777],[0.24537315964698792,-0.03746351599693298,-0.09667917340993881]],[[-0.0672379732131958,-0.24437537789344788,-0.1781274825334549],[-0.003955540247261524,-0.10143165290355682,0.2264631688594818],[-0.04355664923787117,-0.05223754793405533,0.32582607865333557]],[[0.029459461569786072,-0.1727697104215622,-0.18602532148361206],[-0.050672661513090134,0.5917243361473083,0.07330986112356186],[0.1016167551279068,-0.030527185648679733,0.0736059844493866]],[[-0.03408857807517052,0.15551745891571045,0.052244700491428375],[0.12805359065532684,0.14751675724983215,0.22540828585624695],[-0.014776053838431835,-0.08253013342618942,-0.10962361097335815]],[[-0.03539985045790672,0.0037605874240398407,0.06202155724167824],[0.18137796223163605,-0.3682299256324768,-0.21567682921886444],[0.03396696224808693,0.13613098859786987,-0.05823884904384613]],[[0.17415298521518707,0.07390698045492172,-0.43228021264076233],[0.060563091188669205,0.21903349459171295,-0.24825522303581238],[-0.06457716971635818,-0.05521112307906151,-0.09281647205352783]],[[-0.010400773026049137,0.07009560614824295,0.2450815588235855],[-0.04745282232761383,-0.1231766790151596,0.11014527827501297],[-0.03978944942355156,-0.262245774269104,-0.07446687668561935]],[[-0.18633876740932465,0.08516693860292435,-0.024194227531552315],[0.13505414128303528,-0.3406056761741638,-0.36957207322120667],[0.18435005843639374,0.3729172348976135,0.1876368671655655]]]],"biases":[0.20503398776054382,0.040806230157613754,-0.10194262117147446,0.12766331434249878,-0.012714442797005177,-0.06291235983371735,0.04452189803123474,0.020864583551883698]},"conv4":{"weights":[[[[-0.06223342567682266,0.19948916137218475,0.014491546899080276],[0.2150278091430664,0.055183179676532745,0.08228927105665207],[0.00023182340373750776,0.22111034393310547,0.09341753274202347]],[[-0.02184581570327282,0.002491891384124756,-0.009035345166921616],[0.013252347707748413,-0.12332838028669357,-0.016164273023605347],[0.09277793020009995,0.058065786957740784,0.0513032004237175]],[[-0.17024043202400208,0.002868745708838105,-0.12513884902000427],[-0.10193458944559097,0.08090756833553314,-0.06212442368268967],[0.026880206540226936,-0.007723914459347725,0.051225051283836365]],[[-0.2572873830795288,-0.004238014109432697,-0.07198181003332138],[-0.1690473109483719,0.039085954427719116,-0.037112344056367874],[-0.12836864590644836,0.2191770374774933,-0.007853559218347073]],[[-0.018257390707731247,0.2234645038843155,0.0577419251203537],[0.03548033535480499,0.0810714066028595,-0.008820186369121075],[0.06946608424186707,0.1697864532470703,-0.0661541074514389]],[[0.018931018188595772,0.17533138394355774,-0.006455710157752037],[-0.15225090086460114,-0.009497339837253094,0.1292947381734848],[-0.09625846892595291,0.09901838004589081,0.030029254034161568]],[[0.06570038944482803,0.3870002031326294,0.10572054237127304],[0.12985895574092865,-0.11673549562692642,0.06925660371780396],[0.08757616579532623,-0.15286365151405334,-0.02280813828110695]],[[-0.07834482192993164,0.053246840834617615,-0.06683377176523209],[-0.05599450320005417,0.06019865721464157,0.009643199853599072],[0.026331782341003418,0.03962811082601547,-0.008146875537931919]]],[[[0.06756601482629776,0.07701072841882706,0.06676407903432846],[-0.0642617791891098,-0.057269137352705,-0.11423498392105103],[-0.16376206278800964,-0.143803671002388,0.05471646413207054]],[[-0.055594462901353836,0.17756541073322296,-0.04695527255535126],[0.1797177940607071,0.27648305892944336,-0.1262863278388977],[-0.22296783328056335,-0.24346156418323517,-0.036624662578105927]],[[0.07708065211772919,-0.3274827301502228,0.20788969099521637],[-0.29965734481811523,-0.19163553416728973,0.06168574467301369],[0.0009222414228133857,0.33153432607650757,-0.07622043788433075]],[[-0.040780529379844666,-0.07145051658153534,0.019190378487110138],[-0.12215479463338852,-0.1604274958372116,0.0009197594481520355],[-0.2061925083398819,-0.025182727724313736,-0.13908950984477997]],[[0.08143392950296402,0.039674416184425354,0.019805362448096275],[-0.06578169763088226,0.022277185693383217,0.027221975848078728],[-0.09941666573286057,-0.048999324440956116,-0.016317391768097878]],[[-0.06665675342082977,-0.09024349600076675,-0.09296835213899612],[0.17187899351119995,0.07138825207948685,-0.10891101509332657],[0.058086320757865906,0.2408585101366043,0.1495714783668518]],[[0.1450299173593521,0.1736588031053543,0.3265240788459778],[-0.16501572728157043,0.0059767491184175014,-0.09086759388446808],[0.03603014722466469,-0.0999208614230156,0.056551624089479446]],[[0.1496587097644806,0.06914811581373215,-0.005277741234749556],[0.03434993326663971,0.5929334163665771,0.2799627482891083],[-0.030536701902747154,-0.22229903936386108,-0.013455373235046864]]],[[[0.04317711293697357,-0.042296234518289566,0.03531380742788315],[-0.1706613451242447,0.22719484567642212,-0.05562308803200722],[-0.04741135984659195,0.11546769738197327,0.10104317218065262]],[[-0.1032252237200737,0.20367012917995453,-0.0560736358165741],[-0.03129471093416214,0.26958706974983215,-0.17316193878650665],[-0.31820806860923767,0.328786700963974,0.008843280375003815]],[[-0.11607593297958374,0.6819829940795898,0.10416761785745621],[-0.36227792501449585,0.12840837240219116,-0.1600642055273056],[0.08500455319881439,0.11832563579082489,-0.12874360382556915]],[[0.12663772702217102,0.2827129364013672,-0.03896348178386688],[0.15437385439872742,-0.13843314349651337,-0.13556352257728577],[-0.24315914511680603,0.2925044894218445,0.15544387698173523]],[[0.07249688357114792,-0.1589469611644745,-0.1119435653090477],[0.09459201246500015,0.43415936827659607,0.33312591910362244],[-0.08802700787782669,0.24507321417331696,-0.17242975533008575]],[[-0.053343724459409714,-0.23100747168064117,-0.041577909141778946],[-0.18471218645572662,-0.2388376146554947,0.06999716907739639],[0.12364126741886139,0.022180240601301193,0.027922064065933228]],[[0.037711065262556076,-0.19877035915851593,0.16694442927837372],[0.13833940029144287,-0.0024008085019886494,-0.16411365568637848],[-0.0518423356115818,-0.18063472211360931,-0.14022080600261688]],[[0.11208253353834152,0.14371319115161896,-0.06309477239847183],[0.007064664736390114,0.3259897232055664,0.000216161526623182],[-0.2590384781360626,0.652618944644928,0.2994524836540222]]],[[[0.0028345321770757437,0.05910150334239006,0.030594229698181152],[-0.10780039429664612,0.24454858899116516,-0.0564059317111969],[-0.1271396279335022,0.37359243631362915,0.05622456222772598]],[[-0.04160739481449127,-0.01249132864177227,0.02903435006737709],[0.03143393620848656,0.14075928926467896,0.03111283853650093],[0.043896790593862534,-0.11202849447727203,-0.009920543059706688]],[[-0.03176455572247505,0.023655999451875687,0.18288828432559967],[-0.10635500401258469,0.051225822418928146,-0.13612794876098633],[-0.1120578944683075,0.004204019904136658,-0.11246764659881592]],[[0.09049732238054276,-0.10200381278991699,-0.03717488795518875],[0.07710683345794678,-0.2238863855600357,-0.16026252508163452],[0.1762768179178238,0.10873564332723618,-0.29530972242355347]],[[-0.017811983823776245,-0.06950078159570694,-0.1027524545788765],[0.08780506998300552,0.10235907882452011,0.2368282675743103],[0.08939099311828613,0.06862068921327591,0.054600466042757034]],[[-0.010621242225170135,-0.017277836799621582,-0.029043318703770638],[-0.029180560261011124,-0.0607462078332901,-0.07718808948993683],[0.016606878489255905,0.02476051077246666,0.07827968150377274]],[[0.1153682991862297,0.05103078484535217,0.21902984380722046],[0.18186324834823608,-0.02836867794394493,0.12515409290790558],[0.05672435835003853,0.13616952300071716,-0.017203880473971367]],[[0.020789360627532005,0.019116293638944626,0.03640884533524513],[-0.0926436260342598,0.1433037370443344,-0.14358694851398468],[0.07542431354522705,0.03723907843232155,0.03128061071038246]]],[[[0.0851210355758667,-0.014665584079921246,-0.03408468887209892],[0.18510261178016663,-0.03997725993394852,0.21006841957569122],[-0.10233214497566223,-0.3094691038131714,-0.08497453480958939]],[[0.04973321408033371,0.009195206686854362,-0.059224650263786316],[-0.013798457570374012,0.17237858474254608,-0.01541085634380579],[0.0183756984770298,-0.281605064868927,-0.06277361512184143]],[[-0.10840154439210892,0.14098986983299255,-0.18698470294475555],[-0.1007833182811737,0.24806390702724457,-0.1952574998140335],[-0.1282351166009903,0.035482730716466904,-0.18429212272167206]],[[-0.24432773888111115,0.359271377325058,0.06287381052970886],[0.013115343637764454,-0.1665128767490387,-0.3025238811969757],[0.0060863615944981575,-0.15273186564445496,-0.06192728504538536]],[[0.09728693217039108,0.1889193058013916,0.3795569837093353],[0.12795136868953705,-0.11580253392457962,0.19418621063232422],[0.08941144496202469,-0.018916452303528786,-0.24478167295455933]],[[-0.13858039677143097,-0.07025419175624847,-0.12737992405891418],[-0.034265827387571335,0.08233992010354996,0.13789662718772888],[0.09779645502567291,-0.04615458473563194,0.1418026089668274]],[[0.18255029618740082,0.35684674978256226,0.21415479481220245],[-0.04972260072827339,0.0995374470949173,0.16224998235702515],[-0.022108320146799088,0.335297167301178,-0.05257149040699005]],[[0.03625158593058586,0.10084167122840881,-0.07531056553125381],[0.10865676403045654,0.21208108961582184,0.04274405166506767],[0.08652018010616302,0.13427980244159698,-0.05683283880352974]]],[[[-0.09137441217899323,-0.003828807733952999,0.11481981724500656],[0.008551104925572872,0.18899567425251007,-0.16187386214733124],[-0.019079383462667465,0.129103884100914,-0.13734662532806396]],[[-0.09373331815004349,0.05863728001713753,-0.01470253337174654],[0.013739274814724922,0.5305144190788269,0.17253918945789337],[0.15156573057174683,0.16311447322368622,0.1613290011882782]],[[0.12883563339710236,0.2849944233894348,0.05846848711371422],[0.07257941365242004,-0.3966667354106903,-0.0010925628012046218],[-0.0607362762093544,-0.19316989183425903,0.20943096280097961]],[[-0.01185152679681778,-0.02962583862245083,-0.13165269792079926],[-0.12164293229579926,-0.25895026326179504,-0.10068394988775253],[0.04340272769331932,0.11042767018079758,-0.07598528265953064]],[[-0.30040615797042847,-0.3157886266708374,-0.6232613921165466],[-0.35533925890922546,0.41749027371406555,-0.4461897909641266],[-0.31843480467796326,-0.4435875713825226,-0.28632792830467224]],[[0.08581773936748505,-0.11365954577922821,0.1654646396636963],[0.16227339208126068,-0.1404377818107605,0.08913934975862503],[-0.18810655176639557,0.1924874186515808,0.1289893388748169]],[[0.1207370012998581,-0.07951793819665909,-0.0018893219530582428],[0.03791425749659538,0.21902543306350708,-0.21515774726867676],[0.08663833886384964,-0.1206120029091835,-0.025133196264505386]],[[0.019086139276623726,0.04854685068130493,-0.07226625829935074],[-0.3529658019542694,0.01972740888595581,-0.2142045795917511],[0.07464626431465149,0.041997864842414856,0.10999230295419693]]],[[[0.1735251545906067,0.017119847238063812,-0.10285623371601105],[0.35101640224456787,-0.6515958309173584,0.2610676884651184],[0.10474460572004318,-0.1174294650554657,0.007598675787448883]],[[0.0217994824051857,-0.03114735148847103,-0.15625347197055817],[0.33860325813293457,0.15082520246505737,-0.18056845664978027],[0.12357837706804276,0.04963052645325661,-0.07627488672733307]],[[-0.1838461309671402,0.024632779881358147,-0.18897898495197296],[-0.741485059261322,0.31156933307647705,-0.3079212009906769],[0.023786479607224464,0.11838633567094803,-0.17539077997207642]],[[-0.1567179411649704,-0.17678847908973694,0.07133598625659943],[-0.506066620349884,0.4009723961353302,-0.0655299499630928],[0.09630456566810608,-0.06863183528184891,0.011370452120900154]],[[0.055499788373708725,-0.04792863875627518,0.2317233383655548],[0.15108482539653778,-0.11120486259460449,0.0040754410438239574],[-0.14160063862800598,0.12593577802181244,-0.1256909817457199]],[[-0.11681373417377472,0.3136979937553406,-0.008826933801174164],[-0.42965424060821533,0.25021132826805115,0.3184104263782501],[-0.05721370130777359,0.1279325783252716,0.029941774904727936]],[[0.22351278364658356,-0.16589103639125824,-0.04701613262295723],[0.21645347774028778,-0.28350239992141724,0.14427410066127777],[0.10880146920681,-0.14252524077892303,-0.0569252111017704]],[[-0.054101865738630295,-0.06492997705936432,0.07789985090494156],[-0.11049772053956985,-0.04817518964409828,-0.08362749963998795],[0.2378271371126175,0.019016003236174583,-0.1258237212896347]]],[[[-0.07865621149539948,0.03145153075456619,0.02460000477731228],[-0.028831670060753822,0.0898285061120987,-0.011353500187397003],[-0.07221780717372894,-0.11876749247312546,0.14419327676296234]],[[-0.21909672021865845,-0.09541613608598709,-0.11130455136299133],[-0.2757076919078827,0.283582478761673,-0.06737391650676727],[-0.09326395392417908,0.04686693102121353,0.0007363928598351777]],[[-0.15733563899993896,-0.14607442915439606,-0.0001963822724064812],[0.34220218658447266,0.13222052156925201,-0.2655111849308014],[0.1111658588051796,0.02534348890185356,-0.10693392157554626]],[[0.08031568676233292,-0.13707756996154785,-0.029732121154665947],[0.21985368430614471,0.2593642473220825,0.034748781472444534],[-0.2509608864784241,0.16378211975097656,0.014572201296687126]],[[0.185381680727005,0.44220414757728577,0.0404919795691967],[0.15229767560958862,0.20856645703315735,0.3422102630138397],[0.10598088800907135,0.15818189084529877,0.15921595692634583]],[[0.09769323468208313,0.04536899924278259,-0.003927423618733883],[-0.017906738445162773,-0.29285353422164917,-0.04302503913640976],[-0.0006685882690362632,-0.12495008111000061,0.11815745383501053]],[[0.08400235325098038,-0.29099687933921814,0.14935867488384247],[0.00014219032891560346,0.12144691497087479,-0.07340794056653976],[0.07207462936639786,-0.10962287336587906,0.01624591276049614]],[[-0.16530244052410126,0.14220839738845825,0.032399602234363556],[-0.018742965534329414,0.32955485582351685,-0.09345000982284546],[-0.07655533403158188,0.28635865449905396,0.11123794317245483]]]],"biases":[-0.002339281840249896,0.14376801252365112,0.018606865778565407,0.11760824173688889,0.11774186789989471,0.07180466502904892,-0.062492385506629944,-0.05799083039164543]},"conv5":{"weights":[[[[-0.12580174207687378,0.08760711550712585,-0.02054358832538128],[-0.013843568973243237,0.23338069021701813,-0.08940838277339935],[-0.18421456217765808,0.02446689084172249,-0.02301115170121193]],[[0.12807220220565796,-0.04576758295297623,0.04782986640930176],[0.047379110008478165,-0.24307440221309662,0.16008655726909637],[0.020647456869482994,-0.017912084236741066,0.020827358588576317]],[[-0.2360955774784088,0.14515966176986694,-0.14863774180412292],[-0.389810174703598,0.2563052177429199,-0.19973140954971313],[0.07617215067148209,0.011217127554118633,0.014088968746364117]],[[-0.021544793620705605,-0.07516489177942276,0.07308320701122284],[0.0496845580637455,0.0325518473982811,-0.0896487608551979],[-0.036976851522922516,0.11141891032457352,0.02760254591703415]],[[-0.03168249502778053,-0.05925794318318367,0.07359586656093597],[-0.02898130752146244,0.02933396026492119,0.015962669625878334],[0.10842860490083694,-0.15526100993156433,0.012951365672051907]],[[-0.01383308693766594,-0.08407998085021973,0.2706522047519684],[-0.07487499713897705,0.08406560122966766,0.09751014411449432],[-0.012408953160047531,-0.09841114282608032,-0.03534133732318878]],[[0.08034810423851013,0.26667359471321106,-0.21419310569763184],[-0.09314385056495667,0.6642581224441528,-0.976094126701355],[0.11848556250333786,0.16043376922607422,-0.20010043680667877]],[[-0.12796743214130402,0.03424403816461563,-0.15271177887916565],[-0.0722065418958664,-0.6509988903999329,0.16022582352161407],[-0.05096675828099251,-0.06402486562728882,0.07086197286844254]]],[[[0.059013836085796356,-0.08903340250253677,-0.053114160895347595],[0.17573890089988708,-0.37925398349761963,0.06536915153265],[0.035151414573192596,-0.1835889369249344,0.08283574134111404]],[[-0.26870137453079224,0.07367538660764694,0.11974377930164337],[-0.42601853609085083,-0.1849026381969452,0.04236665368080139],[-0.147441565990448,-0.05739237368106842,0.002544600050896406]],[[-0.09224684536457062,0.07710453867912292,-0.0642918199300766],[-0.19839954376220703,0.08244283497333527,0.11382252722978592],[0.11095938086509705,-0.16232340037822723,0.036591630429029465]],[[-0.06788420677185059,-0.11246127635240555,0.21150855720043182],[-0.07221288979053497,0.13295340538024902,0.14463883638381958],[-0.12624704837799072,0.11062685400247574,-0.04318691045045853]],[[0.06176447495818138,-0.0016632603947073221,-0.14693018794059753],[0.08760297298431396,0.14525097608566284,-0.1131560280919075],[0.42588621377944946,-0.38184988498687744,0.03608449548482895]],[[0.29565250873565674,-0.08299673348665237,0.05250120908021927],[-0.028275534510612488,0.31686651706695557,-0.3236737549304962],[0.19921866059303284,0.08207355439662933,0.07667015492916107]],[[-0.15682697296142578,0.09759864211082458,0.208186075091362],[-0.4572042226791382,0.2816726565361023,0.40969303250312805],[0.024266043677926064,0.2103995829820633,-0.13604679703712463]],[[-0.073765829205513,-0.17760495841503143,-0.10365025699138641],[-0.18554513156414032,0.09968329966068268,-0.2897181510925293],[-0.008697549812495708,-0.2957761585712433,-0.04201815277338028]]],[[[0.11928808689117432,0.14495082199573517,0.055322516709566116],[-0.0535367876291275,0.30504176020622253,0.21202823519706726],[0.09384801983833313,-0.008033990859985352,-0.0378519706428051]],[[0.08133293688297272,0.23437035083770752,-0.02552052028477192],[-0.05245250463485718,-0.23577819764614105,0.013603007420897484],[-0.12388968467712402,-0.01706680655479431,-0.04633302241563797]],[[-0.005077102687209845,-0.05496308580040932,-0.008792968466877937],[0.021457593888044357,0.09689310193061829,0.014502724632620811],[-0.004157025367021561,-0.027700288221240044,0.0027511543594300747]],[[-0.0342758372426033,-0.13707925379276276,-0.08988954871892929],[0.40745508670806885,0.1976470947265625,0.0743502601981163],[0.02244982309639454,-0.06373976916074753,0.009701436385512352]],[[-0.02754622884094715,-0.14811092615127563,0.02358330972492695],[0.05969487503170967,-0.036649614572525024,-0.007904056459665298],[-0.07465478777885437,0.008233480155467987,-0.02938125468790531]],[[-0.054747458547353745,-0.115056112408638,0.07030902057886124],[0.021996160969138145,0.13808873295783997,-0.01464799977838993],[-0.00797599833458662,-0.002357015386223793,0.06854824721813202]],[[0.04950045794248581,-0.010454817675054073,-0.009169887751340866],[0.01543919462710619,0.048589274287223816,-0.09479091316461563],[-0.0008961052517406642,0.09372574090957642,-0.05855798348784447]],[[0.08532271534204483,0.07909535616636276,-0.03507697209715843],[0.026535067707300186,-0.2414371222257614,0.02357487380504608],[-0.061092033982276917,0.027501510456204414,0.03369252383708954]]],[[[-0.052365951240062714,-0.019918816164135933,-0.06033524125814438],[-0.16325093805789948,0.07876833528280258,0.10415937006473541],[-0.18254749476909637,0.12009430676698685,0.010613156482577324]],[[-0.05249775946140289,0.011277827434241772,-0.03878726437687874],[-0.18665200471878052,0.09346877038478851,-0.00653172517195344],[-0.019530314952135086,-0.048554904758930206,-0.04262487590312958]],[[-0.017788752913475037,-0.15504540503025055,0.003535924945026636],[-0.30010318756103516,0.13592690229415894,-0.022454576566815376],[0.09997355937957764,-0.07160444557666779,-0.009214742109179497]],[[-0.2692788541316986,0.3780418038368225,-0.04287833720445633],[-0.3367108702659607,0.35172566771507263,-0.0728057324886322],[-0.09358242154121399,0.10572832077741623,-0.0845162495970726]],[[-0.04114881902933121,0.11816086620092392,-0.04370208457112312],[0.12471063435077667,-0.21208377182483673,0.1539679318666458],[0.2000589221715927,-0.24448765814304352,0.10505829751491547]],[[0.12793806195259094,0.1804831326007843,-0.0773550495505333],[-0.16359375417232513,-0.06366027891635895,0.16496504843235016],[0.14587579667568207,-0.34401318430900574,0.10144736617803574]],[[-0.03352786973118782,0.26206174492836,-0.06849956512451172],[0.05859456583857536,0.7683020234107971,0.0008928633760660887],[0.09569055587053299,0.23805437982082367,-0.09130300581455231]],[[0.0327724926173687,-0.31518542766571045,0.03046809323132038],[0.22409303486347198,-0.5330531597137451,0.16073760390281677],[0.003268118714913726,-0.11260002106428146,0.0243011936545372]]],[[[-0.10874710232019424,-0.12392210215330124,-0.1252901256084442],[-0.019963420927524567,0.24263226985931396,0.3409801721572876],[-0.09714798629283905,0.043442994356155396,-0.1004459336400032]],[[-0.05880584940314293,-0.26781272888183594,-0.15844635665416718],[0.10384871810674667,0.07257446646690369,0.12124620378017426],[0.002507891971617937,-0.03362640365958214,-0.004966408014297485]],[[-0.02200881950557232,0.04711403325200081,0.12937909364700317],[-0.0962219089269638,0.09293649345636368,-0.09896277636289597],[0.016278745606541634,0.0041650449857115746,0.012726201675832272]],[[0.15331071615219116,0.30034351348876953,-0.12175974249839783],[-0.06782005727291107,0.4280010461807251,0.04800131171941757],[0.047037798911333084,0.053812939673662186,-0.07643868029117584]],[[0.1617080271244049,0.1675093024969101,0.03731542080640793],[0.2798943817615509,-0.12056121975183487,0.10119710862636566],[0.01039848942309618,-0.09833547472953796,0.14025096595287323]],[[0.0443970188498497,0.25368303060531616,0.06510503590106964],[0.02937607653439045,0.06013735011219978,0.07988607883453369],[0.003998839296400547,0.07781237363815308,0.04006173089146614]],[[-0.0019107029074802995,-0.026618385687470436,-0.05650860816240311],[0.015001305378973484,0.00849241018295288,-0.03283366188406944],[-0.014738968573510647,0.04541999101638794,0.0008065609144978225]],[[0.009656480513513088,-0.17677685618400574,0.052178602665662766],[-0.04493353143334389,-0.031118592247366905,-0.02439810521900654],[-0.007191110868006945,-0.09579893946647644,-0.022957738488912582]]],[[[0.21699495613574982,-0.053666144609451294,-0.04892350360751152],[-0.0293705053627491,0.037412069737911224,0.3127391040325165],[-0.09437686949968338,-0.06123685836791992,-0.2410930097103119]],[[0.029764605686068535,-0.09178589284420013,0.020136279985308647],[0.023381507024168968,0.6849884390830994,0.22680681943893433],[0.05937899276614189,-0.19182969629764557,0.15577805042266846]],[[-0.03960442543029785,0.08352595567703247,-0.14726190268993378],[-0.10000527650117874,-0.30229246616363525,-0.07950299978256226],[0.10032875835895538,0.290346622467041,0.11976061761379242]],[[0.07285694032907486,0.11790791153907776,0.04900015518069267],[0.046148862689733505,-0.13060082495212555,-0.230152428150177],[-0.07860486209392548,-0.04290254786610603,0.11976397782564163]],[[-0.07158917933702469,-0.1342974752187729,-0.033972661942243576],[-0.25434622168540955,-0.27066078782081604,-0.07371658831834793],[0.32151955366134644,0.48009517788887024,0.023559758439660072]],[[-0.06774557381868362,-0.047079429030418396,0.25097379088401794],[0.0953967347741127,-0.1692000776529312,-0.1848331093788147],[0.09634127467870712,0.21911945939064026,0.03685130178928375]],[[0.02370397001504898,-0.0191729124635458,-0.1513240784406662],[-0.062448278069496155,-0.10383281111717224,0.09241451323032379],[-0.0034686692524701357,-0.09821821004152298,-0.04984908178448677]],[[0.009326701983809471,-0.020135337486863136,-0.032790206372737885],[0.04803874343633652,0.11914339661598206,0.3458394706249237],[-0.06726618111133575,-0.2757047116756439,-0.45871156454086304]]],[[[-0.14864416420459747,-0.13274666666984558,0.2973926365375519],[-0.10862099379301071,0.19813172519207,0.18877173960208893],[-0.04502405598759651,-0.0218996312469244,-0.05635794997215271]],[[0.02183546870946884,-0.10582862049341202,0.19074589014053345],[-0.4110405743122101,0.22583170235157013,0.012172260321676731],[0.09428268671035767,-0.10907568037509918,0.03556777164340019]],[[-0.10616020113229752,-0.044276829808950424,-0.1442635953426361],[0.10743400454521179,-0.26619282364845276,0.025170471519231796],[0.02727789618074894,0.2016943097114563,-0.026968471705913544]],[[-0.2107584923505783,0.22251638770103455,-0.044660795480012894],[-0.19288551807403564,-0.06751565635204315,0.1496029645204544],[0.030791975557804108,-0.1815318465232849,0.0988042876124382]],[[0.1603284478187561,-0.09815394133329391,-0.088372141122818],[0.26791468262672424,-0.09367012232542038,-0.11356296390295029],[-0.17346903681755066,0.39056646823883057,-0.1925223022699356]],[[0.052069392055273056,-0.35786643624305725,0.08424587547779083],[-0.6025992035865784,-0.05311198532581329,-0.1967300921678543],[-0.24455897510051727,-0.12240919470787048,-0.3263128101825714]],[[-0.032798200845718384,0.06967323273420334,0.10005870461463928],[0.019647246226668358,0.7354617714881897,0.059191517531871796],[0.006949442904442549,-0.03440169245004654,0.19192728400230408]],[[0.15025770664215088,-0.18535131216049194,0.05519717559218407],[-0.006210031919181347,0.10060543566942215,-0.19421739876270294],[0.07043294608592987,-0.05476585403084755,-0.0064671579748392105]]],[[[0.18940913677215576,-0.09411878138780594,0.08821021765470505],[-0.08378181606531143,0.026957256719470024,0.23966507613658905],[0.08103122562170029,0.09640265256166458,0.16213248670101166]],[[0.12265277653932571,0.17306846380233765,-0.1648198515176773],[0.1030196100473404,0.04778219386935234,-0.172671839594841],[-0.08192390203475952,-0.07647981494665146,-0.018913930281996727]],[[-0.01915750466287136,-0.12104968726634979,0.07442115992307663],[-0.1027684435248375,0.04989055171608925,0.029676709324121475],[0.06670668721199036,-0.012374842539429665,-0.0038043393287807703]],[[0.11073155701160431,-0.18506686389446259,-0.12326075881719589],[0.1495366394519806,-0.005892070475965738,-0.1335614025592804],[-0.12417355924844742,-0.03485513851046562,-0.026384826749563217]],[[0.0432865135371685,-0.06435368210077286,0.04691506549715996],[-0.05778202414512634,-0.0033657841850072145,0.16686581075191498],[0.11122945696115494,0.16057716310024261,0.18867765367031097]],[[-0.07853712886571884,0.17041875422000885,0.06580805033445358],[0.1318006068468094,-0.3728827238082886,0.23660726845264435],[0.07800640165805817,0.05182380601763725,-0.014263337478041649]],[[0.0011461516842246056,-0.027560986578464508,0.029273921623826027],[-0.04815861955285072,-0.02141551859676838,0.13878779113292694],[-0.039959900081157684,-0.11675058305263519,0.12296105921268463]],[[0.12938988208770752,-0.04678745195269585,0.004258740693330765],[-0.10834764689207077,0.021233271807432175,-0.26090219616889954],[0.0669008418917656,-0.05507466569542885,0.00940999761223793]]]],"biases":[-0.0700773075222969,-0.04565748944878578,-0.06365278363227844,-0.0626818984746933,-0.07692932337522507,-0.006332602817565203,-0.06036953255534172,0.012480270117521286]},"conv6":{"weights":[[[[-0.01372593268752098,-0.1771353930234909,0.12645064294338226],[-0.05318763107061386,-0.22036869823932648,0.022555537521839142],[-0.09380882233381271,-0.07462939620018005,0.30748987197875977]],[[-0.14300711452960968,-0.15743346512317657,0.0934341698884964],[0.040623728185892105,-0.07877419888973236,-0.13292023539543152],[-0.09047366678714752,-0.10949969291687012,0.12592534720897675]],[[-0.0006760095129720867,0.05819058045744896,0.05236049368977547],[0.06915844231843948,0.3643752932548523,0.22107692062854767],[0.02626156248152256,0.06934714317321777,-0.06933813542127609]],[[0.005724241025745869,0.32637786865234375,-0.02719174697995186],[0.01884300634264946,0.2615189552307129,0.2497718185186386],[0.17511290311813354,0.3612806499004364,0.043855611234903336]],[[-0.013267815113067627,-0.08811798691749573,0.09877542406320572],[-0.02620409056544304,0.028995055705308914,-0.22736895084381104],[-0.09221326559782028,0.038774073123931885,0.0155814029276371]],[[0.014442169107496738,0.33259880542755127,0.08586759865283966],[0.3004736006259918,-0.43305400013923645,0.17352066934108734],[-0.15894317626953125,-0.06846590340137482,-0.016803666949272156]],[[0.05046629160642624,0.08482912182807922,-0.13128973543643951],[0.0846676230430603,-0.26669785380363464,0.1615837961435318],[-0.12116958945989609,-0.04138626158237457,0.2303992360830307]],[[-0.0677138939499855,-0.004938208032399416,0.08241025358438492],[-0.023930290713906288,0.024882003664970398,-0.0355423241853714],[0.034746117889881134,0.06446366757154465,0.045885082334280014]]],[[[-0.11748742312192917,-0.0821695551276207,0.057736851274967194],[0.08753613382577896,0.004453050903975964,0.2596340775489807],[-0.1979290395975113,0.10483471304178238,0.07430294156074524]],[[-0.15813833475112915,0.1518062949180603,-0.17270606756210327],[0.0714104101061821,0.004427763633430004,0.2620425820350647],[-0.08707904815673828,0.21187403798103333,0.044136691838502884]],[[0.008683459833264351,0.18195615708827972,0.14464664459228516],[0.11994379013776779,0.07736916840076447,0.13941289484500885],[0.031263597309589386,0.12550614774227142,0.3325309753417969]],[[0.0624365508556366,0.008241591043770313,-0.10231565684080124],[-0.021309709176421165,-0.04731769859790802,-0.2831173837184906],[0.2196854054927826,0.1007247343659401,-0.21656078100204468]],[[-0.09750624001026154,0.1871015876531601,-0.06252774596214294],[0.25034257769584656,0.09996338188648224,0.05482836440205574],[-0.23852474987506866,-0.11957982927560806,-0.09483493119478226]],[[-0.02995908260345459,-0.3459553122520447,0.04466870427131653],[0.4119082987308502,0.0583292655646801,-0.23046456277370453],[-0.20378492772579193,0.3118261694908142,-0.1772398054599762]],[[-0.02624511532485485,-0.14118441939353943,0.13619163632392883],[0.03177697956562042,0.06212525814771652,-0.11609693616628647],[-0.20274581015110016,-0.009103651158511639,0.08408470451831818]],[[0.0059142648242414,-0.13128861784934998,-0.08871489763259888],[-0.21507343649864197,0.29545608162879944,-0.0795089602470398],[-0.04885406047105789,-0.040214940905570984,0.1535370945930481]]],[[[-0.06084383651614189,0.04290095716714859,0.047021038830280304],[0.013815965503454208,0.3711630702018738,0.1534334421157837],[-0.07426141202449799,0.22537009418010712,-0.2108774483203888]],[[0.010224568657577038,0.07591942697763443,0.025800535455346107],[0.020802665501832962,0.2871081233024597,-0.005172637291252613],[-0.03755275532603264,0.2128630429506302,-0.13400115072727203]],[[0.03930077701807022,-0.22025999426841736,-0.048822659999132156],[-0.03751460462808609,0.01357616949826479,0.2696097791194916],[0.1140683963894844,-0.27695736289024353,0.1348743587732315]],[[0.03986181318759918,-0.09269498288631439,-0.08857052773237228],[0.13255073130130768,-0.21013475954532623,-0.4130086898803711],[0.11830933392047882,-0.3170938491821289,-0.09730418026447296]],[[0.08403576910495758,0.0109404930844903,-0.039184100925922394],[-0.02547132596373558,0.2093873918056488,0.13701823353767395],[0.06997756659984589,0.32104936242103577,0.17923374474048615]],[[0.07291142642498016,0.10430191457271576,-0.03917596489191055],[-0.15257471799850464,-0.44854575395584106,-0.03215160220861435],[0.13850262761116028,-0.19573168456554413,0.08803636580705643]],[[-0.022478243336081505,-0.009383083321154118,-0.07854793965816498],[-0.11799664795398712,-0.05046664550900459,0.11668060719966888],[-0.08755414932966232,0.25698092579841614,-0.22114691138267517]],[[-0.03982783108949661,0.16060680150985718,0.08363963663578033],[0.09215790778398514,0.018644480034708977,-0.01616186462342739],[-0.06832139939069748,-0.24296800792217255,-0.050006456673145294]]],[[[-0.019553210586309433,0.15632376074790955,-0.07046552747488022],[0.06667282432317734,0.8526743054389954,-0.012522043660283089],[-0.03454357013106346,0.23395057022571564,0.44334983825683594]],[[0.17694976925849915,-0.02642764151096344,0.019942648708820343],[0.1487196832895279,0.7619953155517578,-0.2431773990392685],[-0.055644694715738297,0.10135309398174286,0.2672305107116699]],[[0.10522546619176865,0.17567992210388184,0.12481866776943207],[-0.044402141124010086,-0.08980697393417358,0.18457067012786865],[0.05418869107961655,-0.28640031814575195,0.21300825476646423]],[[-0.01873842254281044,-0.33446624875068665,-0.15034370124340057],[0.17833051085472107,-0.6338675022125244,-0.4620514214038849],[0.16638033092021942,0.08592741191387177,-0.20849120616912842]],[[0.12223366647958755,0.008053536526858807,-0.024625161662697792],[-0.17266565561294556,-0.28253674507141113,0.24828021228313446],[0.21769891679286957,0.40683749318122864,-0.17950960993766785]],[[0.21781766414642334,0.05242824926972389,0.12898539006710052],[-0.2103055864572525,-0.2953537404537201,0.1826876997947693],[-0.15670335292816162,0.04545518755912781,-0.026666309684515]],[[0.042547620832920074,-0.09560591727495193,0.02231786586344242],[-0.11855373531579971,0.054170798510313034,-0.07763513922691345],[-0.032958246767520905,0.09905362874269485,0.052594661712646484]],[[-0.0030936538241803646,0.12581245601177216,0.011127807199954987],[0.19584240019321442,-0.10613735765218735,-0.09918951988220215],[0.04731657728552818,0.02412058599293232,0.22379793226718903]]],[[[0.18019570410251617,-0.1579730063676834,0.20871135592460632],[-0.07475301623344421,0.0848073959350586,-0.2987823188304901],[0.05018065497279167,-0.16391810774803162,-0.13914136588573456]],[[-0.03582857549190521,-0.3162732720375061,0.5007609724998474],[0.03807155042886734,-0.3095181882381439,0.39987805485725403],[0.002934388117864728,-0.13645829260349274,0.07265260815620422]],[[-0.07729557156562805,0.05325537547469139,-0.28403177857398987],[0.0008542354917153716,0.0824555903673172,-0.1992475688457489],[-0.04601891338825226,0.12624406814575195,-0.045439738780260086]],[[-0.21129366755485535,0.21880869567394257,-0.06624477356672287],[0.015744319185614586,0.15587876737117767,-0.41358673572540283],[-0.08792316913604736,-0.03877982497215271,-0.12267450243234634]],[[0.1531612128019333,-0.21493324637413025,0.18900066614151],[-0.026034029200673103,0.1138944923877716,-0.08266489952802658],[-0.02777494676411152,-0.05500916391611099,-0.01895521767437458]],[[-0.26367712020874023,0.133127361536026,-0.5780556201934814],[0.04803962633013725,0.04883511736989021,-0.3580375015735626],[0.0994761511683464,-0.11702337116003036,-0.08813441544771194]],[[0.10570897907018661,-0.28536471724510193,0.3599596917629242],[0.04227614030241966,-0.26159825921058655,0.7998338937759399],[0.008835230022668839,-0.15681086480617523,0.22312244772911072]],[[0.04259907081723213,-0.0879281759262085,0.5001090168952942],[-0.04316886141896248,-0.16233250498771667,0.11922462284564972],[0.0980842188000679,-0.0558379702270031,0.029098166152834892]]],[[[-0.3708590567111969,-1.378401279449463,0.4571825861930847],[0.41284945607185364,-0.8001528978347778,0.503504753112793],[-0.08593561500310898,0.10192588716745377,0.03810051456093788]],[[-0.7505220174789429,-0.3218770921230316,-0.6576868891716003],[-0.041790734976530075,0.1408078521490097,-0.29474690556526184],[-0.07766541838645935,-0.1278439462184906,0.04276023060083389]],[[-0.772488534450531,-0.3873019814491272,-0.2381260097026825],[0.20615050196647644,0.5375978946685791,0.39198368787765503],[-0.014617746695876122,0.07110568881034851,0.12298586964607239]],[[-0.13878297805786133,-0.16551657021045685,-0.023719239979982376],[-0.586143970489502,0.3037964701652527,-0.30706408619880676],[0.12609896063804626,0.004789623431861401,0.10423830151557922]],[[-0.695803701877594,-0.15213961899280548,-1.0340073108673096],[0.07168155163526535,0.5334876179695129,-0.034833695739507675],[-0.15863952040672302,-0.13578473031520844,-0.03992640599608421]],[[-2.2164130210876465,-1.2272226810455322,-0.924156665802002],[-0.030606824904680252,0.24337801337242126,-0.15533950924873352],[-0.19528870284557343,-0.2686138451099396,-0.13278372585773468]],[[-0.3064238429069519,-0.16863079369068146,-0.37141045928001404],[0.01481698639690876,-0.18385012447834015,-0.1732514649629593],[-0.048051316291093826,-0.10382384806871414,0.0142525564879179]],[[-1.7131178379058838,-0.3236526846885681,-0.5208182334899902],[-0.09884010255336761,-0.13866375386714935,-0.06446508318185806],[-0.006817108020186424,-0.10788731276988983,0.09873073548078537]]],[[[-0.030116483569145203,-0.008541601710021496,-0.00961456261575222],[-0.032540980726480484,-0.1875806599855423,0.22780370712280273],[-0.18587848544120789,0.20759916305541992,0.15555721521377563]],[[-0.044798921793699265,-0.04387762024998665,-0.002672945847734809],[0.012152813374996185,0.012941937893629074,-0.007395843975245953],[-0.13590246438980103,0.21904538571834564,-0.01321184542030096]],[[-0.0018337653018534184,-0.2763284146785736,-0.057426825165748596],[0.047336652874946594,0.38454943895339966,0.23610156774520874],[0.11035941541194916,-0.17314328253269196,0.15060770511627197]],[[-0.0192655548453331,0.027627699077129364,-0.05673958361148834],[0.008210588246583939,0.218085378408432,-0.13321056962013245],[0.25693780183792114,0.0024096982087939978,-0.1763240247964859]],[[0.006906181573867798,-0.09352001547813416,0.03745778277516365],[0.03989303484559059,0.29909294843673706,0.036600783467292786],[-0.03517334535717964,0.22553296387195587,0.09025613963603973]],[[-0.001884598983451724,0.07157561182975769,0.06515781581401825],[0.10476696491241455,-0.3902057409286499,0.018771054223179817],[-0.10348991304636002,-0.06280235946178436,0.026015792042016983]],[[-0.02338034100830555,0.12505872547626495,-0.13498355448246002],[0.06590589880943298,-0.3255428671836853,0.1304880976676941],[-0.16448526084423065,0.1379934847354889,0.05983593687415123]],[[-0.09860578924417496,0.08936063945293427,0.07582524418830872],[-0.050366368144750595,-0.06196511164307594,-0.19536344707012177],[-0.07201974093914032,-0.08315448462963104,0.07138432562351227]]],[[[-0.06458467245101929,0.04503287002444267,0.08521929383277893],[-0.10151081532239914,0.21914927661418915,0.10213453322649002],[-0.013402632437646389,-0.1281406134366989,-0.044542744755744934]],[[0.012810088694095612,0.05360225960612297,-0.05575287342071533],[-0.06817734986543655,-0.010300077497959137,0.09574306756258011],[0.06548865139484406,0.15524795651435852,-0.10195797681808472]],[[0.0889139398932457,0.07717174291610718,0.08937350660562515],[0.09035773575305939,-0.11285411566495895,0.34065788984298706],[0.03169989585876465,-0.009677874855697155,0.018624568358063698]],[[0.06386364251375198,-0.016412952914834023,-0.09539373219013214],[0.05748969316482544,-0.10556472092866898,-0.06985731422901154],[-0.03669774532318115,0.025921117514371872,-0.1542520523071289]],[[0.01650349423289299,0.08688708394765854,0.013528161682188511],[-0.12102708220481873,0.1816585808992386,0.00838608667254448],[0.06496530771255493,0.14254562556743622,0.2081945538520813]],[[0.0833255797624588,0.18790286779403687,-0.015460160560905933],[0.06590164452791214,-0.5337981581687927,-0.010290134698152542],[-0.024329040199518204,0.07780741900205612,-0.09412797540426254]],[[-0.014551963657140732,-0.059500034898519516,-0.024898620322346687],[-0.19089505076408386,0.25186291337013245,-0.08277976512908936],[0.03960687667131424,-0.17301838099956512,0.05757163092494011]],[[-0.15018311142921448,-0.01829843781888485,-0.009502420201897621],[-0.17659145593643188,0.018361933529376984,-0.12031451612710953],[-0.012781623750925064,-0.21642541885375977,-0.10345223546028137]]]],"biases":[0.037879928946495056,-0.06390824913978577,-0.02536478079855442,0.09030411392450333,-0.10088355839252472,0.006479678209871054,0.016661666333675385,0.0540819987654686]},"conv7":{"weights":[[[[-0.025106776505708694,0.2670047879219055,-0.02098545990884304],[0.0035325519274920225,0.14752356708049774,-0.20424459874629974],[0.07501771301031113,0.18609113991260529,-0.10778730362653732]],[[0.08112827688455582,0.06640598177909851,0.031274765729904175],[-0.009971998631954193,0.4402317702770233,-0.027011757716536522],[0.010920212604105473,-0.02182600647211075,-0.07855576276779175]],[[0.228351891040802,-0.010087553411722183,0.08174917846918106],[-0.04288163036108017,-0.15525171160697937,-0.024117939174175262],[0.06498311460018158,0.08888208866119385,-0.10015111416578293]],[[-0.07067344337701797,-0.05538766086101532,0.051184967160224915],[0.021985366940498352,-0.30201491713523865,0.20698955655097961],[-0.007865136489272118,0.1286088228225708,0.02378920465707779]],[[0.07825654745101929,-0.01588655821979046,-0.013166000135242939],[-0.6006404757499695,0.2004089504480362,-0.029265036806464195],[0.018400056287646294,0.068069227039814,-0.0501892976462841]],[[0.1920488029718399,0.20239512622356415,0.007189076393842697],[0.49311280250549316,0.6623123288154602,-0.2761757969856262],[-0.6528062224388123,-0.18422019481658936,-0.3312816321849823]],[[0.13633905351161957,-0.034796539694070816,-0.026281030848622322],[-0.13830815255641937,-0.3989885151386261,-0.03061106614768505],[-0.0926884263753891,-0.24933087825775146,0.06407445669174194]],[[0.1984231173992157,-0.18519911170005798,-0.169002503156662],[-0.19739502668380737,-0.0926445722579956,-0.04097440466284752],[0.12024848163127899,0.11550720781087875,0.02478029765188694]]],[[[-0.052294742316007614,0.02631543017923832,-0.011487861163914204],[0.0021671594586223364,-0.47373098134994507,0.08248741179704666],[0.1379215121269226,0.0840769037604332,-0.1324201077222824]],[[-0.012880216352641582,0.08682291209697723,0.04943512752652168],[-0.02156968228518963,0.24001282453536987,0.15523266792297363],[-0.04874996468424797,-0.06083804368972778,-0.15390793979167938]],[[0.07523968070745468,0.001109016127884388,0.07065534591674805],[-0.19920532405376434,-0.25673288106918335,0.014464047737419605],[-0.0016579595394432545,-0.07775846868753433,-0.13447386026382446]],[[-0.07059752196073532,0.12045388668775558,-0.09717032313346863],[0.12510763108730316,-0.11325296759605408,0.15485836565494537],[-0.018825814127922058,0.09561174362897873,0.10852684825658798]],[[-0.05700762942433357,-0.01573481410741806,0.0015623054932802916],[0.13799205422401428,0.24323175847530365,-0.07440595328807831],[0.12396962195634842,0.005584072321653366,0.00669838534668088]],[[0.06506360322237015,0.22255085408687592,0.12041068822145462],[-0.05058397725224495,0.9931390881538391,-0.04765118286013603],[0.12557882070541382,-0.04330747574567795,-0.3885982036590576]],[[0.012405430898070335,0.33608314394950867,-0.1682177633047104],[0.020821111276745796,-0.2408166080713272,-0.12212222814559937],[-0.04025464504957199,-0.12272106856107712,-0.005767624359577894]],[[-0.017573876306414604,0.10049590468406677,-0.06697901338338852],[-0.11315247416496277,0.1975753754377365,-0.11913718283176422],[0.14425073564052582,0.2168673574924469,0.17847847938537598]]],[[[-0.08302073180675507,-0.18241284787654877,0.12067582458257675],[0.08825457841157913,-0.52459317445755,0.31845855712890625],[0.10940321534872055,0.02033265307545662,-0.0602002814412117]],[[-0.06302393227815628,0.006373172625899315,0.11826427280902863],[-0.007937231101095676,-0.056967198848724365,0.15489472448825836],[0.002271967474371195,-0.10152567923069,-0.16039955615997314]],[[-0.23357251286506653,0.12643228471279144,0.05039089545607567],[-0.23182633519172668,-0.24576608836650848,0.03863849863409996],[0.02390282042324543,-0.0567496120929718,-0.14912080764770508]],[[0.016618167981505394,-0.029353540390729904,-0.17529937624931335],[0.13787171244621277,0.16754882037639618,-0.23821717500686646],[0.007875286042690277,0.04838716238737106,0.08568791300058365]],[[-0.01735672354698181,0.031215155497193336,0.0036091774236410856],[0.44355088472366333,-0.30547311902046204,-0.07447061687707901],[-0.008696164935827255,-0.0676230639219284,0.08811670541763306]],[[-0.02650686912238598,0.11560691148042679,0.27643781900405884],[-0.1990014761686325,0.30865442752838135,0.6818175911903381],[0.041491761803627014,-0.7712351083755493,-0.8290462493896484]],[[0.0144160445779562,0.35429617762565613,0.04921581223607063],[-0.16510382294654846,-0.12997275590896606,0.06971965730190277],[-0.12963947653770447,-0.00432185735553503,0.0551014170050621]],[[0.12579892575740814,0.4793921113014221,0.014229067601263523],[0.06712537258863449,-0.09961951524019241,-0.11590692400932312],[0.14557063579559326,0.18291422724723816,0.20005470514297485]]],[[[-0.10052128881216049,0.22591060400009155,-0.06523969769477844],[0.14075510203838348,0.2830187678337097,-0.023328887298703194],[0.07290373742580414,0.17275786399841309,-0.21915456652641296]],[[0.036519426852464676,0.14988848567008972,-0.0662115290760994],[-0.07224680483341217,0.09226708859205246,0.12978018820285797],[0.05808510258793831,0.03163420781493187,-0.11227349191904068]],[[0.2562749683856964,-0.14084596931934357,0.07978971302509308],[0.21331186592578888,-0.07947593927383423,0.13801054656505585],[0.14353397488594055,0.11297468841075897,-0.15863826870918274]],[[-0.062134090811014175,0.16046206653118134,-0.013908803462982178],[-0.09883597493171692,-0.3378768861293793,0.18621553480625153],[-0.02895476296544075,0.0866432785987854,0.046344660222530365]],[[0.05899506434798241,0.04714668542146683,-0.040063001215457916],[-0.35525625944137573,0.048515256494283676,0.015509242191910744],[-0.24419549107551575,0.16723768413066864,-0.055373407900333405]],[[0.09984835982322693,-0.06875582039356232,-0.11489499360322952],[0.11492721736431122,0.21802416443824768,-0.4032565653324127],[-0.3288887143135071,0.3472968339920044,0.09125207364559174]],[[0.003200107254087925,-0.30001142621040344,-0.008820286951959133],[-0.009927843697369099,0.10000079870223999,-0.21099328994750977],[-0.15111730992794037,-0.30361950397491455,0.13252747058868408]],[[-0.183853879570961,-0.236102893948555,-0.05410381779074669],[0.10415984690189362,-0.12569460272789001,-0.17612218856811523],[0.00520083075389266,0.11429820209741592,0.04637359082698822]]],[[[-0.01918116584420204,-0.05597640946507454,-0.048940230160951614],[-0.08222047239542007,-0.13742589950561523,0.28752440214157104],[0.2214326411485672,-0.08517595380544662,-0.26843056082725525]],[[-0.11551402509212494,0.24032118916511536,-0.07508187741041183],[0.011948460713028908,-0.12270301580429077,0.32984474301338196],[-0.01910270005464554,0.007348779123276472,-0.21910662949085236]],[[-0.04998551681637764,-0.12171895056962967,0.1528802216053009],[0.0038114457856863737,0.13267691433429718,0.0984467938542366],[0.08209531754255295,-0.15776780247688293,-0.1966663897037506]],[[-0.03735673427581787,0.20331883430480957,-0.12041865289211273],[0.07438811659812927,-0.13838742673397064,0.08139896392822266],[-0.04760419949889183,0.05183544382452965,0.15394410490989685]],[[-0.021818405017256737,-0.025922534987330437,-0.021875610575079918],[0.037678662687540054,0.16824766993522644,0.01167169027030468],[0.19410687685012817,0.09382430464029312,-0.030499156564474106]],[[-0.017832640558481216,-0.02467907778918743,-0.06796818971633911],[-0.21301735937595367,0.3465099632740021,-0.23998166620731354],[0.4150000512599945,0.6017040014266968,0.01872827671468258]],[[-0.020916158333420753,0.04880928620696068,-0.24992001056671143],[-0.002465273253619671,0.2766079008579254,-0.25649571418762207],[-0.15521839261054993,-0.08773601800203323,0.10427850484848022]],[[-0.07467883080244064,-0.26026779413223267,0.07967808842658997],[-0.03781121224164963,0.260177344083786,-0.249366894364357],[0.18384963274002075,0.13390403985977173,0.20148645341396332]]],[[[0.07012717425823212,-0.31791335344314575,0.06651142239570618],[0.009831640869379044,-0.10350024700164795,0.3890050947666168],[0.08593432605266571,-0.07823805510997772,0.11815880239009857]],[[-0.05889275670051575,0.049006760120391846,0.014564277604222298],[0.027004238218069077,-0.3236185908317566,0.06549253314733505],[-0.059107013046741486,-0.1206924244761467,-0.06977832317352295]],[[-0.14061488211154938,0.18257173895835876,0.0434158556163311],[-0.0709724947810173,0.2844584882259369,-0.1234419196844101],[-0.023449856787919998,-0.11239544302225113,0.06389231234788895]],[[0.025478539988398552,-0.08444718271493912,-0.021895304322242737],[0.09662779420614243,0.006775968242436647,-0.291677325963974],[-0.036245137453079224,0.034597575664520264,0.1334678828716278]],[[-0.04944061487913132,-0.05186448246240616,0.022320706397294998],[0.2859438359737396,-0.05628742650151253,-0.038429778069257736],[0.1573525071144104,-0.2387630045413971,0.05916648730635643]],[[-0.10083913058042526,-0.008197089657187462,0.018482666462659836],[-0.27756407856941223,-0.27407681941986084,0.3569965362548828],[0.19092945754528046,-0.38716867566108704,-0.2506525218486786]],[[-0.07598156481981277,0.0704350695014,-0.2040163278579712],[-0.07960526645183563,0.0750933364033699,0.14660990238189697],[-0.013251196593046188,0.044073183089494705,-0.28004953265190125]],[[0.05963384732604027,-0.056862425059080124,0.15831945836544037],[-0.07571765035390854,0.30008435249328613,0.031097805127501488],[0.15520618855953217,0.0802784189581871,0.24790894985198975]]],[[[0.08817815780639648,0.15604574978351593,-0.10201946645975113],[0.025375811383128166,0.34969231486320496,-0.1542166918516159],[-0.16510304808616638,0.0597248412668705,0.0018680056091398]],[[0.007731469813734293,0.011320791207253933,-0.10905339568853378],[-0.037671323865652084,-0.10032150149345398,-0.05000809207558632],[0.0690225139260292,0.22635327279567719,0.057926956564188004]],[[0.28589698672294617,-0.17755725979804993,-0.09456551820039749],[0.21863171458244324,0.036900732666254044,0.13250739872455597],[0.035839878022670746,0.06030232459306717,0.10806775838136673]],[[-0.03480380028486252,0.1449553221464157,0.03240460529923439],[-0.1563953012228012,-0.06486242264509201,0.17499476671218872],[0.02980339154601097,-0.18862071633338928,-0.0028441608883440495]],[[-0.021494854241609573,0.08110910654067993,-0.020934361964464188],[-0.04016133397817612,-0.06178262457251549,0.04636985808610916],[-0.496056467294693,0.23013538122177124,-0.0684238150715828]],[[-0.028155304491519928,-0.20075272023677826,-0.17713533341884613],[-0.08500456809997559,-0.2261669933795929,-0.48778071999549866],[-0.07701326161623001,0.6674928665161133,0.3310265839099884]],[[-0.19917543232440948,-0.20193076133728027,0.09331641346216202],[0.31646743416786194,0.21604201197624207,-0.20933566987514496],[0.07173790037631989,0.06344304978847504,-0.020257964730262756]],[[-0.32276445627212524,-0.13787361979484558,0.03950238600373268],[0.3046271800994873,-0.36107057332992554,-0.02975654788315296],[-0.2985977828502655,-0.15871722996234894,-0.17995190620422363]]],[[[0.09340126067399979,-0.12520697712898254,-0.03330652415752411],[-0.08694712072610855,0.14736467599868774,0.008099343627691269],[-0.02884553000330925,-0.265730619430542,-0.026812177151441574]],[[-0.08096664398908615,-0.01076663937419653,-0.12665621936321259],[0.004989429842680693,-0.16499844193458557,0.08751285821199417],[-0.0400107279419899,0.21765699982643127,0.036213286221027374]],[[-0.04388422891497612,-0.20067347586154938,0.019432488828897476],[0.161957785487175,0.28338220715522766,0.07931466400623322],[-0.0852595716714859,-0.09439332038164139,0.06304580718278885]],[[0.011404282413423061,0.09388814866542816,-0.007560900878161192],[-0.07320863753557205,0.1771201342344284,0.036646146327257156],[0.04862690716981888,-0.14206580817699432,-0.006302903406322002]],[[-0.0054046339355409145,0.022332310676574707,-0.022841161116957664],[-0.02527017891407013,0.026442665606737137,0.0902906060218811],[0.24170245230197906,0.19631566107273102,-0.08277025073766708]],[[-0.10768742859363556,-0.16653120517730713,-0.16266833245754242],[-0.25686267018318176,-0.24729672074317932,-0.35150623321533203],[0.5734999775886536,1.1426072120666504,0.15470722317695618]],[[-0.10022708773612976,0.014567279256880283,-0.13980093598365784],[0.0052275401540100574,0.46481817960739136,-0.24551329016685486],[0.1277959942817688,0.06799313426017761,0.08798626810312271]],[[-0.08267246186733246,-0.15238645672798157,0.09935592114925385],[-0.014912644401192665,0.09081587940454483,-0.020198844373226166],[-0.021328356117010117,-0.15937836468219757,-0.14655801653862]]],[[[0.06674385070800781,-0.21919842064380646,0.09235778450965881],[-0.07711555808782578,0.07221904397010803,0.04172424226999283],[0.025338346138596535,-0.24565114080905914,0.22668316960334778]],[[-0.04127094894647598,-0.10525931417942047,-0.03700298070907593],[-0.031228099018335342,-0.3096291124820709,-0.17413581907749176],[-0.06300796568393707,0.046864524483680725,0.20515131950378418]],[[-0.18679265677928925,0.07151868939399719,0.011542784050107002],[-0.00039681990165263414,0.2793320119380951,-0.1220170184969902],[-0.022933343425393105,0.04027336463332176,0.16759996116161346]],[[0.06629455834627151,-0.05508376657962799,0.06651950627565384],[-0.014164607040584087,0.15755827724933624,-0.2508053779602051],[0.019748514518141747,0.011492103338241577,-0.18459326028823853]],[[0.0030120396986603737,-0.05351053178310394,0.029753955081105232],[0.07351341843605042,0.10076262801885605,0.005010936874896288],[0.3633282482624054,-0.37680286169052124,0.00813300721347332]],[[-0.15436583757400513,-0.14317090809345245,-0.10643600672483444],[-0.26714280247688293,-0.6674238443374634,0.07926594465970993],[0.24157202243804932,0.035739921033382416,-0.1445397585630417]],[[-0.01430393848568201,-0.04889532923698425,-0.10997308045625687],[-0.0729583352804184,0.2946825921535492,0.3163827955722809],[0.03800824657082558,0.05512066185474396,0.0020936510991305113]],[[0.032142091542482376,-0.11347635090351105,0.09111429750919342],[-0.06725230067968369,0.4746274948120117,0.11192939430475235],[0.04269808903336525,-0.28334903717041016,-0.1400085687637329]]]],"biases":[0.041471678763628006,0.001232896582223475,0.007599041797220707,0.014435852877795696,-0.01699358969926834,-0.024405958130955696,-0.005958703346550465,-0.024212980642914772,-0.025636987760663033]}}')}}]);