(self.webpackChunkUpscaler=self.webpackChunkUpscaler||[]).push([[876],{885:s=>{"use strict";s.exports=JSON.parse('{"conv1":{"weights":[[[[0.5332564115524292,-0.2528707683086395,-0.16285063326358795],[-0.30355146527290344,0.77744060754776,-0.16563303768634796],[-0.659602701663971,0.46210384368896484,-0.5025591254234314]]],[[[0.27194055914878845,0.7794419527053833,0.6630350947380066],[-0.43605777621269226,0.05763934552669525,-0.031878527253866196],[-0.08659176528453827,-0.678371250629425,-0.465545654296875]]],[[[0.10755593329668045,0.26531267166137695,-0.6947927474975586],[-0.45623213052749634,-0.5018357038497925,-0.20939749479293823],[-0.7677085995674133,-0.31212347745895386,0.4946429431438446]]],[[[0.8805193901062012,-0.33783164620399475,0.10058259963989258],[0.6119815707206726,-0.31817564368247986,0.6513454914093018],[-0.2644135057926178,-0.36112627387046814,0.010159444995224476]]]],"biases":[-0.33043617010116577,0.10968761146068573,0.10609233379364014,0.23602013289928436]},"conv2":{"weights":[[[[0.044054269790649414,-0.021859031170606613,0.2151421755552292],[0.05649102106690407,-0.14627619087696075,0.08834473788738251],[0.027956904843449593,0.0031476260628551245,0.2930367588996887]],[[-0.3843933939933777,-0.12400516867637634,0.1698741763830185],[0.4375641644001007,-0.20360970497131348,-0.028137274086475372],[0.09742137044668198,0.037190914154052734,0.020799605175852776]],[[0.11980599164962769,0.026763884350657463,-0.2255910485982895],[0.14325013756752014,0.028791895136237144,0.24843502044677734],[-0.003328341757878661,0.19502754509449005,-0.005500004161149263]],[[0.07465571910142899,0.040757644921541214,-0.1507609635591507],[-0.030109979212284088,-0.11495427787303925,0.042005300521850586],[-0.04814594238996506,-0.05274844914674759,-0.396450012922287]]],[[[0.046682294458150864,-0.20686492323875427,0.11894256621599197],[0.18378932774066925,-0.0616888664662838,0.09146390855312347],[0.19936016201972961,0.25301888585090637,-0.02361954189836979]],[[0.07763762772083282,0.2818869948387146,0.06205557659268379],[0.09545917809009552,0.19192254543304443,0.14207378029823303],[-0.02023599110543728,-0.2802204489707947,-0.15239377319812775]],[[0.16134113073349,0.16713114082813263,0.07342281937599182],[0.15198914706707,0.05781907960772514,0.07911158353090286],[0.1858929842710495,-0.10468504577875137,0.40180620551109314]],[[-0.029217002913355827,-0.14964501559734344,-0.10932265222072601],[0.007381627336144447,-0.3691593408584595,0.11647693067789078],[0.10772092640399933,0.12401170283555984,0.14792074263095856]]],[[[0.026708336547017097,-0.1431695520877838,0.12140403687953949],[-0.21827004849910736,-0.05097560957074165,0.25861892104148865],[-0.11144591867923737,0.01907712034881115,0.11325491219758987]],[[-0.1005282774567604,0.053694773465394974,0.3420971930027008],[-0.3245934844017029,-0.12136072665452957,-0.1867057979106903],[0.1087675392627716,-0.027674663811922073,0.04339732229709625]],[[0.4939342439174652,0.23088635504245758,0.15425534546375275],[-0.169305682182312,0.08634546399116516,-0.10011288523674011],[-0.20086245238780975,-0.12164492905139923,0.03977189585566521]],[[0.0729709342122078,-0.17755739390850067,0.10277001559734344],[-0.13369841873645782,0.12286709249019623,-0.025027893483638763],[-0.01360858604311943,-0.12824715673923492,0.016807405278086662]]],[[[0.08292923122644424,0.13539530336856842,-0.09166667610406876],[-0.07305718213319778,-0.08446016162633896,-0.10685698688030243],[-0.030263224616646767,-0.10745339095592499,0.1710864156484604]],[[-0.06342054158449173,-0.008621418848633766,0.09239758551120758],[0.06892939656972885,-0.03996533900499344,0.20936305820941925],[-0.1134968176484108,0.22086285054683685,-0.3259679079055786]],[[0.19695952534675598,0.01425375696271658,-0.3114677369594574],[-0.010984020307660103,0.46600642800331116,-0.2369460165500641],[0.31096312403678894,-0.05687282234430313,-0.11084922403097153]],[[-0.07206026464700699,-0.019950460642576218,0.08149689435958862],[-0.03518332168459892,0.08189041912555695,0.2023855298757553],[-0.05649307370185852,0.10444311052560806,0.2704501748085022]]]],"biases":[-0.0946216806769371,-0.07337598502635956,0.08354996144771576,0.15143340826034546]}}')}}]);