(self.webpackChunkUpscaler=self.webpackChunkUpscaler||[]).push([[854],{798:s=>{"use strict";s.exports=JSON.parse('{"conv1":{"weights":[[[[-0.009809717535972595,0.14277495443820953,-0.18982407450675964],[0.32949239015579224,-0.10580641776323318,0.12695647776126862],[-0.030127309262752533,0.02167641744017601,-0.1910274624824524]]],[[[0.029744500294327736,0.05183683708310127,0.12843655049800873],[0.0019400770543143153,-0.16876646876335144,0.23138165473937988],[-0.15873929858207703,0.002431299304589629,-0.13966843485832214]]],[[[0.005528873298317194,0.021354632452130318,0.024396944791078568],[0.03484288230538368,-0.07143158465623856,-0.11760471761226654],[0.0015565609792247415,-0.07692249119281769,0.20446018874645233]]],[[[0.046124547719955444,0.21309277415275574,-0.0788734033703804],[0.031420718878507614,-0.2658233940601349,0.10757777839899063],[-0.009078511036932468,0.12334239482879639,-0.06136707961559296]]],[[[-0.07316529005765915,-0.11242788285017014,-0.11511807143688202],[-0.12257734686136246,0.18838410079479218,0.09442304074764252],[-0.008003509603440762,0.10618948191404343,0.05656148120760918]]],[[[-0.033900562673807144,-0.04312093183398247,-0.02112472616136074],[0.14169520139694214,-0.21151527762413025,0.008248825557529926],[0.03164273127913475,-0.06153265759348869,-0.005366272293031216]]],[[[-0.08642702549695969,0.1869850903749466,0.03375009447336197],[0.2709852159023285,-0.132833793759346,0.15113306045532227],[-0.10586106032133102,-0.03646518290042877,-0.32652631402015686]]],[[[-0.13366453349590302,0.07638677954673767,0.05590147525072098],[0.06465309858322144,-0.13691610097885132,-0.11758136004209518],[0.08470810204744339,-0.017190316691994667,0.2083761990070343]]]],"biases":[0.04194190353155136,-0.03212491795420647,0.08407589793205261,-0.04786069691181183,0.10234622657299042,-0.08097776770591736,0.009907746687531471,-0.10017126798629761]},"conv2":{"weights":[[[[0.07719969749450684,-0.051365021616220474,-0.06843144446611404],[0.2692126929759979,0.12030965089797974,-0.13431517779827118],[-0.14975076913833618,0.20773319900035858,0.13241693377494812]],[[0.10864866524934769,0.09818606078624725,-0.1115211620926857],[0.005900274496525526,0.3699939548969269,0.05606820806860924],[-0.20555120706558228,-0.12391172349452972,-0.22460021078586578]],[[-0.009593893773853779,-0.013109416700899601,0.1652134507894516],[0.0751250833272934,0.48887139558792114,0.37447652220726013],[0.024410855025053024,0.10746603459119797,0.32978227734565735]],[[0.0793825313448906,-0.23256468772888184,-0.13248513638973236],[-0.21246330440044403,0.22011660039424896,-0.11315250396728516],[-0.12175924330949783,-0.3424180746078491,0.06566726416349411]],[[0.09250207245349884,-0.12116080522537231,0.19884900748729706],[0.30076244473457336,0.21819670498371124,-0.035527847707271576],[0.1724393665790558,0.0889282375574112,0.19522783160209656]],[[0.051618270576000214,0.024421222507953644,-0.04602871090173721],[-0.012758588418364525,0.3047448992729187,-0.0832080990076065],[0.06775439530611038,-0.0765189602971077,-0.21060886979103088]],[[0.0352446548640728,0.06708459556102753,0.11082617193460464],[-0.03038039058446884,-0.06023576110601425,-0.021112481132149696],[0.22117522358894348,-0.17599937319755554,0.2256501317024231]],[[-0.027139781042933464,-0.11640351265668869,-0.04225563257932663],[0.15823793411254883,-0.18830479681491852,-0.38659214973449707],[-0.11141035705804825,-0.4358568787574768,-0.08406774699687958]]],[[[-0.15710285305976868,-0.2892470359802246,0.15995696187019348],[-0.01331392116844654,0.0011379248462617397,0.0952434092760086],[0.016763316467404366,0.14464440941810608,-0.2996082305908203]],[[-0.059426791965961456,0.027748148888349533,0.15517951548099518],[0.24765101075172424,-0.027417875826358795,-0.0910348892211914],[-0.03684082627296448,0.011359664611518383,-0.032342031598091125]],[[0.3759979009628296,-0.33393624424934387,0.08526360243558884],[0.15636493265628815,0.06451151520013809,0.335288941860199],[-0.07914222776889801,0.29922980070114136,-0.04756096750497818]],[[0.07654602080583572,0.07759447395801544,-0.1798834651708603],[0.09773115813732147,0.032473236322402954,-0.05644931644201279],[-0.04998334124684334,-0.08126591145992279,0.19029709696769714]],[[-0.13280604779720306,-0.03026813082396984,0.03814521059393883],[-0.17454534769058228,0.18831059336662292,-0.004451455548405647],[-0.08629631996154785,0.2284412980079651,-0.1491342931985855]],[[0.17443840205669403,-0.38877132534980774,0.20986466109752655],[0.11268552392721176,-0.1926707923412323,-0.2660752534866333],[0.02876906469464302,0.11124945431947708,0.2984107434749603]],[[-0.04016432166099548,-0.12973694503307343,-0.033228419721126556],[-0.029505310580134392,-0.09588824957609177,0.12495936453342438],[-0.1538286954164505,0.19770853221416473,-0.0368594229221344]],[[0.13288989663124084,-0.2606204152107239,-0.04212850332260132],[0.352203369140625,0.14162799715995789,-0.13958775997161865],[-0.2200324535369873,0.18819637596607208,-0.1747710406780243]]],[[[0.02130703441798687,0.15977421402931213,-0.05342140048742294],[0.03406635299324989,-0.07082586735486984,0.3114171624183655],[-0.2156701385974884,0.18110978603363037,-0.05141208693385124]],[[-0.013035805895924568,-0.13706082105636597,0.029123179614543915],[0.3165765404701233,-0.23834407329559326,0.1559043526649475],[-0.0979611724615097,-0.06288345903158188,0.07945223897695541]],[[0.059776972979307175,0.13250629603862762,0.005974847357720137],[0.16880197823047638,0.13890057802200317,-0.08356375992298126],[-0.009749303571879864,-0.34280702471733093,-0.2471722513437271]],[[-0.1227111965417862,0.15880486369132996,-0.13394324481487274],[-0.049063850194215775,-0.3056110739707947,0.1438094675540924],[0.04830070957541466,-0.040750131011009216,0.2914023995399475]],[[-0.21811224520206451,-0.0729881301522255,0.11712109297513962],[0.30552011728286743,0.34697678685188293,0.11642622202634811],[-0.17028817534446716,-0.22054094076156616,0.14925897121429443]],[[-0.041797712445259094,-0.10054174810647964,-0.10433676838874817],[0.10280575603246689,-0.2963077127933502,0.0866132602095604],[0.07989702373743057,-0.2126564085483551,0.23992766439914703]],[[-0.2537911832332611,-0.14426584541797638,0.19969859719276428],[-0.0894295796751976,-0.07103972882032394,0.0826030820608139],[0.21443644165992737,0.04278470203280449,-0.21476857364177704]],[[0.26436156034469604,-0.006714220624417067,0.13957716524600983],[-0.15295261144638062,-0.4615585207939148,0.3283931016921997],[0.13608671724796295,0.24590669572353363,-0.026445994153618813]]],[[[-0.01635480485856533,-0.2944887578487396,0.0644281730055809],[-0.09073803573846817,0.017792709171772003,0.15239086747169495],[-0.0733967274427414,0.10439179092645645,-0.008180257864296436]],[[0.1548835039138794,0.0820460170507431,0.04546644166111946],[0.08253774791955948,-0.22784611582756042,0.0854513943195343],[0.010631009936332703,-0.2543112337589264,0.04024264216423035]],[[0.26404067873954773,0.29078397154808044,-0.11684376001358032],[-0.00887321773916483,0.03396068885922432,0.14603488147258759],[0.05193092301487923,-0.05798852816224098,-0.03357924148440361]],[[0.003261171281337738,-0.05043571814894676,0.09811654686927795],[0.0801527351140976,-0.026727980002760887,0.11168158799409866],[-0.18434318900108337,0.25910326838493347,0.09766153246164322]],[[-0.25696852803230286,0.2519615590572357,0.021857282146811485],[-0.11391974985599518,0.15255077183246613,0.016168735921382904],[-0.18914076685905457,-0.10929559916257858,-0.023220190778374672]],[[0.28282272815704346,0.11264897882938385,0.044820576906204224],[-0.1800602376461029,-0.27886462211608887,0.02943224459886551],[0.127343088388443,0.05300357937812805,-0.10320619493722916]],[[-0.3770577013492584,0.03051321767270565,-0.08440636843442917],[0.06581705063581467,0.14682677388191223,0.14222577214241028],[-0.001316552166827023,0.05120789259672165,0.003643581410869956]],[[0.14463089406490326,-0.5469056963920593,-0.09928629547357559],[0.015079853124916553,0.04692505672574043,0.2271229773759842],[-0.2047855406999588,0.1320735216140747,0.19094105064868927]]],[[[0.12033939361572266,-0.061033353209495544,0.14930130541324615],[0.07101280987262726,-0.18111521005630493,-0.09238095581531525],[-0.03454212471842766,-0.09469937533140182,-0.1575036495923996]],[[0.22697296738624573,-0.06314945220947266,0.04100806266069412],[-0.3738674223423004,0.14125697314739227,0.03067631833255291],[0.1455969214439392,-0.11234712600708008,-0.1398961991071701]],[[-0.3685024380683899,0.3021475672721863,-0.04371742531657219],[0.04434916749596596,0.02132631279528141,-0.14087800681591034],[-0.08502408117055893,0.02632952481508255,-0.06483574956655502]],[[0.13736242055892944,-0.07251632213592529,0.0957891196012497],[-0.22565698623657227,0.33891722559928894,-0.11075109988451004],[-0.0438845120370388,-0.28617486357688904,-0.21430207788944244]],[[0.19997462630271912,0.1844458132982254,-0.18144582211971283],[-0.19183817505836487,-0.43010443449020386,-0.04395682364702225],[-0.11591216921806335,-0.029280943796038628,0.04110112413764]],[[-0.03252742812037468,0.22293415665626526,-0.024177532643079758],[0.08811625838279724,0.36677515506744385,-0.31311726570129395],[-0.07761741429567337,0.15876300632953644,0.1387327015399933]],[[0.2261599600315094,0.2660669684410095,-0.1527293622493744],[-0.07841116189956665,0.12146501243114471,-0.23431812226772308],[-0.21264228224754333,0.030021538957953453,0.1705406755208969]],[[-0.1424657553434372,0.06107495352625847,0.0032912916503846645],[0.2582748830318451,0.2087612897157669,-0.1451864093542099],[-0.06800542026758194,0.023336702957749367,0.0021538278087973595]]],[[[0.13799408078193665,0.047541745007038116,0.10625191777944565],[0.015605933032929897,0.1884646713733673,0.12151404470205307],[-0.012074127793312073,-0.1418144851922989,0.17442098259925842]],[[0.09538061916828156,-0.12285587936639786,-0.030010562390089035],[-0.1423281729221344,0.07092084735631943,0.21935027837753296],[-0.13298752903938293,-0.265500545501709,0.18993686139583588]],[[0.1813654750585556,-0.06179552152752876,-0.004116724245250225],[-0.028057347983121872,-0.10041889548301697,0.059562817215919495],[-0.1926870346069336,-0.1912699192762375,0.15003123879432678]],[[-0.15998907387256622,-0.23659992218017578,-0.0019948789849877357],[0.010452378541231155,-0.012994324788451195,0.20366588234901428],[-0.30779895186424255,-0.008909561671316624,-0.01601705327630043]],[[-0.10753820091485977,-0.01261585857719183,-0.13978394865989685],[-0.009787453338503838,0.17056795954704285,0.09097316116094589],[-0.1605880856513977,0.2141646146774292,0.4918590784072876]],[[-0.18054205179214478,0.06508175283670425,-0.09258497506380081],[0.1476222276687622,-0.2195478230714798,-0.17924469709396362],[-0.16555725038051605,-0.28178757429122925,0.20504453778266907]],[[0.02540482208132744,-0.030115053057670593,-0.020945526659488678],[-0.15980200469493866,-0.07430713623762131,0.19157935678958893],[0.13008390367031097,0.052746690809726715,0.12998515367507935]],[[0.13537472486495972,0.05029565840959549,-0.08110785484313965],[0.08224371075630188,-0.14325183629989624,0.20998051762580872],[-0.032880958169698715,-0.15818443894386292,0.16871972382068634]]],[[[0.04900309816002846,0.04545091465115547,0.11619781702756882],[-0.14094075560569763,0.036455512046813965,0.11683080345392227],[0.05346117168664932,-0.07031318545341492,-0.18212631344795227]],[[0.4280855655670166,-0.11183925718069077,0.17526260018348694],[-0.036759454756975174,-0.06232177093625069,0.1247301995754242],[-0.09314971417188644,-0.07074352353811264,-0.3199979364871979]],[[-0.24959686398506165,-0.0830981433391571,0.3647584915161133],[0.22470436990261078,0.03423921391367912,0.12216193974018097],[-0.14193326234817505,0.009075178764760494,-0.20226018130779266]],[[-0.00000764753349358216,-0.3584195673465729,-0.027777377516031265],[0.019728075712919235,0.3217428922653198,0.09197879582643509],[0.03885042667388916,-0.1309364140033722,0.21515792608261108]],[[0.21157360076904297,0.05035516619682312,-0.057310800999403],[-0.2219119518995285,-0.4384235441684723,0.0963953509926796],[-0.02746247686445713,0.0010694520315155387,-0.13801954686641693]],[[0.14276935160160065,-0.2529388666152954,0.07149481773376465],[0.09893718361854553,-0.08959266543388367,-0.18777725100517273],[0.014577152207493782,0.2716909348964691,-0.20255041122436523]],[[0.06741892546415329,-0.05756169930100441,0.05374284088611603],[0.11732392758131027,0.09539175778627396,-0.25189208984375],[-0.11883674561977386,-0.06350697576999664,0.18973049521446228]],[[-0.10395368188619614,-0.025397518649697304,-0.16027630865573883],[0.15961527824401855,0.10959886014461517,-0.06686554849147797],[-0.31621286273002625,-0.2726108431816101,0.22276681661605835]]],[[[0.03980293124914169,0.06665745377540588,-0.12320183217525482],[-0.012852302752435207,-0.10922127962112427,0.004126916639506817],[0.018190834671258926,-0.12351721525192261,-0.025026855990290642]],[[0.012931804172694683,-0.012812633998692036,0.04386301711201668],[-0.2752097547054291,0.020546024665236473,-0.1508200764656067],[-0.05550790950655937,0.016482902690768242,-0.054259393364191055]],[[0.07663986086845398,0.32664045691490173,0.16768869757652283],[0.1935746967792511,0.04763456806540489,-0.09920184314250946],[0.04964536055922508,0.2730497717857361,-0.05605042725801468]],[[-0.1162138432264328,0.015880074352025986,0.30968979001045227],[0.17615091800689697,0.19353985786437988,0.047755759209394455],[-0.11014324426651001,0.049349527806043625,-0.1528264433145523]],[[0.3036052882671356,-0.1162891760468483,0.040656279772520065],[-0.07562783360481262,0.04506487771868706,0.008119046688079834],[0.28929853439331055,-0.19443273544311523,-0.08816484361886978]],[[-0.180448979139328,-0.0926188975572586,0.20178502798080444],[0.07266253232955933,-0.3545385003089905,-0.1490478366613388],[-0.02716893143951893,0.028444036841392517,0.12357483059167862]],[[0.0926944762468338,0.14616332948207855,-0.008964861743152142],[0.10805714875459671,0.08209860324859619,0.040226228535175323],[0.15565593540668488,-0.1075863242149353,-0.032938312739133835]],[[-0.05807596072554588,-0.19484174251556396,-0.022062506526708603],[-0.3127245306968689,-0.0027581846807152033,0.14933395385742188],[0.14374688267707825,-0.25112244486808777,-0.1247217208147049]]]],"biases":[0.14329403638839722,-0.03314681723713875,0.1651676595211029,0.005555687006562948,-0.08028756827116013,0.1295701116323471,-0.02773279882967472,0.11604666709899902]},"conv3":{"weights":[[[[-0.08815599232912064,0.08880797773599625,-0.030682798475027084],[0.12139324843883514,-0.3024972975254059,0.14416979253292084],[-0.08846867084503174,-0.2916988730430603,0.10488054156303406]],[[0.03252529352903366,-0.16371916234493256,0.07711517065763474],[-0.10666245967149734,-0.16181837022304535,0.3011780381202698],[-0.012961961328983307,-0.00837403442710638,0.11140420287847519]],[[0.13629676401615143,0.24694468080997467,-0.03638741746544838],[-0.06211089342832565,0.2893950343132019,-0.03305791690945625],[0.037170398980379105,0.06498489528894424,0.07180780917406082]],[[-0.01638202555477619,0.12549811601638794,0.1005244106054306],[0.08020201325416565,0.17441381514072418,-0.1331479251384735],[-0.04118352755904198,-0.06790046393871307,-0.07002188265323639]],[[-0.1420007050037384,-0.18808482587337494,0.10960926860570908],[0.10384923964738846,-0.2670324146747589,0.10364340245723724],[-0.015709396451711655,0.021488482132554054,-0.05352166295051575]],[[-0.07544880360364914,0.33630359172821045,-0.18165647983551025],[0.2061392366886139,0.07090345770120621,0.10599978268146515],[0.031547438353300095,0.0897076204419136,-0.01854761131107807]],[[0.029322858899831772,-0.12673236429691315,-0.09843470901250839],[0.112858846783638,0.15000475943088531,0.04263271391391754],[-0.05423330143094063,0.2311408817768097,0.14885647594928741]],[[0.10599510371685028,0.16861307621002197,-0.1396283656358719],[0.1782355010509491,0.22243282198905945,0.37068358063697815],[-0.06493711471557617,0.22899514436721802,0.2707147002220154]]],[[[-0.12917470932006836,0.18580174446105957,0.06831678003072739],[0.04970854893326759,-0.17825229465961456,-0.18259850144386292],[0.1677587330341339,-0.11683893203735352,0.20049652457237244]],[[-0.03576125577092171,-0.07166709750890732,0.13393093645572662],[-0.20961114764213562,0.3537118136882782,-0.26759859919548035],[-0.14361058175563812,0.12223798781633377,-0.2702888250350952]],[[0.12391313165426254,-0.2908667027950287,-0.0773964375257492],[-0.11012725532054901,0.15452156960964203,0.21067310869693756],[-0.055252525955438614,0.1902693212032318,-0.1277424842119217]],[[-0.004810121841728687,0.14626528322696686,0.18279878795146942],[0.1353648155927658,0.029431063681840897,0.41379445791244507],[0.3001091182231903,-0.04482449218630791,0.39311861991882324]],[[0.01724139414727688,0.08248085528612137,0.008547617122530937],[0.1187383309006691,-0.5715955495834351,-0.2498280107975006],[-0.12584124505519867,-0.053780484944581985,0.16916339099407196]],[[0.0046472749672830105,-0.3394224941730499,0.07316508889198303],[0.26824790239334106,-0.045479658991098404,0.04197802022099495],[-0.1741502583026886,0.08735758811235428,0.01828821562230587]],[[-0.061793211847543716,0.05125326290726662,-0.002481103641912341],[-0.0017058906378224492,0.6619461178779602,0.08449184894561768],[0.0645023062825203,0.10074620693922043,-0.15936854481697083]],[[-0.008436626754701138,-0.14023849368095398,0.020549394190311432],[0.040266916155815125,0.21267388761043549,-0.22582820057868958],[0.12094354629516602,-0.26571163535118103,-0.12186615914106369]]],[[[-0.009676310233771801,-0.03695600479841232,-0.03365710750222206],[0.05863426253199577,0.17412607371807098,-0.004806175362318754],[-0.16853542625904083,-0.029776681214571,0.06710425764322281]],[[0.025771653279662132,-0.0931490957736969,-0.08137653023004532],[0.010329903103411198,-0.21715207397937775,0.09885923564434052],[0.0554974302649498,-0.39738333225250244,0.1145796924829483]],[[0.023114871233701706,0.08664245903491974,-0.02467317320406437],[-0.028472183272242546,-0.11166999489068985,-0.0729030892252922],[-0.11532246321439743,0.10962878912687302,-0.008130035363137722]],[[-0.07737066596746445,-0.005145528353750706,0.01761210896074772],[0.004241759888827801,0.08919436484575272,-0.0899125263094902],[0.03517932817339897,0.2203947752714157,0.08518426865339279]],[[0.038975443691015244,-0.01567276008427143,-0.0481601282954216],[0.11360061168670654,0.7321060299873352,0.07796890288591385],[0.03530813753604889,-0.2047097533941269,-0.0896754190325737]],[[-0.06525516510009766,0.3512345552444458,0.015980446711182594],[-0.14787034690380096,0.21269653737545013,-0.11439981311559677],[0.09515856951475143,-0.3294319808483124,-0.10692408680915833]],[[-0.011719241738319397,-0.028564700856804848,0.00922753568738699],[-0.11153867840766907,-0.44911032915115356,-0.035866908729076385],[-0.09495360404253006,-0.37596115469932556,0.07245440781116486]],[[-0.05599401518702507,-0.0456310510635376,0.06308218836784363],[-0.0054086362943053246,-0.0106057645753026,0.06086796149611473],[-0.05826595798134804,0.3156915605068207,0.08495248854160309]]],[[[0.2810077667236328,-0.05097993090748787,0.08457395434379578],[-0.05962240323424339,0.17175373435020447,-0.1746634691953659],[0.015172380022704601,0.25931182503700256,-0.021755771711468697]],[[0.01717185042798519,0.02940145879983902,0.07207094877958298],[-0.02576356567442417,-0.12641018629074097,0.16891047358512878],[0.018839631229639053,-0.10646248608827591,0.21245862543582916]],[[0.07429015636444092,0.1501082181930542,0.02564532309770584],[-0.07358872890472412,-0.3438650071620941,0.02390102669596672],[0.024364713579416275,-0.026755353435873985,0.1557338535785675]],[[-0.020533688366413116,-0.022060846909880638,0.011519287712872028],[-0.10001113265752792,0.01051726471632719,-0.04365285858511925],[-0.030267398804426193,0.1048365980386734,-0.0802747830748558]],[[-0.04092567786574364,-0.08357138931751251,0.07635891437530518],[0.04899820685386658,0.19424369931221008,0.02868453785777092],[0.03848240152001381,0.06992983818054199,-0.10647104680538177]],[[-0.14316147565841675,-0.1950102597475052,-0.025222336873412132],[-0.018812818452715874,0.08316509425640106,0.0036367825232446194],[0.0494457446038723,-0.022288260981440544,-0.0037351574283093214]],[[0.010614974424242973,-0.06097983196377754,-0.05334770306944847],[0.21487782895565033,0.09766805917024612,0.16151028871536255],[0.10918603837490082,0.19030633568763733,0.12326736748218536]],[[0.11851685494184494,0.17233522236347198,-0.17741993069648743],[-0.17753911018371582,0.20083223283290863,0.13617219030857086],[-0.07245609909296036,0.056949906051158905,-0.13184650242328644]]],[[[0.3984356224536896,-0.039753567427396774,-0.23408959805965424],[-0.21839678287506104,0.2522081136703491,-0.01753510721027851],[-0.0276215597987175,-0.21701546013355255,0.06748822331428528]],[[0.015974972397089005,0.138408362865448,0.10558971762657166],[0.23764437437057495,0.4121227264404297,0.09934885054826736],[0.24564450979232788,-0.007750167977064848,0.053497523069381714]],[[-0.0006783389835618436,-0.20232577621936798,-0.020537937059998512],[0.06567910313606262,-0.146952822804451,-0.07158508896827698],[0.2548855245113373,0.07331532984972,0.006847777869552374]],[[-0.1789194494485855,-0.2736060917377472,-0.24604347348213196],[-0.37111571431159973,-0.40197205543518066,-0.16891366243362427],[-0.3601608872413635,-0.1617591381072998,-0.15484479069709778]],[[-0.02201380766928196,0.2305968850851059,0.0019715619273483753],[-0.4197058081626892,0.11610398441553116,0.10146600753068924],[-0.14984144270420074,-0.16645415127277374,-0.0025113101582974195]],[[0.20706327259540558,-0.07638826221227646,0.18733595311641693],[-0.02703273855149746,-0.19952069222927094,0.15320701897144318],[0.046045683324337006,0.02595135010778904,-0.14172640442848206]],[[-0.02703884430229664,-0.06279768794775009,-0.06090916693210602],[-0.12124170362949371,0.0361262783408165,-0.09793940931558609],[0.09776769578456879,0.0989997610449791,0.0697547122836113]],[[-0.03995386138558388,-0.14251233637332916,-0.05690356343984604],[-0.0020764286164194345,-0.3883368968963623,0.10945679992437363],[0.11785462498664856,0.3399122655391693,0.06652776896953583]]],[[[0.05487609654664993,0.03243229165673256,0.017967363819479942],[0.3539083003997803,0.4540155529975891,0.013050258159637451],[-0.14997729659080505,0.03996959701180458,-0.035825472325086594]],[[0.09314895421266556,0.029887832701206207,-0.20481562614440918],[-0.03373266011476517,-0.06662575900554657,0.008979247882962227],[0.003062986070290208,-0.04036354646086693,0.23392733931541443]],[[-0.048855651170015335,-0.06484686583280563,-0.023119201883673668],[0.0885581225156784,-0.20517747104167938,-0.05213306471705437],[0.0231194868683815,0.03853452578186989,-0.1985924243927002]],[[-0.05676558241248131,0.08857876807451248,0.04891188442707062],[0.003182049607858062,-0.1182212308049202,0.05561494454741478],[-0.06148076802492142,0.09017746150493622,-0.005697302054613829]],[[0.055312130600214005,0.0893707424402237,-0.029599417001008987],[-0.0847882404923439,0.35845306515693665,0.014021042734384537],[-0.037953220307826996,0.05332174524664879,0.15772554278373718]],[[-0.017059186473488808,-0.11823103576898575,-0.021558493375778198],[0.01098071038722992,-0.25260797142982483,0.16846323013305664],[0.012179977260529995,0.14180882275104523,0.04691913351416588]],[[-0.06283043324947357,-0.01427779346704483,0.04245785251259804],[0.11931465566158295,0.2977105677127838,0.0718592181801796],[0.10311293601989746,-0.10216321051120758,-0.12902531027793884]],[[-0.04423476755619049,-0.12161809206008911,-0.05878383293747902],[0.26990050077438354,0.1758284568786621,0.04560026526451111],[-0.12885864078998566,0.20109498500823975,-0.1864113062620163]]],[[[-0.13240791857242584,0.14875629544258118,-0.07402509450912476],[0.3050417900085449,0.2739929258823395,0.020343221724033356],[-0.26426270604133606,0.16515791416168213,-0.10927105695009232]],[[0.048067525029182434,0.07633328437805176,-0.1014639213681221],[-0.05884014815092087,0.12821617722511292,-0.0667375773191452],[-0.11973222345113754,0.1688462346792221,-0.0017271204851567745]],[[0.07080282270908356,0.012015367858111858,-0.03886813297867775],[0.034856781363487244,-0.04819156229496002,0.12509062886238098],[0.16167104244232178,0.17580169439315796,0.006502973381429911]],[[0.03459194302558899,-0.06390099227428436,-0.008977675810456276],[-0.014358212240040302,-0.2295045405626297,0.06561965495347977],[0.039038315415382385,-0.1763329654932022,-0.007632448337972164]],[[-0.031841810792684555,0.1183750182390213,0.05230243131518364],[-0.05163922533392906,0.1705034375190735,-0.08396206051111221],[-0.16298669576644897,-0.024997299537062645,-0.010939248837530613]],[[0.1819901168346405,-0.11261479556560516,0.004402475897222757],[0.08287931233644485,0.19189275801181793,0.09923417866230011],[0.059066493064165115,0.08526893705129623,0.10403135418891907]],[[-0.0643516257405281,0.0016337817069143057,-0.008059157989919186],[-0.0003062309115193784,0.0666840523481369,-0.027825701981782913],[0.045894719660282135,0.3438396453857422,0.029449155554175377]],[[-0.017432820051908493,0.0331658236682415,0.0056367539800703526],[0.27424356341362,-0.2715912461280823,-0.028522860258817673],[-0.2003796547651291,-0.010255096480250359,0.1756446361541748]]],[[[-0.045314233750104904,0.0020301970653235912,-0.10403922945261002],[-0.07106711715459824,-0.15544310212135315,0.23813895881175995],[0.2449149340391159,-0.03787354752421379,-0.09706230461597443]],[[-0.0670369416475296,-0.24462701380252838,-0.17852506041526794],[-0.003585951402783394,-0.10179958492517471,0.22671626508235931],[-0.04322349652647972,-0.05260777100920677,0.32581573724746704]],[[0.029059438034892082,-0.17310050129890442,-0.186468243598938],[-0.05060179531574249,0.5914714336395264,0.07323469966650009],[0.10120128095149994,-0.030920781195163727,0.07320641726255417]],[[-0.03417235240340233,0.15539021790027618,0.05184200033545494],[0.12835393846035004,0.1471317559480667,0.22550101578235626],[-0.014532698318362236,-0.082908034324646,-0.10967124998569489]],[[-0.03573860600590706,0.0036804971750825644,0.06216688081622124],[0.18096601963043213,-0.3679833710193634,-0.21585030853748322],[0.03392057493329048,0.13622981309890747,-0.0580759234726429]],[[0.1740647852420807,0.07350745797157288,-0.43254998326301575],[0.060164086520671844,0.2185695469379425,-0.24873128533363342],[-0.06490399688482285,-0.055634841322898865,-0.09315533190965652]],[[-0.010560800321400166,0.07016973942518234,0.24517223238945007],[-0.04784248769283295,-0.12292293459177017,0.10975825041532516],[-0.03948797658085823,-0.2622166872024536,-0.07417493313550949]],[[-0.1868068277835846,0.08473066240549088,-0.024576812982559204],[0.13456468284130096,-0.3410246670246124,-0.3699934780597687],[0.18387125432491302,0.37270769476890564,0.18718945980072021]]]],"biases":[0.20466108620166779,0.04035506397485733,-0.10233025252819061,0.12751276791095734,-0.012786776758730412,-0.0625738874077797,0.0441257506608963,0.02040807716548443]},"conv4":{"weights":[[[[-0.06230856105685234,0.19920654594898224,0.014771309681236744],[0.21458569169044495,0.055567771196365356,0.08213789016008377],[-0.00021397400996647775,0.2206917554140091,0.0936770811676979]],[[-0.022161738947033882,0.0026580756530165672,-0.00933923851698637],[0.012822163291275501,-0.12293050438165665,-0.016590150073170662],[0.0932254046201706,0.05803288519382477,0.05092346668243408]],[[-0.17068786919116974,0.002478421200066805,-0.12544718384742737],[-0.10153153538703918,0.08057089895009995,-0.06192554906010628],[0.027064550668001175,-0.007647213060408831,0.050964970141649246]],[[-0.25691336393356323,-0.004516662564128637,-0.07209792733192444],[-0.16856810450553894,0.038768600672483444,-0.037346016615629196],[-0.1285710483789444,0.21870413422584534,-0.008263659663498402]],[[-0.018595030531287193,0.22304096817970276,0.05774225667119026],[0.03592455014586449,0.08063363283872604,-0.008901646360754967],[0.06980249285697937,0.1702163964509964,-0.06646867096424103]],[[0.019161144271492958,0.17485296726226807,-0.0066078780218958855],[-0.15177617967128754,-0.00985106360167265,0.12912380695343018],[-0.09634926915168762,0.09858603775501251,0.02965369261801243]],[[0.06597626954317093,0.38656696677207947,0.10538046061992645],[0.13029372692108154,-0.11636745929718018,0.06925725191831589],[0.08800125867128372,-0.15332962572574615,-0.022961143404245377]],[[-0.07848036289215088,0.053191062062978745,-0.06676504015922546],[-0.05644752457737923,0.05986599251627922,0.009277991019189358],[0.026763394474983215,0.03988071531057358,-0.007752430625259876]]],[[[0.06754496693611145,0.0768049955368042,0.06674221158027649],[-0.06452462077140808,-0.057500384747982025,-0.1142759621143341],[-0.1638938933610916,-0.1439352184534073,0.05468767136335373]],[[-0.055651187896728516,0.17777353525161743,-0.04662832245230675],[0.17947278916835785,0.27657410502433777,-0.12621697783470154],[-0.22289419174194336,-0.2430887073278427,-0.036418650299310684]],[[0.0771820992231369,-0.32729724049568176,0.2079281508922577],[-0.2996262013912201,-0.19147732853889465,0.06148198992013931],[0.0011955604422837496,0.3316327929496765,-0.07619525492191315]],[[-0.040580034255981445,-0.07114303112030029,0.019173845648765564],[-0.12202118337154388,-0.16043119132518768,0.000739081937354058],[-0.20592480897903442,-0.02492995746433735,-0.1389617919921875]],[[0.08128781616687775,0.039344485849142075,0.019508417695760727],[-0.065445676445961,0.022641021758317947,0.02749451994895935],[-0.0992802083492279,-0.04933788254857063,-0.016712840646505356]],[[-0.06648887693881989,-0.09001147001981735,-0.09309917688369751],[0.17211265861988068,0.0716649740934372,-0.10910157859325409],[0.058415453881025314,0.24109967052936554,0.1496831774711609]],[[0.14496967196464539,0.17363104224205017,0.32642635703086853],[-0.16516050696372986,0.005911275278776884,-0.09116241335868835],[0.035867370665073395,-0.09997491538524628,0.05627838522195816]],[[0.1494804322719574,0.06889393925666809,-0.005178104620426893],[0.03443949669599533,0.592936098575592,0.27995678782463074],[-0.030865149572491646,-0.2223171442747116,-0.013466006144881248]]],[[[0.042733099311590195,-0.042656347155570984,0.034880395978689194],[-0.17108799517154694,0.2267456203699112,-0.05602789297699928],[-0.04777093604207039,0.11505503952503204,0.10066570341587067]],[[-0.1034214124083519,0.20340795814990997,-0.056496892124414444],[-0.03126691281795502,0.26931408047676086,-0.17295992374420166],[-0.31829652190208435,0.328472375869751,0.008642416447401047]],[[-0.11597012728452682,0.6817747950553894,0.10422231256961823],[-0.3622789680957794,0.12816286087036133,-0.1599632054567337],[0.08469962328672409,0.11811786144971848,-0.12861356139183044]],[[0.12622365355491638,0.2823125720024109,-0.039361290633678436],[0.15391814708709717,-0.13864745199680328,-0.1359296292066574],[-0.24354594945907593,0.2921735644340515,0.1550472229719162]],[[0.07282157242298126,-0.1592818796634674,-0.11181173473596573],[0.09417764097452164,0.43414217233657837,0.3327122628688812],[-0.0883822962641716,0.245347797870636,-0.17254045605659485]],[[-0.05362251028418541,-0.23144100606441498,-0.041927799582481384],[-0.18517634272575378,-0.239241361618042,0.06961271166801453],[0.12325704842805862,0.021832531318068504,0.027526967227458954]],[[0.037373319268226624,-0.1991080790758133,0.16657096147537231],[0.1378786414861679,-0.0028662383556365967,-0.16450831294059753],[-0.052268948405981064,-0.18107004463672638,-0.14058621227741241]],[[0.11176823079586029,0.14375244081020355,-0.0632554367184639],[0.00716695562005043,0.32568225264549255,0.00027847697492688894],[-0.2590656876564026,0.6523475050926208,0.2994409501552582]]],[[[0.002750558312982321,0.058693259954452515,0.030298762023448944],[-0.10738502442836761,0.2440902441740036,-0.05595683306455612],[-0.12703008949756622,0.37317103147506714,0.05592907592654228]],[[-0.04132828861474991,-0.012886593118309975,0.02907266467809677],[0.03101625107228756,0.14051130414009094,0.031572673469781876],[0.0435166209936142,-0.11167054623365402,-0.010336646810173988]],[[-0.03209496662020683,0.023242004215717316,0.18258138000965118],[-0.10596007108688354,0.05153196305036545,-0.1365240514278412],[-0.11232675611972809,0.004231221042573452,-0.11271731555461884]],[[0.09006890654563904,-0.10162605345249176,-0.03763408586382866],[0.07668745517730713,-0.22339800000190735,-0.16069833934307098],[0.17582887411117554,0.10838954895734787,-0.295693576335907]],[[-0.017995012924075127,-0.06976279616355896,-0.10314379632472992],[0.08779473602771759,0.10280997306108475,0.2363557666540146],[0.08895415812730789,0.06907802820205688,0.05488438531756401]],[[-0.011017115786671638,-0.01761082001030445,-0.029507702216506004],[-0.029335476458072662,-0.06028161197900772,-0.07764018326997757],[0.01619745045900345,0.024483200162649155,0.07785376161336899]],[[0.11497387290000916,0.05072423070669174,0.21857887506484985],[0.18139924108982086,-0.02791679836809635,0.12482163310050964],[0.056336659938097,0.13625314831733704,-0.017601197585463524]],[[0.021197499707341194,0.01893298700451851,0.03675568476319313],[-0.09259279817342758,0.14284002780914307,-0.1436282992362976],[0.07586337625980377,0.03746888414025307,0.03141835704445839]]],[[[0.08470505475997925,-0.014247478917241096,-0.034531332552433014],[0.18465645611286163,-0.03951181098818779,0.20960061252117157],[-0.10257568955421448,-0.3097113370895386,-0.08539040386676788]],[[0.049812328070402145,0.00957473274320364,-0.05966167151927948],[-0.01333694625645876,0.17195139825344086,-0.01577000878751278],[0.018111852928996086,-0.2820257544517517,-0.06258869916200638]],[[-0.10871842503547668,0.14085331559181213,-0.18730609118938446],[-0.10108554363250732,0.24767786264419556,-0.1950632482767105],[-0.12862588465213776,0.035407934337854385,-0.18434008955955505]],[[-0.24421393871307373,0.3588450253009796,0.06279177218675613],[0.0130043039098382,-0.1669774353504181,-0.3020976185798645],[0.0057137892581522465,-0.15312786400318146,-0.062143709510564804]],[[0.09708960354328156,0.1885097771883011,0.37999647855758667],[0.12760956585407257,-0.11623699218034744,0.19451087713241577],[0.08910040557384491,-0.018895089626312256,-0.24451957643032074]],[[-0.1387975662946701,-0.07068366557359695,-0.12724696099758148],[-0.03451479971408844,0.08189655095338821,0.1383577138185501],[0.09738504141569138,-0.04641314968466759,0.14167450368404388]],[[0.18239346146583557,0.35651224851608276,0.21421441435813904],[-0.049967873841524124,0.09909478574991226,0.16193290054798126],[-0.022496718913316727,0.3349034786224365,-0.05221385136246681]],[[0.03581610321998596,0.1012728288769722,-0.07535654306411743],[0.10828408598899841,0.21240825951099396,0.042342983186244965],[0.08655033260583878,0.1340537965297699,-0.05709971487522125]]],[[[-0.09178124368190765,-0.004231526982039213,0.11439884454011917],[0.008128844201564789,0.18856795132160187,-0.16233055293560028],[-0.0195037629455328,0.12866969406604767,-0.1377706080675125]],[[-0.09383545815944672,0.05823982506990433,-0.015081995166838169],[0.013389365747570992,0.5302110910415649,0.172604039311409],[0.1511351615190506,0.16271305084228516,0.16091567277908325]],[[0.12851856648921967,0.28472819924354553,0.05824526399374008],[0.07220640778541565,-0.39682304859161377,-0.0014063749695196748],[-0.061061959713697433,-0.1935119479894638,0.2090645134449005]],[[-0.012272235006093979,-0.030060185119509697,-0.1320502907037735],[-0.12205883860588074,-0.2593185603618622,-0.10108768939971924],[0.04299033805727959,0.11003117263317108,-0.0763869658112526]],[[-0.30075767636299133,-0.315676212310791,-0.6233782172203064],[-0.3556678593158722,0.4170896112918854,-0.4464823603630066],[-0.31859418749809265,-0.44384971261024475,-0.28659987449645996]],[[0.08539927750825882,-0.11406224220991135,0.1650657057762146],[0.161831796169281,-0.140897735953331,0.08873478323221207],[-0.18854160606861115,0.19207820296287537,0.12854845821857452]],[[0.12033148109912872,-0.0799080953001976,-0.0022661827970296144],[0.03748244792222977,0.2185675948858261,-0.21559058129787445],[0.08621272444725037,-0.12101995199918747,-0.025544028729200363]],[[0.018906453624367714,0.048213642090559006,-0.072662852704525],[-0.35312458872795105,0.019367972388863564,-0.2145010530948639],[0.07424379140138626,0.04158341884613037,0.10967851430177689]]],[[[0.17393873631954193,0.017105059698224068,-0.10265219956636429],[0.35138973593711853,-0.6516339778900146,0.2610255777835846],[0.10516473650932312,-0.11754802614450455,0.007860696874558926]],[[0.021849574521183968,-0.031401488929986954,-0.15591295063495636],[0.3385421931743622,0.15054258704185486,-0.18016847968101501],[0.12326344847679138,0.04961400479078293,-0.07586682587862015]],[[-0.18341942131519318,0.024946080520749092,-0.189175084233284],[-0.7411305904388428,0.31176766753196716,-0.3080723285675049],[0.024117078632116318,0.1187334656715393,-0.17565882205963135]],[[-0.1568818837404251,-0.17638590931892395,0.07156538218259811],[-0.5062854290008545,0.40127190947532654,-0.06565379351377487],[0.09615994989871979,-0.0682230144739151,0.01121858973056078]],[[0.05513719469308853,-0.04751540720462799,0.2313120812177658],[0.1506941169500351,-0.11077718436717987,0.0037684659473598003],[-0.14200550317764282,0.12633894383907318,-0.12606430053710938]],[[-0.1167503297328949,0.3140929937362671,-0.00898755807429552],[-0.4298376142978668,0.25056546926498413,0.3181542456150055],[-0.05741158872842789,0.12837611138820648,0.02972513809800148]],[[0.22372694313526154,-0.1654927283525467,-0.04682976007461548],[0.21635468304157257,-0.2831636965274811,0.14421361684799194],[0.10873346775770187,-0.14212195575237274,-0.05679604038596153]],[[-0.053683090955019,-0.06529360264539719,0.07786226272583008],[-0.11006329208612442,-0.04820474237203598,-0.08354336768388748],[0.23825348913669586,0.018651314079761505,-0.12549389898777008]]],[[[-0.07903644442558289,0.0311350729316473,0.02420899271965027],[-0.02906646952033043,0.08946850150823593,-0.01175646111369133],[-0.07250472903251648,-0.11884482204914093,0.14376311004161835]],[[-0.21908345818519592,-0.09570415318012238,-0.11129643023014069],[-0.2754554748535156,0.28323447704315186,-0.06729646027088165],[-0.09348084777593613,0.046674057841300964,0.0011149796191602945]],[[-0.15764698386192322,-0.14576278626918793,-0.00016875655273906887],[0.34189632534980774,0.1325235217809677,-0.26531240344047546],[0.1108563020825386,0.02541501261293888,-0.10672098398208618]],[[0.07994160801172256,-0.1370612531900406,-0.029772542417049408],[0.21942368149757385,0.25902611017227173,0.034541208297014236],[-0.2512975335121155,0.16358792781829834,0.014436702243983746]],[[0.1849580854177475,0.44189631938934326,0.04010063782334328],[0.15187610685825348,0.20901912450790405,0.3423382341861725],[0.10567126423120499,0.15773940086364746,0.1594051867723465]],[[0.09729495644569397,0.04552043229341507,-0.004105236381292343],[-0.01831742934882641,-0.2931118309497833,-0.04313086345791817],[-0.0010896243620663881,-0.12529109418392181,0.11807885020971298]],[[0.08357337862253189,-0.2910192608833313,0.149093896150589],[-0.00023363862419500947,0.12112343311309814,-0.07343173027038574],[0.07165327668190002,-0.10996981710195541,0.015964586287736893]],[[-0.16568787395954132,0.14183369278907776,0.03207683190703392],[-0.01839899830520153,0.3296200633049011,-0.09376389533281326],[-0.07682866603136063,0.28643903136253357,0.11120720952749252]]]],"biases":[-0.0024857933167368174,0.14366783201694489,0.01814393326640129,0.11724568158388138,0.11732646077871323,0.07136581093072891,-0.06215947866439819,-0.058419376611709595]},"conv5":{"weights":[[[[-0.12602826952934265,0.08741778880357742,-0.020841462537646294],[-0.014120766893029213,0.2331765741109848,-0.08969547599554062],[-0.18444785475730896,0.02426992729306221,-0.023341603577136993]],[[0.12798984348773956,-0.04610242694616318,0.047505900263786316],[0.047053199261426926,-0.2433984875679016,0.15975357592105865],[0.02037886716425419,-0.0182767603546381,0.020506063476204872]],[[-0.23578593134880066,0.14477048814296722,-0.14895838499069214],[-0.3897950053215027,0.2559375762939453,-0.2000315934419632],[0.07641971856355667,0.010842784307897091,0.013827777467668056]],[[-0.02141432836651802,-0.07551787048578262,0.07277064770460129],[0.04975486546754837,0.03218061104416847,-0.0899566039443016],[-0.036835674196481705,0.11104860156774521,0.02733648754656315]],[[-0.03193933144211769,-0.05933928117156029,0.07332324981689453],[-0.02922709845006466,0.029117893427610397,0.015797171741724014],[0.1080881655216217,-0.15543271601200104,0.012744530104100704]],[[-0.014039508067071438,-0.08443781733512878,0.2703566551208496],[-0.07484319061040878,0.08367399871349335,0.09716421365737915],[-0.012044004164636135,-0.09878567606210709,-0.03561607375741005]],[[0.08000986278057098,0.26663073897361755,-0.21445046365261078],[-0.09350546449422836,0.6642016172409058,-0.9760843515396118],[0.11811718344688416,0.1607154756784439,-0.20046298205852509]],[[-0.1276165246963501,0.033866994082927704,-0.1529122292995453],[-0.07187439501285553,-0.6513169407844543,0.1599411964416504],[-0.05072839558124542,-0.06440054625272751,0.07075513899326324]]],[[[0.0585518442094326,-0.08949707448482513,-0.05358472466468811],[0.17526741325855255,-0.3797028064727783,0.06491167098283768],[0.03469216823577881,-0.18407273292541504,0.08237099647521973]],[[-0.26906201243400574,0.07328297197818756,0.1193557158112526],[-0.4263467490673065,-0.18529567122459412,0.04198504984378815],[-0.14787030220031738,-0.057803571224212646,0.0021609498653560877]],[[-0.09260711818933487,0.07667823880910873,-0.06471022963523865],[-0.1987064778804779,0.08202707022428513,0.11341743916273117],[0.11055713891983032,-0.16277368366718292,0.03617934510111809]],[[-0.06835374981164932,-0.11292314529418945,0.2110290229320526],[-0.07269208878278732,0.1324755847454071,0.14416036009788513],[-0.12673459947109222,0.11016270518302917,-0.04366017505526543]],[[0.06130010262131691,-0.0021254802122712135,-0.14741261303424835],[0.08715424686670303,0.14477375149726868,-0.1136150062084198],[0.4254569411277771,-0.38229885697364807,0.035622622817754745]],[[0.29530051350593567,-0.08340968936681747,0.05209539830684662],[-0.02839341200888157,0.3164771795272827,-0.3240564465522766],[0.19880647957324982,0.08164508640766144,0.0762707069516182]],[[-0.15727055072784424,0.09722933173179626,0.20776447653770447],[-0.45758867263793945,0.2814463973045349,0.40931615233421326],[0.02384275384247303,0.21002164483070374,-0.13648252189159393]],[[-0.07411053031682968,-0.17804892361164093,-0.10402537882328033],[-0.18546757102012634,0.09926723688840866,-0.29009509086608887],[-0.00908321887254715,-0.2961743474006653,-0.0424027219414711]]],[[[0.11971382051706314,0.14454211294651031,0.05574428662657738],[-0.05310917645692825,0.30463212728500366,0.21220621466636658],[0.0942651629447937,-0.008349952287971973,-0.03739815950393677]],[[0.08175619691610336,0.23481373488903046,-0.025856848806142807],[-0.052876729518175125,-0.23621127009391785,0.013251403346657753],[-0.12347159534692764,-0.016671257093548775,-0.04614308103919029]],[[-0.005509819835424423,-0.05450301244854927,-0.009210006333887577],[0.02101430669426918,0.09721843153238297,0.014095918275415897],[-0.00434679863974452,-0.027256080880761147,0.002516089240089059]],[[-0.03472495079040527,-0.13659048080444336,-0.09005054831504822],[0.4070306718349457,0.19810962677001953,0.07403222471475601],[0.02201283909380436,-0.06327956169843674,0.009657252579927444]],[[-0.02711784467101097,-0.1485748142004013,0.02350752428174019],[0.06014612317085266,-0.03710523247718811,-0.007862064056098461],[-0.07420192658901215,0.007776775863021612,-0.029486678540706635]],[[-0.05510210990905762,-0.11491769552230835,0.07001689821481705],[0.021556450054049492,0.1385297328233719,-0.014545376412570477],[-0.008383537642657757,-0.0019186058780178428,0.06816882640123367]],[[0.049942679703235626,-0.010922417044639587,-0.00885965395718813],[0.015885934233665466,0.0481288842856884,-0.09491580724716187],[-0.00046071165706962347,0.09326929599046707,-0.058142974972724915]],[[0.08489574491977692,0.07953406870365143,-0.035537831485271454],[0.026087995618581772,-0.24097633361816406,0.02339254692196846],[-0.06151998043060303,0.02792809158563614,0.03325697034597397]]],[[[-0.05192455276846886,-0.019472945481538773,-0.05988752841949463],[-0.1627999097108841,0.07920292764902115,0.10459517687559128],[-0.18209247291088104,0.12053258717060089,0.011059515178203583]],[[-0.05211154371500015,0.011662539094686508,-0.03848068788647652],[-0.18645285069942474,0.09382671117782593,-0.006172667257487774],[-0.01917456090450287,-0.04815908893942833,-0.042270127683877945]],[[-0.017646925523877144,-0.15461982786655426,0.003922167234122753],[-0.30023083090782166,0.1363450139760971,-0.02207152731716633],[0.10032680630683899,-0.07119404524564743,-0.00882703997194767]],[[-0.2689361274242401,0.37845203280448914,-0.04243148863315582],[-0.3364100456237793,0.35213199257850647,-0.07236747443675995],[-0.09315253794193268,0.10616916418075562,-0.08406726270914078]],[[-0.04070834442973137,0.1186089888215065,-0.0432613231241703],[0.12513485550880432,-0.2116227149963379,0.15442129969596863],[0.20050778985023499,-0.24402713775634766,0.10549047589302063]],[[0.12824857234954834,0.1808844655752182,-0.0769849643111229],[-0.16385821998119354,-0.06327563524246216,0.16535799205303192],[0.14611460268497467,-0.34364333748817444,0.10172224044799805]],[[-0.033125460147857666,0.26226910948753357,-0.0681178942322731],[0.05899285897612572,0.7683046460151672,0.001270657405257225],[0.09609220921993256,0.23833505809307098,-0.0909142792224884]],[[0.03299368545413017,-0.3148128092288971,0.030794909223914146],[0.22394119203090668,-0.5327141880989075,0.161084845662117],[0.003567016450688243,-0.11219080537557602,0.024659672752022743]]],[[[-0.10883595049381256,-0.12419615685939789,-0.12513230741024017],[-0.01990930177271366,0.24236616492271423,0.3405662477016449],[-0.09749748557806015,0.04336046427488327,-0.10033631324768066]],[[-0.0591084323823452,-0.2673746943473816,-0.1587045043706894],[0.10380667448043823,0.07212850451469421,0.12157604098320007],[0.0023219517897814512,-0.033170755952596664,-0.005286690313369036]],[[-0.022410528734326363,0.0470133051276207,0.12947982549667358],[-0.09579343348741531,0.09249386936426163,-0.09851953387260437],[0.015871116891503334,0.00459105521440506,0.012475044466555119]],[[0.1529722958803177,0.2999641001224518,-0.1213046982884407],[-0.06739380955696106,0.4275761842727661,0.04846673831343651],[0.046730659902095795,0.05405972898006439,-0.0762961134314537]],[[0.16216829419136047,0.1670914590358734,0.037723150104284286],[0.27947986125946045,-0.1201104149222374,0.10076367855072021],[0.010303018614649773,-0.09787575155496597,0.13977934420108795]],[[0.04427989944815636,0.2540270984172821,0.064704030752182],[0.029819900169968605,0.05969582125544548,0.08032091706991196],[0.0035935554187744856,0.07822439074516296,0.04014894366264343]],[[-0.001529776374809444,-0.02699955366551876,-0.05640412122011185],[0.014576100744307041,0.008935054764151573,-0.033287182450294495],[-0.014435216784477234,0.04504469037055969,0.0009792111814022064]],[[0.009236027486622334,-0.1763695329427719,0.051777616143226624],[-0.044990092515945435,-0.031558968126773834,-0.02395331859588623],[-0.00682050222530961,-0.09570371359586716,-0.02335859090089798]]],[[[0.21651318669319153,-0.05413595587015152,-0.049391865730285645],[-0.029832294210791588,0.036940887570381165,0.3123016655445099],[-0.09482794255018234,-0.061694517731666565,-0.24156266450881958]],[[0.029386674985289574,-0.09217622876167297,0.019759507849812508],[0.02305901050567627,0.684977650642395,0.2265014946460724],[0.05916394293308258,-0.19186629354953766,0.15561263263225555]],[[-0.04003581032156944,0.08309335261583328,-0.14770816266536713],[-0.10041940957307816,-0.3021347224712372,-0.07984323799610138],[0.09993505477905273,0.290035218000412,0.11936898529529572]],[[0.07239673286676407,0.11744773387908936,0.04853629693388939],[0.045680299401283264,-0.13105371594429016,-0.23063325881958008],[-0.07905445992946625,-0.04334466904401779,0.11931600421667099]],[[-0.07205192744731903,-0.13477973639965057,-0.03444649651646614],[-0.2547759413719177,-0.27111026644706726,-0.07418565452098846],[0.3211383819580078,0.47966814041137695,0.02312416397035122]],[[-0.0681428536772728,-0.047521863132715225,0.250610888004303],[0.09499189257621765,-0.16911351680755615,-0.18483276665210724],[0.09593982994556427,0.21884767711162567,0.03644302859902382]],[[0.02332458086311817,-0.019501013681292534,-0.15177062153816223],[-0.06220094859600067,-0.10423575341701508,0.09208882600069046],[-0.003472179640084505,-0.09863081574440002,-0.050185829401016235]],[[0.008967849425971508,-0.020490312948822975,-0.0329667292535305],[0.0476771704852581,0.11914759129285812,0.3454980254173279],[-0.06764965504407883,-0.27575546503067017,-0.4590478837490082]]],[[[-0.1490982323884964,-0.13310667872428894,0.296965628862381],[-0.10905089229345322,0.1977844536304474,0.18830138444900513],[-0.045455288141965866,-0.022274887189269066,-0.05681433901190758]],[[0.021686630323529243,-0.10620029270648956,0.1903744339942932],[-0.410820871591568,0.2254071682691574,0.011759046465158463],[0.09390422701835632,-0.10946181416511536,0.03521662577986717]],[[-0.10574040561914444,-0.044699668884277344,-0.14456066489219666],[0.10782457888126373,-0.2665938138961792,0.024818377569317818],[0.027365168556571007,0.20124895870685577,-0.027279863134026527]],[[-0.21047528088092804,0.2220434844493866,-0.045081183314323425],[-0.19271220266819,-0.067976213991642,0.14915812015533447],[0.030692551285028458,-0.18201372027397156,0.09839293360710144]],[[0.15986531972885132,-0.09847728163003922,-0.08881543576717377],[0.2674897313117981,-0.09395204484462738,-0.11400780081748962],[-0.17394119501113892,0.3903474807739258,-0.19299185276031494]],[[0.052440449595451355,-0.35820823907852173,0.08391135185956955],[-0.6022526025772095,-0.053511351346969604,-0.19695471227169037],[-0.24418692290782928,-0.12281627207994461,-0.3263089954853058]],[[-0.033230967819690704,0.07007820904254913,0.09968632459640503],[0.019215121865272522,0.7357007265090942,0.058912117034196854],[0.006510045845061541,-0.03411903232336044,0.19168250262737274]],[[0.15068556368350983,-0.1857990175485611,0.055311594158411026],[-0.005794241558760405,0.10017576813697815,-0.19428300857543945],[0.07066503167152405,-0.05520204082131386,-0.00665926281362772]]],[[[0.18902593851089478,-0.09432646632194519,0.08801953494548798],[-0.08405857533216476,0.026664292439818382,0.23977863788604736],[0.08063863962888718,0.09633897244930267,0.16168330609798431]],[[0.1228165403008461,0.17312905192375183,-0.16447001695632935],[0.10261355340480804,0.04821472242474556,-0.1728445440530777],[-0.08152887970209122,-0.076901376247406,-0.01929088868200779]],[[-0.019482333213090897,-0.12073302268981934,0.07484251260757446],[-0.10310548543930054,0.050208620727062225,0.029935674741864204],[0.06714505702257156,-0.012808856554329395,-0.0038650159258395433]],[[0.11033553630113602,-0.18487851321697235,-0.12296687811613083],[0.1491972953081131,-0.00615460192784667,-0.1333511471748352],[-0.12392153590917587,-0.03530581668019295,-0.02647746168076992]],[[0.0428573302924633,-0.06397327035665512,0.04647598788142204],[-0.057538680732250214,-0.0037165735848248005,0.16644971072673798],[0.11080972850322723,0.16027548909187317,0.1883096545934677]],[[-0.07884243130683899,0.17004816234111786,0.06623577326536179],[0.13138119876384735,-0.37250107526779175,0.2362125664949417],[0.07842960208654404,0.05138889700174332,-0.014291781932115555]],[[0.0013084475649520755,-0.02775675617158413,0.02887275442481041],[-0.04778529331088066,-0.021777933463454247,0.13893546164035797],[-0.040389638394117355,-0.11628910899162292,0.12254775315523148]],[[0.1296926885843277,-0.04664321616292,0.004648488946259022],[-0.10872770845890045,0.021410243585705757,-0.26104408502578735],[0.0673290491104126,-0.05551723390817642,0.009860232472419739]]]],"biases":[-0.07023754715919495,-0.046138908714056015,-0.06387288123369217,-0.06222042441368103,-0.07724908739328384,-0.006809902377426624,-0.0608195960521698,0.01216973178088665]},"conv6":{"weights":[[[[-0.013338439166545868,-0.1770537793636322,0.12619724869728088],[-0.05277226120233536,-0.22059936821460724,0.022254271432757378],[-0.0934002697467804,-0.07501532137393951,0.30722683668136597]],[[-0.1434507668018341,-0.15696659684181213,0.09300079196691513],[0.04019993543624878,-0.07834481447935104,-0.13331575691699982],[-0.0908626839518547,-0.10908035188913345,0.12550237774848938]],[[-0.00022345349134411663,0.0577547661960125,0.05280935391783714],[0.06960077583789825,0.3639650344848633,0.2215355932712555],[0.02670162543654442,0.06893283128738403,-0.06893211603164673]],[[0.005306850653141737,0.3267751932144165,-0.02759774960577488],[0.018396390601992607,0.26194334030151367,0.2494308203458786],[0.17466074228286743,0.3616793155670166,0.04375462979078293]],[[-0.013714315369725227,-0.08766289055347443,0.09853164106607437],[-0.026654088869690895,0.029453694820404053,-0.2271111011505127],[-0.0926535502076149,0.03922710567712784,0.015768732875585556]],[[0.014115662313997746,0.3322354257106781,0.08552145957946777],[0.30064624547958374,-0.43265867233276367,0.17376309633255005],[-0.1593085080385208,-0.06881086528301239,-0.016962002962827682]],[[0.050927698612213135,0.08436347544193268,-0.13102100789546967],[0.08507950603961945,-0.26637938618659973,0.16113777458667755],[-0.12155325710773468,-0.04097284376621246,0.22998039424419403]],[[-0.06817064434289932,-0.00477582449093461,0.0828218162059784],[-0.024385318160057068,0.024508317932486534,-0.03508098050951958],[0.03440478816628456,0.06412331014871597,0.04632283002138138]]],[[[-0.11769183725118637,-0.0817597284913063,0.05732729285955429],[0.08792944997549057,0.004078294616192579,0.259263277053833],[-0.19759297370910645,0.10515473783016205,0.07390066236257553]],[[-0.1585334837436676,0.15141938626766205,-0.17225638031959534],[0.070984847843647,0.0048455046489834785,0.26171624660491943],[-0.08671364188194275,0.21145884692668915,0.044558100402355194]],[[0.00878607016056776,0.18152634799480438,0.14421218633651733],[0.11969208717346191,0.07692623883485794,0.13968108594417572],[0.031100476160645485,0.1252947598695755,0.3321310579776764]],[[0.0627317875623703,0.0078355697914958,-0.101861871778965],[-0.021746164187788963,-0.046894341707229614,-0.283185750246048],[0.2199326902627945,0.10035351663827896,-0.21609416604042053]],[[-0.09785429388284683,0.18665114045143127,-0.062087591737508774],[0.24991770088672638,0.10013078153133392,0.055191829800605774],[-0.23868100345134735,-0.11999011784791946,-0.0943937599658966]],[[-0.029698090627789497,-0.3460921049118042,0.044386863708496094],[0.411498099565506,0.057908955961465836,-0.23064492642879486],[-0.20370163023471832,0.31180447340011597,-0.1774412840604782]],[[-0.025808673352003098,-0.1415506899356842,0.13576485216617584],[0.03214552626013756,0.06251075118780136,-0.11652521789073944],[-0.2032000720500946,-0.00865241140127182,0.0836377739906311]],[[0.005505417473614216,-0.13171911239624023,-0.08884329348802567],[-0.21542997658252716,0.29503700137138367,-0.07907234132289886],[-0.04864627122879028,-0.040656108409166336,0.1536979228258133]]],[[[-0.06102852523326874,0.04318932071328163,0.04723425582051277],[0.013526732102036476,0.3714442253112793,0.1538064330816269],[-0.07461802661418915,0.22568005323410034,-0.21049536764621735]],[[0.010514559224247932,0.0759136974811554,0.026013722643256187],[0.021167367696762085,0.28675904870033264,-0.004806069657206535],[-0.0371989868581295,0.21247324347496033,-0.1336076855659485]],[[0.03945092484354973,-0.21980194747447968,-0.04875524714589119],[-0.03786098212003708,0.01368660293519497,0.26928237080574036],[0.11379813402891159,-0.2767031490802765,0.13449516892433167]],[[0.04024932160973549,-0.09252886474132538,-0.0886070728302002],[0.13288356363773346,-0.21051406860351562,-0.41312822699546814],[0.11868304759263992,-0.3173694908618927,-0.09763386845588684]],[[0.08447805792093277,0.011038594879209995,-0.039075322449207306],[-0.025108100846409798,0.2089780569076538,0.13676293194293976],[0.07038094848394394,0.32070839405059814,0.17886167764663696]],[[0.07257284969091415,0.1039268970489502,-0.03953869640827179],[-0.15278038382530212,-0.44843554496765137,-0.032113268971443176],[0.13827215135097504,-0.19603465497493744,0.08768951147794724]],[[-0.022796042263507843,-0.009006276726722717,-0.07874472439289093],[-0.11832942813634872,-0.05028834193944931,0.11706242710351944],[-0.08748091757297516,0.25658977031707764,-0.2207040786743164]],[[-0.039406731724739075,0.16047969460487366,0.08341964334249496],[0.09253966808319092,0.018402287736535072,-0.01653100922703743],[-0.06797919422388077,-0.24263231456279755,-0.05039599910378456]]],[[[-0.0193162988871336,0.15592820942401886,-0.07009010016918182],[0.06636038422584534,0.852361261844635,-0.012105322442948818],[-0.034945908933877945,0.23395229876041412,0.4435690641403198]],[[0.17693191766738892,-0.026075808331370354,0.019530517980456352],[0.1491628736257553,0.7616561651229858,-0.24358081817626953],[-0.05522580072283745,0.10091786086559296,0.2676366865634918]],[[0.10478853434324265,0.17531953752040863,0.12515094876289368],[-0.044823016971349716,-0.08937244117259979,0.18498031795024872],[0.05375966802239418,-0.28604695200920105,0.21254487335681915]],[[-0.0190145093947649,-0.33422353863716125,-0.15078537166118622],[0.17878252267837524,-0.6335204839706421,-0.4624459743499756],[0.1668388843536377,0.08550409227609634,-0.2080341875553131]],[[0.12189976871013641,0.00835133995860815,-0.025082936510443687],[-0.1722010225057602,-0.28213727474212646,0.24781405925750732],[0.21815675497055054,0.4064028859138489,-0.17920657992362976]],[[0.21813130378723145,0.05259358882904053,0.1294155865907669],[-0.21073369681835175,-0.2950194180011749,0.18226976692676544],[-0.15627124905586243,0.04506250098347664,-0.026361525058746338]],[[0.04220995306968689,-0.0960095226764679,0.022771408781409264],[-0.11822370439767838,0.05383436009287834,-0.07795275747776031],[-0.032776087522506714,0.0994379073381424,0.05216977372765541]],[[-0.0031431845854967833,0.12622782588005066,0.010676118545234203],[0.1954287737607956,-0.10571714490652084,-0.09887758642435074],[0.047000154852867126,0.024482963606715202,0.22342531383037567]]],[[[0.18033067882061005,-0.15837465226650238,0.20831191539764404],[-0.07464621961116791,0.08442576974630356,-0.29912224411964417],[0.05005563795566559,-0.16432371735572815,-0.13952912390232086]],[[-0.036206673830747604,-0.31599271297454834,0.5004081726074219],[0.03769886493682861,-0.30955788493156433,0.39948564767837524],[0.0025689515750855207,-0.13687437772750854,0.07223261892795563]],[[-0.07776380330324173,0.05279265716671944,-0.28448763489723206],[0.0003832323709502816,0.08199264854192734,-0.19973714649677277],[-0.04649131000041962,0.12576036155223846,-0.04591198265552521]],[[-0.21170751750469208,0.21852849423885345,-0.06663763523101807],[0.015353264287114143,0.15555818378925323,-0.4139474630355835],[-0.08830058574676514,-0.03914867714047432,-0.12308262288570404]],[[0.15268899500370026,-0.21542510390281677,0.18851935863494873],[-0.02649226225912571,0.11342034488916397,-0.08312606066465378],[-0.02823925018310547,-0.055479746311903,-0.019422007724642754]],[[-0.263988733291626,0.1327388733625412,-0.5783302783966064],[0.047670040279626846,0.04853129759430885,-0.3583488464355469],[0.09910979866981506,-0.11736000329256058,-0.08850448578596115]],[[0.10541898012161255,-0.2857513427734375,0.3595690429210663],[0.04188133031129837,-0.2618251144886017,0.799472987651825],[0.00844329409301281,-0.15721017122268677,0.22268657386302948]],[[0.04213697463274002,-0.08839917927980423,0.499748557806015],[-0.04363242909312248,-0.16281555593013763,0.11877128481864929],[0.09762168675661087,-0.05630966275930405,0.028629422187805176]]],[[[-0.37090831995010376,-1.378401279449463,0.45700377225875854],[0.41266635060310364,-0.8000968098640442,0.5033646821975708],[-0.0861796960234642,0.1018838882446289,0.03781132027506828]],[[-0.7505263686180115,-0.3220375180244446,-0.6577105522155762],[-0.04185597598552704,0.1404755711555481,-0.2943779230117798],[-0.07785347104072571,-0.1280357390642166,0.04257027432322502]],[[-0.772550106048584,-0.3875374495983124,-0.23839731514453888],[0.20603047311306,0.5375693440437317,0.39173829555511475],[-0.01467870082706213,0.07105070352554321,0.12282226234674454]],[[-0.13888368010520935,-0.16571484506130219,-0.02393166348338127],[-0.5861556529998779,0.3035118281841278,-0.30706921219825745],[0.1260407269001007,0.0044829873368144035,0.10412172973155975]],[[-0.6958721876144409,-0.1523776799440384,-1.0340088605880737],[0.07169733196496964,0.533282458782196,-0.03469521552324295],[-0.15860599279403687,-0.13596127927303314,-0.039879847317934036]],[[-2.2164130210876465,-1.2272228002548218,-0.924213171005249],[-0.03064439445734024,0.2433253675699234,-0.15552310645580292],[-0.19539900124073029,-0.26864346861839294,-0.1328580528497696]],[[-0.30655500292778015,-0.16882547736167908,-0.3716491758823395],[0.014518513344228268,-0.18390487134456635,-0.17355579137802124],[-0.04832557588815689,-0.10407205671072006,0.014011526480317116]],[[-1.7131184339523315,-0.32390397787094116,-0.5209379196166992],[-0.09880983829498291,-0.1389022171497345,-0.06461513042449951],[-0.006808953825384378,-0.10807941108942032,0.09860412776470184]]],[[[-0.03052355907857418,-0.008744953200221062,-0.00929016899317503],[-0.03297317400574684,-0.18711936473846436,0.22742468118667603],[-0.186329185962677,0.20807185769081116,0.1550825834274292]],[[-0.044348571449518204,-0.044317323714494705,-0.0023842144291847944],[0.012618273496627808,0.012489896267652512,-0.0069388276897370815],[-0.13544178009033203,0.21858270466327667,-0.012766938656568527]],[[-0.0022601226810365915,-0.2758866548538208,-0.057762205600738525],[0.04688623920083046,0.38496851921081543,0.23562663793563843],[0.10992413759231567,-0.1726774275302887,0.15012472867965698]],[[-0.01887534186244011,0.02760442905128002,-0.05670773983001709],[0.008673102594912052,0.2176164835691452,-0.13272321224212646],[0.2573687434196472,0.0019409684464335442,-0.17583908140659332]],[[0.007368800230324268,-0.09360101819038391,0.03774775564670563],[0.04036315158009529,0.2986548840999603,0.03703349456191063],[-0.03470756113529205,0.22504085302352905,0.09071221202611923]],[[-0.0022739567793905735,0.0712301954627037,0.06481031328439713],[0.10516445338726044,-0.3898349106311798,0.01902099698781967],[-0.10367612540721893,-0.0632210224866867,0.02570609375834465]],[[-0.023840410634875298,0.12554973363876343,-0.13546040654182434],[0.06545084714889526,-0.32509279251098633,0.12999889254570007],[-0.16495943069458008,0.13759279251098633,0.06026417389512062]],[[-0.09815449267625809,0.08891027420759201,0.0762336254119873],[-0.04989877715706825,-0.062428683042526245,-0.1957976073026657],[-0.07155990600585938,-0.08306007087230682,0.07093807309865952]]],[[[-0.06460995227098465,0.04464651271700859,0.08509095758199692],[-0.1019216924905777,0.21957680583000183,0.10222408175468445],[-0.013797814957797527,-0.12798455357551575,-0.04439099133014679]],[[0.01248854212462902,0.05371883139014244,-0.05606188252568245],[-0.06775660812854767,-0.010728378780186176,0.09615521132946014],[0.06506717205047607,0.15538692474365234,-0.10188260674476624]],[[0.08858763426542282,0.07716505974531174,0.08913123607635498],[0.09011268615722656,-0.11251473426818848,0.34026244282722473],[0.031684789806604385,-0.009731175377964973,0.018803022801876068]],[[0.06346164643764496,-0.016143249347805977,-0.09557977318763733],[0.057924505323171616,-0.1060059517621994,-0.0694427490234375],[-0.03699830546975136,0.025886040180921555,-0.15442776679992676]],[[0.016189150512218475,0.08678749203681946,0.013187738135457039],[-0.12059479206800461,0.18120326101779938,0.008330835029482841],[0.06499405950307846,0.1423945128917694,0.20795589685440063]],[[0.0829971432685852,0.18759576976299286,-0.015683794394135475],[0.06631741672754288,-0.5334501266479492,-0.009895512834191322],[-0.024160398170351982,0.07743288576602936,-0.09422953426837921]],[[-0.015011603944003582,-0.05903952196240425,-0.02534874714910984],[-0.19134968519210815,0.2518653869628906,-0.08244287967681885],[0.040017202496528625,-0.17348361015319824,0.058002498000860214]],[[-0.14980939030647278,-0.01872873492538929,-0.00964873656630516],[-0.17623008787631989,0.018583662807941437,-0.12073862552642822],[-0.012830994091928005,-0.2161407321691513,-0.10373032838106155]]]],"biases":[0.038111697882413864,-0.06432171911001205,-0.02499239705502987,0.08994898945093155,-0.10135961323976517,0.006194261834025383,0.01631961204111576,0.05372896045446396]},"conv7":{"weights":[[[[-0.024707065895199776,0.26662003993988037,-0.020569633692502975],[0.003783761989325285,0.14708228409290314,-0.2041417956352234],[0.0747472420334816,0.18592509627342224,-0.10749443620443344]],[[0.08127701282501221,0.06599230319261551,0.03172345086932182],[-0.009721547365188599,0.43981796503067017,-0.02714821696281433],[0.01123163290321827,-0.02223917841911316,-0.07812247425317764]],[[0.22794093191623688,-0.010499820113182068,0.08218351751565933],[-0.043221794068813324,-0.1556721031665802,-0.023802481591701508],[0.06509681791067123,0.08868686854839325,-0.10016025602817535]],[[-0.07056612521409988,-0.055803414434194565,0.05130346119403839],[0.02180435135960579,-0.30160897970199585,0.20669975876808167],[-0.007924932986497879,0.1282932609319687,0.023381007835268974]],[[0.0782838761806488,-0.015510070137679577,-0.013532863929867744],[-0.6006676554679871,0.20084205269813538,-0.029651042073965073],[0.01797480136156082,0.06849642843008041,-0.05059404298663139]],[[0.1923442780971527,0.20232442021369934,0.0075783496722579],[0.49309173226356506,0.6621257066726685,-0.27613139152526855],[-0.6527079343795776,-0.18431398272514343,-0.3311237394809723]],[[0.13600513339042664,-0.035232383757829666,-0.02582908794283867],[-0.13857325911521912,-0.3994008004665375,-0.0303210336714983],[-0.09250407665967941,-0.2490522712469101,0.06449422240257263]],[[0.1980302631855011,-0.1856168657541275,-0.16853603720664978],[-0.19772076606750488,-0.09307016432285309,-0.040517255663871765],[0.12004800885915756,0.11508028954267502,0.025122450664639473]]],[[[-0.05181104317307472,0.025853654369711876,-0.011010374873876572],[0.0025901864282786846,-0.4741649627685547,0.0825858935713768],[0.13763754069805145,0.08370655030012131,-0.1319941282272339]],[[-0.012398121878504753,0.08635804802179337,0.04991215094923973],[-0.02110571600496769,0.23951885104179382,0.15502581000328064],[-0.04827853664755821,-0.06130378320813179,-0.15342901647090912]],[[0.07534328103065491,0.0006343355635181069,0.07113470137119293],[-0.19893528521060944,-0.25717490911483765,0.014917345717549324],[-0.0013897421304136515,-0.07815574109554291,-0.13412688672542572]],[[-0.07015738636255264,0.1199970692396164,-0.09681453555822372],[0.12472289800643921,-0.11282984167337418,0.1545868217945099],[-0.01917155832052231,0.0954200029373169,0.1080765500664711]],[[-0.05746135115623474,-0.015282888896763325,0.0011393338209018111],[0.13751277327537537,0.24371328949928284,-0.07483203709125519],[0.12351419776678085,0.0060419319197535515,0.006268966943025589]],[[0.06540358811616898,0.22245946526527405,0.12077943980693817],[-0.05055512115359306,0.9929516911506653,-0.04774361476302147],[0.1258312314748764,-0.043402329087257385,-0.3884846866130829]],[[0.0128750866279006,0.3356359004974365,-0.16772371530532837],[0.021165547892451286,-0.2413043975830078,-0.12175080180168152],[-0.03988857567310333,-0.12297463417053223,-0.005293172784149647]],[[-0.017129849642515182,0.10002721101045609,-0.06649568676948547],[-0.11269572377204895,0.1970849186182022,-0.11865731328725815],[0.14467860758304596,0.21637818217277527,0.1789320707321167]]],[[[-0.08256828039884567,-0.18285977840423584,0.12048731744289398],[0.08866661041975021,-0.5249623656272888,0.31810426712036133],[0.1094728484749794,0.019934112206101418,-0.060044556856155396]],[[-0.0625658929347992,0.005930302198976278,0.11858432739973068],[-0.007487970869988203,-0.057419244199991226,0.15449170768260956],[0.002726167906075716,-0.10196109861135483,-0.16009622812271118]],[[-0.23319394886493683,0.12597262859344482,0.0508437417447567],[-0.2314843386411667,-0.2462204098701477,0.038990285247564316],[0.024243248626589775,-0.057082127779722214,-0.14885377883911133]],[[0.017046170309185982,-0.029774947091937065,-0.1754622757434845],[0.13758237659931183,0.16783179342746735,-0.2378906011581421],[0.0076384032145142555,0.048545196652412415,0.08526739478111267]],[[-0.017784591764211655,0.031649149954319,0.0034111023414880037],[0.44313719868659973,-0.3050597608089447,-0.07482238858938217],[-0.009135691449046135,-0.06718911975622177,0.0878126248717308]],[[-0.02614039182662964,0.11556315422058105,0.2765102684497833],[-0.19882774353027344,0.30843421816825867,0.6817618012428284],[0.041684430092573166,-0.7712239027023315,-0.8290358781814575]],[[0.014866983518004417,0.35387173295021057,0.049625419080257416],[-0.16470426321029663,-0.13043946027755737,0.06957758963108063],[-0.12924183905124664,-0.004656663630157709,0.05555761605501175]],[[0.12625017762184143,0.4789741635322571,0.014701317995786667],[0.06756465137004852,-0.10006267577409744,-0.11544111371040344],[0.1460050344467163,0.18244899809360504,0.20027101039886475]]],[[[-0.10009157657623291,0.2255033254623413,-0.06482817232608795],[0.14093320071697235,0.2826233208179474,-0.02314423769712448],[0.0726465955376625,0.1726343333721161,-0.2187495231628418]],[[0.03662680462002754,0.14945995807647705,-0.06576299667358398],[-0.07207256555557251,0.09184035658836365,0.12952561676502228],[0.05834949016571045,0.031216438859701157,-0.1118241623044014]],[[0.255927175283432,-0.14119769632816315,0.08022547513246536],[0.21290697157382965,-0.07988711446523666,0.13842181861400604],[0.1435362696647644,0.11289249360561371,-0.15857769548892975]],[[-0.062102366238832474,0.16001856327056885,-0.013654296286404133],[-0.09905464947223663,-0.33746451139450073,0.18606886267662048],[-0.02904493920505047,0.08634550869464874,0.04594111815094948]],[[0.05892132967710495,0.04753122478723526,-0.04043247550725937],[-0.35510390996932983,0.04889318719506264,0.015153379179537296],[-0.24462367594242096,0.16768760979175568,-0.055773958563804626]],[[0.10013900697231293,-0.06886804848909378,-0.11453965306282043],[0.11501532047986984,0.21766924858093262,-0.40292787551879883],[-0.32871997356414795,0.3471863567829132,0.09144789725542068]],[[0.0029361103661358356,-0.3003980219364166,-0.008364858105778694],[-0.010298348031938076,0.09956818073987961,-0.21061637997627258],[-0.1510397493839264,-0.30331510305404663,0.1329939365386963]],[[-0.1842307448387146,-0.2365286499261856,-0.05366192013025284],[0.10378791391849518,-0.12612399458885193,-0.17564760148525238],[0.004920346196740866,0.11387494951486588,0.04678516462445259]]],[[[-0.01869971677660942,-0.05643786862492561,-0.04845910146832466],[-0.08175306022167206,-0.1379069834947586,0.2876329720020294],[0.22111393511295319,-0.08554603159427643,-0.2679913341999054]],[[-0.11503824591636658,0.2398369014263153,-0.07461331784725189],[0.01241340022534132,-0.12317964434623718,0.32955750823020935],[-0.018623143434524536,0.006879644934087992,-0.2186199277639389]],[[-0.04973701760172844,-0.1221943199634552,0.15337887406349182],[0.003919004928320646,0.13219012320041656,0.09892909228801727],[0.08245823532342911,-0.15822075307369232,-0.1962188184261322]],[[-0.03688892349600792,0.20283782482147217,-0.12001357972621918],[0.07400822639465332,-0.13796813786029816,0.08155538141727448],[-0.04800848662853241,0.051539383828639984,0.1534709632396698]],[[-0.02227381430566311,-0.025464525446295738,-0.02229994162917137],[0.037216827273368835,0.16871900856494904,0.011255118064582348],[0.19363467395305634,0.09428031742572784,-0.030926378443837166]],[[-0.01746731624007225,-0.024887029081583023,-0.06756993383169174],[-0.21261225640773773,0.3461311161518097,-0.23956800997257233],[0.4150530695915222,0.6016355752944946,0.018877366557717323]],[[-0.020441196858882904,0.048333540558815,-0.2494257092475891],[-0.0020672399550676346,0.2761600911617279,-0.256106972694397],[-0.1548141986131668,-0.08794531971216202,0.10475977510213852]],[[-0.07423694431781769,-0.26071545481681824,0.08016057312488556],[-0.03735382854938507,0.2597270607948303,-0.2488671839237213],[0.18431970477104187,0.13341261446475983,0.20197288691997528]]],[[[0.07057807594537735,-0.31830015778541565,0.06655192375183105],[0.010275802575051785,-0.10394059121608734,0.38864949345588684],[0.08604130893945694,-0.07862284034490585,0.11835851520299911]],[[-0.05843253433704376,0.04856066033244133,0.014995771460235119],[0.027458837255835533,-0.32404205203056335,0.06510324776172638],[-0.05864500626921654,-0.12113328278064728,-0.06964967399835587]],[[-0.14020337164402008,0.18211372196674347,0.04388628154993057],[-0.07062879949808121,0.28404372930526733,-0.12306810170412064],[-0.02304569073021412,-0.11276141554117203,0.06425979733467102]],[[0.025925498455762863,-0.08487670868635178,-0.02222081832587719],[0.09639991819858551,0.006846870295703411,-0.29130542278289795],[-0.03650557994842529,0.03479106351733208,0.13302873075008392]],[[-0.04986705631017685,-0.05142359808087349,0.022083023563027382],[0.2855350375175476,-0.055851273238658905,-0.03875971958041191],[0.15689700841903687,-0.2383042275905609,0.05883674696087837]],[[-0.10050692409276962,-0.008350618183612823,0.01861332170665264],[-0.2772088050842285,-0.2743595838546753,0.3569710850715637],[0.19110152125358582,-0.3871583640575409,-0.2506296932697296]],[[-0.07552926242351532,0.06998932361602783,-0.2035362720489502],[-0.07918792963027954,0.07464725524187088,0.14637428522109985],[-0.012842497788369656,0.043738171458244324,-0.27960309386253357]],[[0.060064882040023804,-0.05730609595775604,0.1588037759065628],[-0.07527551054954529,0.2996640205383301,0.03157636895775795],[0.1556641310453415,0.07983339577913284,0.2482071816921234]]],[[[0.08863462507724762,0.15573401749134064,-0.10159219056367874],[0.02556898258626461,0.34931647777557373,-0.15396572649478912],[-0.16519078612327576,0.05944633111357689,0.002217798260971904]],[[0.008096905425190926,0.010953792370855808,-0.10859213769435883],[-0.03757834807038307,-0.10072361677885056,-0.050095852464437485],[0.06929727643728256,0.22591498494148254,0.05834483355283737]],[[0.2856268286705017,-0.1777627021074295,-0.09411384910345078],[0.21823593974113464,0.036504488438367844,0.13291887938976288],[0.03574789687991142,0.06026553362607956,0.10826059430837631]],[[-0.03462199121713638,0.14454591274261475,0.03275343403220177],[-0.1564951390028,-0.06445755064487457,0.1751786768436432],[0.029695376753807068,-0.18840357661247253,-0.0032149360049515963]],[[-0.021568192169070244,0.08150668442249298,-0.021290110424160957],[-0.039971597492694855,-0.0613958016037941,0.04603097587823868],[-0.49640968441963196,0.23058950901031494,-0.06880998611450195]],[[-0.027998406440019608,-0.20087477564811707,-0.17696191370487213],[-0.08508399873971939,-0.2265573889017105,-0.48758766055107117],[-0.0768757238984108,0.667449414730072,0.33116164803504944]],[[-0.19915305078029633,-0.20231427252292633,0.09377702325582504],[0.31614550948143005,0.21559590101242065,-0.20895765721797943],[0.07170785218477249,0.06352544575929642,-0.01983439177274704]],[[-0.3228529989719391,-0.13823749125003815,0.039963241666555405],[0.3043040931224823,-0.36141321063041687,-0.029291927814483643],[-0.29877984523773193,-0.15914300084114075,-0.17950628697872162]]],[[[0.09388623386621475,-0.12563924491405487,-0.03281864523887634],[-0.0864851251244545,0.14689761400222778,0.008419591002166271],[-0.028825288638472557,-0.266039103269577,-0.026405565440654755]],[[-0.08048342168331146,-0.011219056323170662,-0.12616096436977386],[0.005454641301184893,-0.1654835194349289,0.0875142514705658],[-0.0395338237285614,0.2171725630760193,0.036671802401542664]],[[-0.043491851538419724,-0.20114590227603912,0.019922342151403427],[0.16195763647556305,0.28294703364372253,0.07978448271751404],[-0.08486898988485336,-0.09479343891143799,0.06347230821847916]],[[0.011882754042744637,0.093449667096138,-0.007126276846975088],[-0.07310500741004944,0.17726163566112518,0.03707432001829147],[0.04827839136123657,-0.14173568785190582,-0.006721224170178175]],[[-0.0058552296832203865,0.02278991788625717,-0.02325238101184368],[-0.025720026344060898,0.026890646666288376,0.08989571779966354],[0.24123460054397583,0.1967945694923401,-0.08318603038787842]],[[-0.10749445855617523,-0.16669420897960663,-0.1624743640422821],[-0.25675469636917114,-0.24772478640079498,-0.35136786103248596],[0.5735046863555908,1.1426070928573608,0.15482738614082336]],[[-0.09974731504917145,0.014105827547609806,-0.13930091261863708],[0.005565993953496218,0.46437856554985046,-0.24507682025432587],[0.12821775674819946,0.06772292405366898,0.08844944834709167]],[[-0.08220195025205612,-0.1528589427471161,0.09984296560287476],[-0.014484837651252747,0.09035126864910126,-0.019711138680577278],[-0.020871559157967567,-0.15986508131027222,-0.1460687220096588]]],[[[0.06721451133489609,-0.21948130428791046,0.09263846278190613],[-0.07665311545133591,0.07179420441389084,0.04139707237482071],[0.025686299428343773,-0.24596165120601654,0.22664426267147064]],[[-0.04079435020685196,-0.10568147152662277,-0.03653595596551895],[-0.030756304040551186,-0.31003859639167786,-0.1744299829006195],[-0.06254401803016663,0.046422019600868225,0.20493708550930023]],[[-0.18632663786411285,0.07110369950532913,0.012024457566440105],[-0.000012865092685387935,0.2789279520511627,-0.12162043154239655],[-0.022492213174700737,0.039897479116916656,0.16802865266799927]],[[0.06676281243562698,-0.05548353120684624,0.06635681539773941],[-0.013812076300382614,0.15752726793289185,-0.25041744112968445],[0.01952705904841423,0.011813106015324593,-0.18493300676345825]],[[0.0025890085380524397,-0.053066935390233994,0.02951742708683014],[0.0730886310338974,0.10119377076625824,0.004744973964989185],[0.3629187047481537,-0.3763849437236786,0.007772261742502451]],[[-0.15419161319732666,-0.14337590336799622,-0.1064222902059555],[-0.26691576838493347,-0.667724072933197,0.0790732353925705],[0.24180194735527039,0.035668861120939255,-0.1445099413394928]],[[-0.013832516968250275,-0.049330633133649826,-0.10949940234422684],[-0.07251917570829391,0.294266015291214,0.3162901997566223],[0.038451358675956726,0.054760392755270004,0.002544950693845749]],[[0.03260846436023712,-0.11389681696891785,0.09159182757139206],[-0.06679309159517288,0.4742169678211212,0.11241059750318527],[0.04316071420907974,-0.2837633788585663,-0.13957779109477997]]]],"biases":[0.04171614721417427,0.0012012615334242582,0.007753047160804272,0.014773117378354073,-0.01703854277729988,-0.024079257622361183,-0.005541540216654539,-0.023816082626581192,-0.025190189480781555]}}')}}]);