(self.webpackChunkUpscaler=self.webpackChunkUpscaler||[]).push([[535],{15:s=>{"use strict";s.exports=JSON.parse('{"conv1":{"weights":[[[[-0.0076330541633069515,0.14469537138938904,-0.19058763980865479],[0.33390751481056213,-0.1034507155418396,0.12329299002885818],[-0.028260810300707817,0.024297885596752167,-0.19286076724529266]]],[[[0.03366968408226967,0.05036245658993721,0.13014701008796692],[0.003852056572213769,-0.1725069284439087,0.2343045473098755],[-0.15626758337020874,0.0023443906102329493,-0.1409514844417572]]],[[[0.003927640616893768,0.020268989726901054,0.025532161816954613],[0.03668235242366791,-0.07351749390363693,-0.11786766350269318],[0.0022106613032519817,-0.07776056230068207,0.20741423964500427]]],[[[0.047790270298719406,0.21477994322776794,-0.07799191027879715],[0.03181184083223343,-0.2694073021411896,0.10571277141571045],[-0.009811396710574627,0.12446239590644836,-0.0643220841884613]]],[[[-0.07515105605125427,-0.11260058730840683,-0.11894790083169937],[-0.12061665952205658,0.19252032041549683,0.0965605154633522],[-0.01005591545253992,0.10954871773719788,0.05433517321944237]]],[[[-0.030609779059886932,-0.04513830691576004,-0.020858151838183403],[0.14638108015060425,-0.21414299309253693,0.007064243778586388],[0.03555324301123619,-0.06141156330704689,-0.005423144903033972]]],[[[-0.08935415744781494,0.19145643711090088,0.03464801236987114],[0.2753523588180542,-0.13213808834552765,0.154861181974411],[-0.10293746739625931,-0.0389176681637764,-0.33086735010147095]]],[[[-0.1336832195520401,0.0785725861787796,0.054609525948762894],[0.06735394895076752,-0.1400732845067978,-0.12095478177070618],[0.08553335070610046,-0.017265159636735916,0.2086613029241562]]]],"biases":[0.04351402446627617,-0.035295430570840836,0.08551765233278275,-0.04856039583683014,0.10083862394094467,-0.08100874722003937,0.013493896462023258,-0.10158288478851318]},"conv2":{"weights":[[[[0.08151160180568695,-0.04873219132423401,-0.06933333724737167],[0.26757559180259705,0.12406686693429947,-0.1392638236284256],[-0.1441832184791565,0.20484478771686554,0.13488557934761047]],[[0.10956665128469467,0.09903667122125626,-0.10775015503168106],[0.0008492014021612704,0.3734802305698395,0.05428009480237961],[-0.2074911892414093,-0.1259993612766266,-0.2227907031774521]],[[-0.01583314687013626,-0.00983117613941431,0.16297079622745514],[0.07875244319438934,0.49193209409713745,0.3754124939441681],[0.02034594863653183,0.10540687292814255,0.3312642574310303]],[[0.08189789950847626,-0.2362302541732788,-0.13678687810897827],[-0.2165849357843399,0.22585755586624146,-0.11500531435012817],[-0.11649789661169052,-0.34647488594055176,0.06564038246870041]],[[0.09330441057682037,-0.12399602681398392,0.20110438764095306],[0.30012866854667664,0.21331685781478882,-0.032442204654216766],[0.17587365210056305,0.09156417846679688,0.19591332972049713]],[[0.04825633019208908,0.02737301029264927,-0.04869372770190239],[-0.016016686335206032,0.3088454008102417,-0.08673165738582611],[0.06649640947580338,-0.07748325169086456,-0.2085919827222824]],[[0.03920651972293854,0.07025852054357529,0.11204836517572403],[-0.03473351523280144,-0.056041426956653595,-0.026248332113027573],[0.22499433159828186,-0.18045037984848022,0.22920310497283936]],[[-0.03284728527069092,-0.11577136814594269,-0.04570651426911354],[0.16189509630203247,-0.18556362390518188,-0.38668403029441833],[-0.11486447602510452,-0.44045722484588623,-0.08005733042955399]]],[[[-0.15640951693058014,-0.2928294837474823,0.15828779339790344],[-0.013786026276648045,-0.0026774222496896982,0.09423034638166428],[0.01598973758518696,0.1413782387971878,-0.3010043501853943]],[[-0.058172982186079025,0.031594205647706985,0.15620221197605133],[0.248078852891922,-0.025996288284659386,-0.09042083472013474],[-0.03824473172426224,0.011842602863907814,-0.033470068126916885]],[[0.3768267333507538,-0.3343476355075836,0.08329010754823685],[0.15626436471939087,0.06409959495067596,0.3338443338871002],[-0.07850640267133713,0.2987886667251587,-0.04915822297334671]],[[0.07797926664352417,0.07717758417129517,-0.1793968379497528],[0.09720762819051743,0.030509119853377342,-0.056969378143548965],[-0.05165248364210129,-0.08196024596691132,0.1907481849193573]],[[-0.1366565078496933,-0.029602479189634323,0.0377720408141613],[-0.17633920907974243,0.18891607224941254,-0.0042680311016738415],[-0.08674707263708115,0.2289220690727234,-0.1480165272951126]],[[0.17815396189689636,-0.3889095187187195,0.20899786055088043],[0.11639799922704697,-0.19263966381549835,-0.2664145231246948],[0.03178789094090462,0.11179521679878235,0.298237144947052]],[[-0.0394488200545311,-0.13244612514972687,-0.03258468583226204],[-0.03005875088274479,-0.09793523699045181,0.12467861920595169],[-0.15701042115688324,0.19530032575130463,-0.03877922147512436]],[[0.13491474092006683,-0.25973284244537354,-0.04179419204592705],[0.35194867849349976,0.1431492269039154,-0.13883528113365173],[-0.217938631772995,0.19107142090797424,-0.17353174090385437]]],[[[0.01693047396838665,0.16070041060447693,-0.05462260916829109],[0.03616086393594742,-0.07009252905845642,0.31647253036499023],[-0.2161514163017273,0.18440109491348267,-0.04886524751782417]],[[-0.016994087025523186,-0.1398635059595108,0.024224145337939262],[0.31739550828933716,-0.24230113625526428,0.1536310911178589],[-0.09443938732147217,-0.06485659629106522,0.07901658117771149]],[[0.06500355899333954,0.13247913122177124,0.009161637164652348],[0.16857071220874786,0.13547880947589874,-0.08233682811260223],[-0.006677138619124889,-0.34191960096359253,-0.2452509105205536]],[[-0.1260623335838318,0.1626562625169754,-0.13468165695667267],[-0.04800115153193474,-0.3107391595840454,0.14295311272144318],[0.04854905977845192,-0.036602407693862915,0.29179638624191284]],[[-0.21527664363384247,-0.06926359236240387,0.12005235254764557],[0.30880415439605713,0.35171961784362793,0.11621492356061935],[-0.1720810830593109,-0.22030425071716309,0.1463010460138321]],[[-0.041353754699230194,-0.10103517025709152,-0.10313912481069565],[0.10147439688444138,-0.30017754435539246,0.08974181115627289],[0.07811887562274933,-0.21642448008060455,0.2388126403093338]],[[-0.2582446038722992,-0.14725326001644135,0.1959003508090973],[-0.08959651738405228,-0.07436797767877579,0.08671754598617554],[0.21743397414684296,0.04591267183423042,-0.2143487185239792]],[[0.2703246474266052,-0.007190793752670288,0.14200329780578613],[-0.1551705151796341,-0.4648437201976776,0.32899999618530273],[0.13546794652938843,0.24471727013587952,-0.030370958149433136]]],[[[-0.018374521285295486,-0.29361143708229065,0.06487012654542923],[-0.09151726216077805,0.018150614574551582,0.15337957441806793],[-0.07453778386116028,0.10506334900856018,-0.006864618510007858]],[[0.1535244733095169,0.07941242307424545,0.04317746311426163],[0.08228054642677307,-0.22932252287864685,0.08429441601037979],[0.011983879841864109,-0.25440695881843567,0.03963993862271309]],[[0.26506710052490234,0.2911451458930969,-0.11618328094482422],[-0.00851367600262165,0.03357173874974251,0.14674387872219086],[0.0531194768846035,-0.05726626515388489,-0.03211328759789467]],[[0.0015624937368556857,-0.05081330984830856,0.09718141704797745],[0.07960014045238495,-0.027894632890820503,0.11092640459537506],[-0.18461792171001434,0.26029172539711,0.09780492633581161]],[[-0.2546040117740631,0.2529986798763275,0.023618441075086594],[-0.11240748316049576,0.15392060577869415,0.016133775934576988],[-0.18866056203842163,-0.10898640006780624,-0.024292973801493645]],[[0.2821415662765503,0.11290255188941956,0.04584946110844612],[-0.18081428110599518,-0.2791861295700073,0.030231768265366554],[0.1260656714439392,0.05202513933181763,-0.10347592085599899]],[[-0.3802088499069214,0.029065463691949844,-0.08576599508523941],[0.0647655725479126,0.1459108591079712,0.14307811856269836],[-0.0005582162411883473,0.05231819301843643,0.004162786062806845]],[[0.14504875242710114,-0.5475313663482666,-0.09984288364648819],[0.014469869434833527,0.045435283333063126,0.22671669721603394],[-0.20552736520767212,0.13025453686714172,0.18942499160766602]]],[[[0.1249026209115982,-0.05794566124677658,0.1473795771598816],[0.0749707967042923,-0.17833194136619568,-0.09509258717298508],[-0.030077574774622917,-0.09191666543483734,-0.15911747515201569]],[[0.22409869730472565,-0.06430035829544067,0.0439845472574234],[-0.3772823214530945,0.14005838334560394,0.0303600262850523],[0.14250542223453522,-0.11405843496322632,-0.1409187763929367]],[[-0.3717800974845886,0.30460867285728455,-0.04095795378088951],[0.04579375311732292,0.023690348491072655,-0.1394166797399521],[-0.08393777906894684,0.02911226637661457,-0.063035748898983]],[[0.1401790827512741,-0.0723780021071434,0.09591943770647049],[-0.22637203335762024,0.34152427315711975,-0.11165664345026016],[-0.04213558882474899,-0.28713271021842957,-0.21519586443901062]],[[0.1996895968914032,0.18115657567977905,-0.17980822920799255],[-0.19051764905452728,-0.43223270773887634,-0.041926391422748566],[-0.11456787586212158,-0.028410473838448524,0.043184034526348114]],[[-0.03555215150117874,0.2247360795736313,-0.027645405381917953],[0.08500044792890549,0.36995813250541687,-0.316296249628067],[-0.08144786208868027,0.1603194624185562,0.1361706703901291]],[[0.22862841188907623,0.2674948573112488,-0.1527155339717865],[-0.07916983962059021,0.12138771265745163,-0.23653915524482727],[-0.21320252120494843,0.028721263632178307,0.16966310143470764]],[[-0.14415664970874786,0.0615425668656826,0.0021303948014974594],[0.25718843936920166,0.20995119214057922,-0.1460343897342682],[-0.06954004615545273,0.02174217998981476,0.0023484118282794952]]],[[[0.13849201798439026,0.046165887266397476,0.10778160393238068],[0.013419528491795063,0.1879943460226059,0.12213343381881714],[-0.009519540704786777,-0.1445825695991516,0.17683179676532745]],[[0.09820979833602905,-0.12088057398796082,-0.03168516978621483],[-0.14320337772369385,0.0731566920876503,0.2166716456413269],[-0.12968286871910095,-0.26499590277671814,0.19091270864009857]],[[0.18236088752746582,-0.06079287827014923,-0.0036564618349075317],[-0.02473944053053856,-0.10122363269329071,0.05894111469388008],[-0.19427628815174103,-0.19174106419086456,0.14965149760246277]],[[-0.15735264122486115,-0.23623330891132355,-0.001075164182111621],[0.00830823928117752,-0.011194376274943352,0.204473614692688],[-0.3055090010166168,-0.01324197556823492,-0.013923071324825287]],[[-0.10968111455440521,-0.013249926269054413,-0.1403605192899704],[-0.01104550901800394,0.1716289222240448,0.09224157780408859],[-0.16233737766742706,0.2158079445362091,0.4916517734527588]],[[-0.18033070862293243,0.06332272291183472,-0.09376199543476105],[0.14881369471549988,-0.22079995274543762,-0.1803901195526123],[-0.1626816987991333,-0.28366994857788086,0.20497769117355347]],[[0.027561526745557785,-0.03104194812476635,-0.02069297432899475],[-0.16203242540359497,-0.07431796938180923,0.19028152525424957],[0.1344844400882721,0.05104818940162659,0.13280457258224487]],[[0.1359383761882782,0.04868972674012184,-0.08154052495956421],[0.08502336591482162,-0.14408636093139648,0.20971065759658813],[-0.03412729129195213,-0.1595972627401352,0.16867877542972565]]],[[[0.0524602048099041,0.048463985323905945,0.12056083977222443],[-0.14140771329402924,0.038803812116384506,0.11807458102703094],[0.05410516634583473,-0.06954532116651535,-0.18082183599472046]],[[0.4318864941596985,-0.11281074583530426,0.17483755946159363],[-0.03431034833192825,-0.06067433953285217,0.12500661611557007],[-0.0937248170375824,-0.07143791764974594,-0.3202705979347229]],[[-0.25037088990211487,-0.08229900896549225,0.3694647252559662],[0.22749818861484528,0.03585369139909744,0.12458930909633636],[-0.1393730789422989,0.011561239138245583,-0.1990315467119217]],[[0.0005120125133544207,-0.3614545166492462,-0.026132751256227493],[0.019380657002329826,0.3270064890384674,0.09265422075986862],[0.037578314542770386,-0.13208313286304474,0.21416421234607697]],[[0.2120119035243988,0.050956226885318756,-0.06042569503188133],[-0.2247123420238495,-0.43996351957321167,0.09596870094537735],[-0.026960697025060654,0.0018248405540362,-0.13762210309505463]],[[0.13966955244541168,-0.2568081021308899,0.07227559387683868],[0.09674475342035294,-0.09179377555847168,-0.18934626877307892],[0.013459044508635998,0.27011457085609436,-0.20292119681835175]],[[0.07204259186983109,-0.05457746237516403,0.05728967487812042],[0.11969998478889465,0.09794506430625916,-0.251388818025589],[-0.118843212723732,-0.0632544681429863,0.19016413390636444]],[[-0.10847827047109604,-0.029916096478700638,-0.1641034036874771],[0.1577097326517105,0.10768412798643112,-0.07044242322444916],[-0.31920498609542847,-0.2749735414981842,0.220758855342865]]],[[[0.042649026960134506,0.06889596581459045,-0.11986063420772552],[-0.015150866471230984,-0.1063186451792717,0.0016757010016590357],[0.02196231111884117,-0.12698808312416077,-0.023224450647830963]],[[0.01563606597483158,-0.014257214963436127,0.044895563274621964],[-0.27832064032554626,0.024187535047531128,-0.15337246656417847],[-0.05580500513315201,0.015424075536429882,-0.05605704337358475]],[[0.07191029191017151,0.33016595244407654,0.16737495362758636],[0.1975644826889038,0.05065383017063141,-0.10110224038362503],[0.048874370753765106,0.27512839436531067,-0.05564284697175026]],[[-0.11881762742996216,0.011692051775753498,0.31101474165916443],[0.17377611994743347,0.1992463320493698,0.04688691720366478],[-0.10681816935539246,0.04574182257056236,-0.15191656351089478]],[[0.30675771832466125,-0.11700404435396194,0.041773032397031784],[-0.07845500856637955,0.041916169226169586,0.011204253882169724],[0.29100918769836426,-0.19118064641952515,-0.08627059310674667]],[[-0.18496790528297424,-0.09256801009178162,0.199934720993042],[0.06924904137849808,-0.3529263734817505,-0.15400658547878265],[-0.026323877274990082,0.026844333857297897,0.1215607076883316]],[[0.0959111750125885,0.1477530598640442,-0.006302672438323498],[0.10673453658819199,0.08477441221475601,0.036635011434555054],[0.15765637159347534,-0.11222784966230392,-0.030720317736268044]],[[-0.06357822567224503,-0.1935420036315918,-0.02559269592165947],[-0.30856290459632874,-0.002373302821069956,0.1451248973608017],[0.1421976387500763,-0.252627968788147,-0.12222886085510254]]]],"biases":[0.14600804448127747,-0.03459729999303818,0.1677265763282776,0.00675681047141552,-0.07865024358034134,0.12956775724887848,-0.0233641155064106,0.11858462542295456]},"conv3":{"weights":[[[[-0.09065327793359756,0.08677814900875092,-0.028527850285172462],[0.12741495668888092,-0.3066447675228119,0.14684754610061646],[-0.08822371065616608,-0.29097750782966614,0.10532531142234802]],[[0.0323118194937706,-0.16579444706439972,0.0757480040192604],[-0.10995017737150192,-0.15901197493076324,0.2977510392665863],[-0.014192958362400532,-0.006645657122135162,0.11078768223524094]],[[0.1383880078792572,0.25053346157073975,-0.039156604558229446],[-0.06733663380146027,0.29331913590431213,-0.03460552543401718],[0.040569085627794266,0.06319240480661392,0.07529155164957047]],[[-0.016055895015597343,0.12736876308918,0.0983494371175766],[0.07574866712093353,0.17794638872146606,-0.13751040399074554],[-0.03948844224214554,-0.06832519918680191,-0.07114118337631226]],[[-0.14583595097064972,-0.1926039159297943,0.10904593020677567],[0.1088077500462532,-0.27171340584754944,0.10697424411773682],[-0.0177625622600317,0.01996995508670807,-0.05260230600833893]],[[-0.07973453402519226,0.3403449058532715,-0.18513989448547363],[0.20643755793571472,0.0735209509730339,0.10561170428991318],[0.03279636427760124,0.09167397022247314,-0.019184380769729614]],[[0.02498895674943924,-0.1322341114282608,-0.09927144646644592],[0.11761756241321564,0.14835776388645172,0.04655135050415993],[-0.05927064269781113,0.2362872064113617,0.1471429467201233]],[[0.10683110356330872,0.16547495126724243,-0.14105960726737976],[0.17969629168510437,0.22248047590255737,0.37585294246673584],[-0.06484373658895493,0.22589193284511566,0.27526190876960754]]],[[[-0.12968099117279053,0.1870795637369156,0.0692296028137207],[0.049601972103118896,-0.17821799218654633,-0.18343201279640198],[0.16799519956111908,-0.1153947189450264,0.2011631578207016]],[[-0.03765488788485527,-0.07135369628667831,0.13580478727817535],[-0.21123746037483215,0.3547012209892273,-0.2691979706287384],[-0.14323225617408752,0.12409879267215729,-0.2711659073829651]],[[0.1254354566335678,-0.29174068570137024,-0.0792919248342514],[-0.1090797632932663,0.15696831047534943,0.21372877061367035],[-0.0539320632815361,0.19101795554161072,-0.12808240950107574]],[[-0.00485935527831316,0.14614316821098328,0.18230213224887848],[0.13502155244350433,0.031020816415548325,0.4158247113227844],[0.301829993724823,-0.043187547475099564,0.39212456345558167]],[[0.016109388321638107,0.08210133016109467,0.012279164977371693],[0.12156263738870621,-0.5722904801368713,-0.24931076169013977],[-0.12546172738075256,-0.050538867712020874,0.17211218178272247]],[[0.004486794117838144,-0.3389401137828827,0.0739666298031807],[0.2682918608188629,-0.04566793888807297,0.041610054671764374],[-0.17252328991889954,0.08797293156385422,0.01960967294871807]],[[-0.06426162272691727,0.050278473645448685,0.000727204023860395],[0.0020510866306722164,0.6657528877258301,0.08243441581726074],[0.06759492307901382,0.10428199917078018,-0.15648841857910156]],[[-0.008321554400026798,-0.139939546585083,0.02012607827782631],[0.04089309647679329,0.21350543200969696,-0.22698180377483368],[0.12073390185832977,-0.2655385136604309,-0.12170270830392838]]],[[[-0.008329453878104687,-0.034945666790008545,-0.03213740512728691],[0.059950172901153564,0.1764058619737625,-0.0031772649381309748],[-0.1666550189256668,-0.027094917371869087,0.06929998844861984]],[[0.026965973898768425,-0.0935160219669342,-0.08001057058572769],[0.012060096487402916,-0.2177404910326004,0.10149111598730087],[0.056689005345106125,-0.3984280824661255,0.11742177605628967]],[[0.023871207609772682,0.08631101250648499,-0.021244432777166367],[-0.027158105745911598,-0.11268626153469086,-0.06976394355297089],[-0.11494000256061554,0.11017769575119019,-0.006420923396945]],[[-0.07581774890422821,-0.004969808738678694,0.019235121086239815],[0.0059701381251215935,0.08853405714035034,-0.08702433854341507],[0.0361778624355793,0.2211364358663559,0.08744334429502487]],[[0.037339434027671814,-0.013589084148406982,-0.0491638146340847],[0.11338716745376587,0.7345787286758423,0.07775561511516571],[0.03421832248568535,-0.20144811272621155,-0.09198282659053802]],[[-0.06390326470136642,0.3508334159851074,0.019313301891088486],[-0.14686034619808197,0.21328555047512054,-0.11175847798585892],[0.09591750800609589,-0.3290383219718933,-0.10406184196472168]],[[-0.009758415631949902,-0.025418126955628395,0.01108385156840086],[-0.10972931236028671,-0.44739454984664917,-0.03476899489760399],[-0.09148389101028442,-0.37969771027565,0.07118886709213257]],[[-0.054342154413461685,-0.04371444508433342,0.06512249261140823],[-0.0033398193772882223,-0.008472929708659649,0.06281503289937973],[-0.05597183108329773,0.31787896156311035,0.0865766704082489]]],[[[0.2818874418735504,-0.052368927747011185,0.08511600643396378],[-0.0602806881070137,0.17585763335227966,-0.17462468147277832],[0.013228680938482285,0.2626224160194397,-0.02267274633049965]],[[0.01904274709522724,0.032048311084508896,0.07033775746822357],[-0.02258651703596115,-0.12779441475868225,0.17387309670448303],[0.020940741524100304,-0.11056026071310043,0.21560819447040558]],[[0.0734710618853569,0.15147650241851807,0.026528343558311462],[-0.07141642272472382,-0.3477466404438019,0.025623787194490433],[0.026893500238656998,-0.026263432577252388,0.1583835780620575]],[[-0.01929275505244732,-0.018307983875274658,0.009617245756089687],[-0.09609062224626541,0.007466753013432026,-0.04097829386591911],[-0.027528228238224983,0.10144484043121338,-0.07777808606624603]],[[-0.04171277582645416,-0.0853646770119667,0.07457203418016434],[0.045363232493400574,0.19589483737945557,0.026870111003518105],[0.039581988006830215,0.07359570264816284,-0.10882145911455154]],[[-0.14105075597763062,-0.19734926521778107,-0.023180756717920303],[-0.016086678951978683,0.08125429600477219,0.0065749953500926495],[0.049186334013938904,-0.022767623886466026,-0.0014156248653307557]],[[0.01087181456387043,-0.062276214361190796,-0.05383386090397835],[0.21212106943130493,0.09859079867601395,0.15966136753559113],[0.10958978533744812,0.18878500163555145,0.12235435843467712]],[[0.11802111566066742,0.1721530705690384,-0.1765330731868744],[-0.17880520224571228,0.20193329453468323,0.13764993846416473],[-0.07051379978656769,0.059343911707401276,-0.13449415564537048]]],[[[0.39833909273147583,-0.04017997533082962,-0.23431259393692017],[-0.2188170850276947,0.2521514594554901,-0.01769898645579815],[-0.02650131657719612,-0.21664924919605255,0.06797140836715698]],[[0.016749940812587738,0.13985708355903625,0.10662703961133957],[0.23788733780384064,0.4101199507713318,0.09842080622911453],[0.24436599016189575,-0.01007840596139431,0.053267598152160645]],[[-0.00031791944638825953,-0.20156323909759521,-0.0202720258384943],[0.06667345762252808,-0.14586837589740753,-0.07140813767910004],[0.2532879114151001,0.07198357582092285,0.006674439646303654]],[[-0.1795158088207245,-0.2723402976989746,-0.24494461715221405],[-0.3698078691959381,-0.4017171561717987,-0.16973288357257843],[-0.3618128299713135,-0.16402077674865723,-0.15535882115364075]],[[-0.021989263594150543,0.22955773770809174,0.0021297549828886986],[-0.42128312587738037,0.11642777174711227,0.10297855734825134],[-0.14735397696495056,-0.16633187234401703,-0.0008374429889954627]],[[0.2074405550956726,-0.0758000984787941,0.1873456835746765],[-0.027603087946772575,-0.20023010671138763,0.1526699960231781],[0.047083523124456406,0.027088232338428497,-0.1416144073009491]],[[-0.027813268825411797,-0.06458470225334167,-0.061527516692876816],[-0.12471535801887512,0.037848204374313354,-0.09704314917325974],[0.09988582879304886,0.10081219673156738,0.07125391066074371]],[[-0.03948581963777542,-0.14206762611865997,-0.0565960556268692],[-0.0020310929976403713,-0.38811221718788147,0.11027240008115768],[0.11833719909191132,0.3402571976184845,0.06698926538228989]]],[[[0.054267317056655884,0.031170684844255447,0.019954895600676537],[0.35643500089645386,0.45678672194480896,0.013642165809869766],[-0.1520659625530243,0.0401887446641922,-0.03561806678771973]],[[0.09593372792005539,0.03164270520210266,-0.20862476527690887],[-0.03152373805642128,-0.06624361127614975,0.008840099908411503],[0.005330306477844715,-0.03997133672237396,0.23614554107189178]],[[-0.04555954411625862,-0.061525601893663406,-0.022005673497915268],[0.08733499050140381,-0.21046119928359985,-0.051547881215810776],[0.025582650676369667,0.03860689699649811,-0.20004983246326447]],[[-0.053552694618701935,0.09314972907304764,0.046528544276952744],[0.003973404876887798,-0.12102527916431427,0.05332140997052193],[-0.059884972870349884,0.09047453105449677,-0.00318624684587121]],[[0.05529765412211418,0.09145113080739975,-0.027382494881749153],[-0.0822608694434166,0.36239129304885864,0.013555561192333698],[-0.04075873643159866,0.05321823060512543,0.15518315136432648]],[[-0.016533976420760155,-0.12123049795627594,-0.021822115406394005],[0.013917991891503334,-0.25286591053009033,0.17025139927864075],[0.012151984497904778,0.14196740090847015,0.04610636830329895]],[[-0.0648283138871193,-0.013968907296657562,0.045757461339235306],[0.1227104589343071,0.3015233874320984,0.0735490620136261],[0.09848901629447937,-0.10744243860244751,-0.13281214237213135]],[[-0.042781900614500046,-0.12233669310808182,-0.058710213750600815],[0.2708122432231903,0.17772124707698822,0.0472320057451725],[-0.12716728448867798,0.20066137611865997,-0.19004476070404053]]],[[[-0.13460925221443176,0.15110468864440918,-0.07205678522586823],[0.30865678191185,0.2759503126144409,0.02184552513062954],[-0.26876014471054077,0.16676564514636993,-0.1101595088839531]],[[0.04933397099375725,0.07501737773418427,-0.09860928356647491],[-0.06199333444237709,0.1310207098722458,-0.06426523625850677],[-0.11930372565984726,0.1670878678560257,0.0014839894138276577]],[[0.0732525885105133,0.013201048597693443,-0.03638520464301109],[0.030782192945480347,-0.0467313677072525,0.12808166444301605],[0.16672711074352264,0.17729701101779938,0.009486141614615917]],[[0.03786103054881096,-0.06629464775323868,-0.00639732601121068],[-0.018217584118247032,-0.227447047829628,0.06972145289182663],[0.044084496796131134,-0.17406651377677917,-0.003640832146629691]],[[-0.031248608604073524,0.12124518305063248,0.0550532229244709],[-0.04763168841600418,0.1710694581270218,-0.0814032256603241],[-0.1663641333580017,-0.023509366437792778,-0.00882808305323124]],[[0.17867979407310486,-0.11177529394626617,0.006083651911467314],[0.08709703385829926,0.19409263134002686,0.1022261306643486],[0.05824979022145271,0.0844573900103569,0.10214618593454361]],[[-0.06453204154968262,0.0033764373511075974,-0.009489498101174831],[0.005088647361844778,0.07006873935461044,-0.02677941508591175],[0.04238167405128479,0.34738022089004517,0.0341937430202961]],[[-0.015020991675555706,0.03796985745429993,0.009167488664388657],[0.27780839800834656,-0.2689107060432434,-0.025425948202610016],[-0.20028772950172424,-0.01306253019720316,0.17565467953681946]]],[[[-0.04445863515138626,0.003872040193527937,-0.10319900512695312],[-0.06986019760370255,-0.15511585772037506,0.23871445655822754],[0.24443604052066803,-0.037732530385255814,-0.09799107164144516]],[[-0.06742380559444427,-0.24709247052669525,-0.17588509619235992],[-0.004732856526970863,-0.10285403579473495,0.2308199107646942],[-0.044705942273139954,-0.055777743458747864,0.3276098072528839]],[[0.029761945828795433,-0.17381855845451355,-0.18574771285057068],[-0.05171533674001694,0.592176079750061,0.07449226826429367],[0.1022072359919548,-0.03199014440178871,0.07555770128965378]],[[-0.03294571116566658,0.15342694520950317,0.05362124368548393],[0.12703992426395416,0.14863575994968414,0.22881998121738434],[-0.013940403237938881,-0.08385919779539108,-0.10698901861906052]],[[-0.034608252346515656,0.007068062666803598,0.06304731220006943],[0.18067871034145355,-0.36816126108169556,-0.21670469641685486],[0.03218875825405121,0.1359003484249115,-0.06029140576720238]],[[0.17254431545734406,0.07297303527593613,-0.43230733275413513],[0.05929601565003395,0.21714702248573303,-0.24748435616493225],[-0.06616384536027908,-0.058175984770059586,-0.09343193471431732]],[[-0.008259925991296768,0.07414096593856812,0.24852041900157928],[-0.044716499745845795,-0.12345711886882782,0.11215110123157501],[-0.0421503409743309,-0.2635612487792969,-0.07553328573703766]],[[-0.18811091780662537,0.08385350555181503,-0.025284327566623688],[0.13283292949199677,-0.34254685044288635,-0.3719843327999115],[0.18269038200378418,0.37111696600914,0.1864035427570343]]]],"biases":[0.20434041321277618,0.04012921079993248,-0.10009806603193283,0.128950297832489,-0.012805678881704807,-0.06180530786514282,0.04638306796550751,0.020191287621855736]},"conv4":{"weights":[[[[-0.06596299260854721,0.2012065052986145,0.013269242830574512],[0.21708744764328003,0.05206455662846565,0.07987812906503677],[-0.0000022010665361449355,0.22122953832149506,0.09140700846910477]],[[-0.02043404057621956,0.004527486395090818,-0.007805751636624336],[0.015141235664486885,-0.12765341997146606,-0.018264565616846085],[0.09042047709226608,0.061429329216480255,0.05354170501232147]],[[-0.167526513338089,0.003077848581597209,-0.1267572045326233],[-0.1052430048584938,0.08006156980991364,-0.061917372047901154],[0.02725435048341751,-0.010087262839078903,0.0509537048637867]],[[-0.2550583779811859,-0.002417780924588442,-0.07162407785654068],[-0.17207680642604828,0.03934386745095253,-0.03575626760721207],[-0.12407124787569046,0.22053226828575134,-0.010099664330482483]],[[-0.014182688668370247,0.22170212864875793,0.05483879894018173],[0.03294104337692261,0.08490532636642456,-0.007672382052987814],[0.07058565318584442,0.16579559445381165,-0.06801717728376389]],[[0.023206191137433052,0.1778925508260727,-0.007793961092829704],[-0.15527795255184174,-0.009580163285136223,0.13165976107120514],[-0.09379159659147263,0.10012106597423553,0.027073469012975693]],[[0.06525268405675888,0.39063337445259094,0.10475287586450577],[0.12879014015197754,-0.12121335417032242,0.06912990659475327],[0.08440031856298447,-0.1520197093486786,-0.0258056428283453]],[[-0.08369285613298416,0.04948717728257179,-0.06902218610048294],[-0.051901161670684814,0.06217990815639496,0.009351260960102081],[0.021625187247991562,0.03786153346300125,-0.004459082148969173]]],[[[0.06791456788778305,0.07673337310552597,0.0662585198879242],[-0.0660460889339447,-0.05833233892917633,-0.11480981856584549],[-0.16493676602840424,-0.14448370039463043,0.05360528454184532]],[[-0.05607965588569641,0.17907391488552094,-0.04133821278810501],[0.18327952921390533,0.28075915575027466,-0.12773607671260834],[-0.22232691943645477,-0.2479383796453476,-0.038344498723745346]],[[0.07869503647089005,-0.3279038369655609,0.2081962674856186],[-0.2982558012008667,-0.19187690317630768,0.060151636600494385],[0.0013544100802391768,0.33155354857444763,-0.0753246620297432]],[[-0.03876109421253204,-0.06869440525770187,0.020372672006487846],[-0.12199117243289948,-0.16251322627067566,-0.000015371388144558296],[-0.20640665292739868,-0.02441421151161194,-0.13796687126159668]],[[0.08512166142463684,0.04203792288899422,0.020622357726097107],[-0.06598728150129318,0.01893378049135208,0.02856750786304474],[-0.09797214716672897,-0.049717579036951065,-0.019544465467333794]],[[-0.06506939232349396,-0.08742761611938477,-0.09107331931591034],[0.17253997921943665,0.06964755058288574,-0.11181552708148956],[0.05773358419537544,0.24076248705387115,0.15020476281642914]],[[0.14585834741592407,0.1737796813249588,0.32782554626464844],[-0.16578498482704163,0.004967051092535257,-0.09218668937683105],[0.03508017957210541,-0.1026538535952568,0.05430692806839943]],[[0.14841672778129578,0.06660719960927963,-0.006667281500995159],[0.03659559786319733,0.597437858581543,0.2822897732257843],[-0.031849298626184464,-0.22610005736351013,-0.016437293961644173]]],[[[0.04077695310115814,-0.044969405978918076,0.03542069345712662],[-0.1734587848186493,0.2277984470129013,-0.057611383497714996],[-0.04641898348927498,0.11649895459413528,0.1039186641573906]],[[-0.10654330998659134,0.20570041239261627,-0.05957263708114624],[-0.027339018881320953,0.26809781789779663,-0.175496444106102],[-0.3217333257198334,0.32687029242515564,0.011776030994951725]],[[-0.11827147752046585,0.6843070387840271,0.10326256603002548],[-0.36475670337677,0.12568806111812592,-0.1627017855644226],[0.08142393082380295,0.11688651144504547,-0.13142506778240204]],[[0.1253216564655304,0.2812332510948181,-0.04070267081260681],[0.15282033383846283,-0.1413278877735138,-0.1365046203136444],[-0.24505768716335297,0.292815625667572,0.15300048887729645]],[[0.06972642242908478,-0.15806934237480164,-0.11446410417556763],[0.09165642410516739,0.4336071014404297,0.3360835611820221],[-0.09296223521232605,0.24202656745910645,-0.17764702439308167]],[[-0.054116617888212204,-0.2303808182477951,-0.043339502066373825],[-0.1868443340063095,-0.24295254051685333,0.0692690759897232],[0.1223313957452774,0.022983664646744728,0.026065083220601082]],[[0.036807917058467865,-0.1977977454662323,0.16879285871982574],[0.13869264721870422,-0.0021017210092395544,-0.16493448615074158],[-0.05076175555586815,-0.1790837198495865,-0.1373346745967865]],[[0.11198657006025314,0.14213989675045013,-0.06254862248897552],[0.0056995246559381485,0.328336626291275,-0.0003766945446841419],[-0.2602182626724243,0.6489320993423462,0.29923850297927856]]],[[[0.0028451145626604557,0.058314982801675797,0.032755788415670395],[-0.10939148813486099,0.2480728179216385,-0.05819724500179291],[-0.1286003291606903,0.3764464259147644,0.06005939468741417]],[[-0.044325511902570724,-0.008500411175191402,0.030121387913823128],[0.035835281014442444,0.13924476504325867,0.02982182241976261],[0.04158507287502289,-0.1138300821185112,-0.006783997640013695]],[[-0.031108887866139412,0.026437902823090553,0.18338334560394287],[-0.10994356125593185,0.04673203080892563,-0.13758957386016846],[-0.10971059650182724,0.005149872973561287,-0.11323469132184982]],[[0.092476986348629,-0.10398473590612411,-0.03708995133638382],[0.07834763079881668,-0.22627681493759155,-0.15899495780467987],[0.179490864276886,0.1132776066660881,-0.2934723198413849]],[[-0.015384490601718426,-0.0688876137137413,-0.10175779461860657],[0.08691556751728058,0.09854735434055328,0.23913809657096863],[0.09426318854093552,0.06587561219930649,0.04960167035460472]],[[-0.009879288263618946,-0.015641655772924423,-0.0276241023093462],[-0.02940605953335762,-0.06525500118732452,-0.07610313594341278],[0.021544577553868294,0.029569219797849655,0.08123897761106491]],[[0.11843033134937286,0.053335435688495636,0.2239285111427307],[0.18612375855445862,-0.031791649758815765,0.12222492694854736],[0.05992673337459564,0.13868820667266846,-0.013858736492693424]],[[0.01980731450021267,0.018846509978175163,0.03647570684552193],[-0.09445178508758545,0.14603926241397858,-0.14313974976539612],[0.07190342992544174,0.033047713339328766,0.029759438708424568]]],[[[0.08811286091804504,-0.014000541530549526,-0.03200773522257805],[0.18849928677082062,-0.04158719256520271,0.21233783662319183],[-0.10238248109817505,-0.3079914450645447,-0.08197282999753952]],[[0.05303080379962921,0.006871318444609642,-0.05928214266896248],[-0.017942311242222786,0.1748540997505188,-0.011158089153468609],[0.01670556515455246,-0.2795184254646301,-0.06237882748246193]],[[-0.10753775388002396,0.14249072968959808,-0.1840335577726364],[-0.10165312886238098,0.24994002282619476,-0.19649460911750793],[-0.12744294106960297,0.035551078617572784,-0.18360471725463867]],[[-0.24678097665309906,0.3613901436328888,0.06443647295236588],[0.015167657285928726,-0.1617574840784073,-0.3013564646244049],[0.007659615948796272,-0.1515980213880539,-0.06068793311715126]],[[0.09262686222791672,0.19164606928825378,0.3791603446006775],[0.1268405020236969,-0.11432672291994095,0.1962808072566986],[0.09019627422094345,-0.022349676117300987,-0.2441825121641159]],[[-0.1422332376241684,-0.06921431422233582,-0.12840746343135834],[-0.03268123045563698,0.08678954839706421,0.13827566802501678],[0.1017501950263977,-0.044055577367544174,0.14318440854549408]],[[0.18169929087162018,0.3586766719818115,0.21346744894981384],[-0.050891030579805374,0.10214050859212875,0.1647026240825653],[-0.020534807816147804,0.3398616313934326,-0.04947720840573311]],[[0.04052179306745529,0.10057470947504044,-0.0739240050315857],[0.11063957959413528,0.21006111800670624,0.04490251466631889],[0.08615951985120773,0.13704828917980194,-0.05664873868227005]]],[[[-0.09285352379083633,-0.005991837475448847,0.1129859909415245],[0.006529791280627251,0.1875344067811966,-0.16363076865673065],[-0.020061949267983437,0.12734892964363098,-0.13765545189380646]],[[-0.0971691757440567,0.05657143145799637,-0.016389666125178337],[0.012774110771715641,0.5335180163383484,0.17572012543678284],[0.1501443237066269,0.1618393361568451,0.16020265221595764]],[[0.12732096016407013,0.2874886095523834,0.05935974791646004],[0.07170728594064713,-0.4007127285003662,-0.00345216179266572],[-0.06111690774559975,-0.19379492104053497,0.20823322236537933]],[[-0.013296135701239109,-0.03040939010679722,-0.13274212181568146],[-0.12264971435070038,-0.2588338553905487,-0.10277649760246277],[0.041833508759737015,0.11002840101718903,-0.07703360170125961]],[[-0.3020758330821991,-0.31582579016685486,-0.6232835054397583],[-0.3553132116794586,0.41695016622543335,-0.44713112711906433],[-0.32007959485054016,-0.4431242048740387,-0.29025498032569885]],[[0.08450658619403839,-0.11449136584997177,0.1649245321750641],[0.1615760177373886,-0.1413828432559967,0.08670701086521149],[-0.18886743485927582,0.19294828176498413,0.1280314326286316]],[[0.11939869821071625,-0.08130157738924026,-0.003117927350103855],[0.036714743822813034,0.21804960072040558,-0.21697290241718292],[0.08472144603729248,-0.12184597551822662,-0.02607894316315651]],[[0.01947803609073162,0.04815290868282318,-0.07317526638507843],[-0.3562987446784973,0.018219590187072754,-0.21255724132061005],[0.07709045708179474,0.0389590822160244,0.10971300303936005]]],[[[0.17561054229736328,0.018000559881329536,-0.10393083840608597],[0.3538800776004791,-0.6516873240470886,0.2596394717693329],[0.10716433078050613,-0.11707758903503418,0.005860853008925915]],[[0.024371303617954254,-0.03217877820134163,-0.15905845165252686],[0.3412402272224426,0.1470496952533722,-0.18203607201576233],[0.12469355016946793,0.049428410828113556,-0.07589884102344513]],[[-0.1817220002412796,0.026823721826076508,-0.18861663341522217],[-0.7413210868835449,0.3162182569503784,-0.3071025311946869],[0.02442016825079918,0.12200786918401718,-0.1739848107099533]],[[-0.15787875652313232,-0.17706690728664398,0.07332726567983627],[-0.5084643363952637,0.4006783366203308,-0.06369641423225403],[0.09594249725341797,-0.06955017894506454,0.011848620139062405]],[[0.05958906188607216,-0.044573716819286346,0.22988371551036835],[0.15271735191345215,-0.1060711145401001,0.0023734327405691147],[-0.1443033516407013,0.12977656722068787,-0.12130413949489594]],[[-0.11687693744897842,0.31520724296569824,-0.007058822549879551],[-0.4320211708545685,0.2521823048591614,0.3208819329738617],[-0.05812830105423927,0.12865960597991943,0.03101985715329647]],[[0.22503046691417694,-0.16467440128326416,-0.047681279480457306],[0.21756967902183533,-0.28286460041999817,0.14467373490333557],[0.10937058180570602,-0.14170032739639282,-0.05695055425167084]],[[-0.05096607655286789,-0.065447136759758,0.0765090137720108],[-0.1054418757557869,-0.04919983074069023,-0.08630600571632385],[0.24097612500190735,0.02221864089369774,-0.12536486983299255]]],[[[-0.07845532894134521,0.03061661496758461,0.025778817012906075],[-0.029689298942685127,0.09022841602563858,-0.010906062088906765],[-0.07182104140520096,-0.1198115348815918,0.14414171874523163]],[[-0.22449029982089996,-0.09785041213035583,-0.10937367379665375],[-0.2794339656829834,0.28439196944236755,-0.07034525275230408],[-0.09152907133102417,0.04481002315878868,0.0036976926494389772]],[[-0.15988054871559143,-0.14756976068019867,-0.0023367642425000668],[0.34389036893844604,0.13253575563430786,-0.26663556694984436],[0.10917329043149948,0.02553364634513855,-0.10807032138109207]],[[0.07996596395969391,-0.13502000272274017,-0.029422719031572342],[0.22078189253807068,0.26155969500541687,0.037300121039152145],[-0.2527795433998108,0.16601721942424774,0.01659737341105938]],[[0.18300172686576843,0.4425162672996521,0.038040418177843094],[0.15197448432445526,0.20513495802879333,0.3397376537322998],[0.10294481366872787,0.15991172194480896,0.16072939336299896]],[[0.09746082127094269,0.04695034399628639,-0.0041338177397847176],[-0.015974199399352074,-0.28971195220947266,-0.04164430499076843],[-0.0011499695247039199,-0.123051717877388,0.1204063817858696]],[[0.08283592015504837,-0.29252612590789795,0.14926539361476898],[-0.00018873931549023837,0.12278386205434799,-0.07291970402002335],[0.07233395427465439,-0.11053115129470825,0.016427351161837578]],[[-0.16559651494026184,0.1387316733598709,0.03222357854247093],[-0.02240331657230854,0.3275388181209564,-0.09697845578193665],[-0.07445520162582397,0.2871394753456116,0.1106378510594368]]]],"biases":[-0.002652272116392851,0.14277619123458862,0.017769379541277885,0.11862582713365555,0.11950699985027313,0.07002700120210648,-0.062241192907094955,-0.05676387622952461]},"conv5":{"weights":[[[[-0.12282421439886093,0.09052617102861404,-0.01802896335721016],[-0.010814286768436432,0.23645538091659546,-0.08752655982971191],[-0.18128828704357147,0.027381300926208496,-0.020988663658499718]],[[0.12791775166988373,-0.0419401153922081,0.048899710178375244],[0.049761876463890076,-0.23850396275520325,0.1589663326740265],[0.022596074268221855,-0.015104355290532112,0.022658510133624077]],[[-0.232753187417984,0.1470615118741989,-0.14865365624427795],[-0.3860763609409332,0.2570227384567261,-0.20089760422706604],[0.07950703799724579,0.012190074659883976,0.015125244855880737]],[[-0.01883861795067787,-0.07388312369585037,0.0744515135884285],[0.05262228846549988,0.03324394300580025,-0.08820820599794388],[-0.03427340090274811,0.11267522722482681,0.029449211433529854]],[[-0.02920769713819027,-0.056647080928087234,0.07623178511857986],[-0.026650432497262955,0.03207903727889061,0.018932901322841644],[0.11044789850711823,-0.15213021636009216,0.01542867161333561]],[[-0.010930927470326424,-0.08222420513629913,0.26830771565437317],[-0.07111953943967819,0.0835767462849617,0.09586453437805176],[-0.009585969150066376,-0.09920649975538254,-0.03461792692542076]],[[0.08189529925584793,0.2709631323814392,-0.2089838832616806],[-0.09374208748340607,0.6690590381622314,-0.972265362739563],[0.11993798613548279,0.1651185005903244,-0.19794131815433502]],[[-0.1254994124174118,0.03698236867785454,-0.14997528493404388],[-0.06877496838569641,-0.6506263017654419,0.1637130081653595],[-0.04764433950185776,-0.06233531981706619,0.07480084151029587]]],[[[0.05961259454488754,-0.08924900740385056,-0.05214874818921089],[0.17609640955924988,-0.37932997941970825,0.06663963943719864],[0.035764727741479874,-0.18303683400154114,0.08359541743993759]],[[-0.2682458758354187,0.07447105646133423,0.12090808153152466],[-0.42395052313804626,-0.18147012591362,0.044837936758995056],[-0.14365798234939575,-0.0545584075152874,0.005124530754983425]],[[-0.09171893447637558,0.07991286367177963,-0.06465591490268707],[-0.2001546174287796,0.08571577817201614,0.11485963314771652],[0.11376883089542389,-0.16066986322402954,0.03888262063264847]],[[-0.06804043054580688,-0.11087892949581146,0.21206030249595642],[-0.07251551002264023,0.13469722867012024,0.14549215137958527],[-0.12564921379089355,0.11169072985649109,-0.042287055402994156]],[[0.06232500076293945,-0.0010593044571578503,-0.1461699903011322],[0.08898619562387466,0.14542976021766663,-0.11170008778572083],[0.42674705386161804,-0.38198697566986084,0.03731553629040718]],[[0.2961646318435669,-0.08156741410493851,0.05406458303332329],[-0.02878100611269474,0.32040533423423767,-0.3249594271183014],[0.20289717614650726,0.08291640132665634,0.07671348750591278]],[[-0.15602155029773712,0.09988878667354584,0.20904414355754852],[-0.45633524656295776,0.28584620356559753,0.4122649133205414],[0.02436520904302597,0.2133847326040268,-0.13540591299533844]],[[-0.07255733758211136,-0.17474956810474396,-0.10216981917619705],[-0.1870650351047516,0.10343555361032486,-0.28992217779159546],[-0.007547406945377588,-0.2941288948059082,-0.0381501130759716]]],[[[0.12065339088439941,0.14140304923057556,0.05198044329881668],[-0.05150648579001427,0.3099282383918762,0.21248768270015717],[0.0957646518945694,-0.012201736681163311,-0.0408492349088192]],[[0.07922748476266861,0.23438404500484467,-0.02747250534594059],[-0.04721168056130409,-0.23440857231616974,0.01562969572842121],[-0.12806148827075958,-0.02118181809782982,-0.04414048790931702]],[[-0.005689422134310007,-0.05640610679984093,-0.008590275421738625],[0.025521162897348404,0.10086620599031448,0.014941750094294548],[-0.007982376962900162,-0.03208199143409729,-0.0019558051135390997]],[[-0.03301289305090904,-0.13997888565063477,-0.09240728616714478],[0.41149967908859253,0.19938769936561584,0.07733618468046188],[0.019963886588811874,-0.06698419898748398,0.006289174314588308]],[[-0.023893656209111214,-0.14932778477668762,0.019880706444382668],[0.05897311866283417,-0.03546076640486717,-0.008268848061561584],[-0.07506279647350311,0.01295662485063076,-0.028752705082297325]],[[-0.06036669760942459,-0.11324698477983475,0.07298453152179718],[0.02627522125840187,0.13732774555683136,-0.018023179844021797],[-0.012239418923854828,-0.004880836233496666,0.07142852246761322]],[[0.05243116617202759,-0.01129959523677826,-0.010506048798561096],[0.011921694502234459,0.05178271234035492,-0.09398800879716873],[0.003138116095215082,0.09525150805711746,-0.0617155097424984]],[[0.08243314921855927,0.08186608552932739,-0.034061357378959656],[0.031290192157030106,-0.2445741593837738,0.01899012178182602],[-0.06535127758979797,0.031828273087739944,0.037670522928237915]]],[[[-0.04880588874220848,-0.018028028309345245,-0.05750757455825806],[-0.15984302759170532,0.08090170472860336,0.1072598546743393],[-0.17919348180294037,0.12260809540748596,0.013841445557773113]],[[-0.051601167768239975,0.009168646298348904,-0.033976417034864426],[-0.18460701406002045,0.09389505535364151,-0.004524072166532278],[-0.015322661027312279,-0.05181438475847244,-0.03973592072725296]],[[-0.018872227519750595,-0.15505684912204742,0.006292912643402815],[-0.299927681684494,0.1372786909341812,-0.02100534923374653],[0.10236231237649918,-0.07140683382749557,-0.007398244924843311]],[[-0.26645079255104065,0.3817269206047058,-0.03913971409201622],[-0.3334145247936249,0.35569992661476135,-0.06940151005983353],[-0.0898323580622673,0.10953924059867859,-0.08111047744750977]],[[-0.037128061056137085,0.12130847573280334,-0.041210565716028214],[0.12896893918514252,-0.20951595902442932,0.15666000545024872],[0.20431067049503326,-0.24255794286727905,0.10817790776491165]],[[0.12619437277317047,0.18347634375095367,-0.07314205914735794],[-0.16761724650859833,-0.060559503734111786,0.16740654408931732],[0.14778214693069458,-0.3427191376686096,0.10240752249956131]],[[-0.029464583843946457,0.2613436281681061,-0.06981253623962402],[0.06270235776901245,0.7652389407157898,0.001463152701035142],[0.09900301694869995,0.2362971156835556,-0.09159775823354721]],[[0.03490199148654938,-0.3151804506778717,0.03160803020000458],[0.22775426506996155,-0.53440260887146,0.15965056419372559],[0.007020963821560144,-0.11271027475595474,0.02404961548745632]]],[[[-0.1062401682138443,-0.12322459369897842,-0.12708552181720734],[-0.021093344315886497,0.24075758457183838,0.34438300132751465],[-0.09572744369506836,0.045565150678157806,-0.10274111479520798]],[[-0.06016191467642784,-0.27293097972869873,-0.15843908488750458],[0.10484182089567184,0.07767219096422195,0.12262211740016937],[0.008489375934004784,-0.033723969012498856,-0.0006309354794211686]],[[-0.01966703310608864,0.0447479709982872,0.13096164166927338],[-0.10073795169591904,0.09741158783435822,-0.10249996930360794],[0.021191075444221497,0.0004394622228574008,0.01694769784808159]],[[0.15203909575939178,0.30218949913978577,-0.12206081300973892],[-0.07272939383983612,0.43072110414505005,0.04665761440992355],[0.04894227534532547,0.050640370696783066,-0.07522948831319809]],[[0.15637312829494476,0.17080044746398926,0.035856395959854126],[0.2853691279888153,-0.12280920147895813,0.10374049097299576],[0.008905872702598572,-0.10118049383163452,0.1423179656267166]],[[0.04606630280613899,0.25194570422172546,0.07054954022169113],[0.025611385703086853,0.0649852603673935,0.07761157304048538],[0.008225634694099426,0.07565530389547348,0.04247420281171799]],[[-0.0010935866739600897,-0.025292884558439255,-0.06140753626823425],[0.020251424983143806,0.004374710377305746,-0.030812567099928856],[-0.01688065379858017,0.048408444970846176,-0.0031326082535088062]],[[0.010946906171739101,-0.1788652390241623,0.05528489500284195],[-0.049489181488752365,-0.026909006759524345,-0.02807866409420967],[-0.009059835225343704,-0.1007261723279953,-0.019993633031845093]]],[[[0.2171439528465271,-0.05361539125442505,-0.04930730164051056],[-0.02905203215777874,0.0376928485929966,0.3130151033401489],[-0.09448535740375519,-0.06143425405025482,-0.2412487417459488]],[[0.028823330998420715,-0.09472212195396423,0.018691549077630043],[0.02490471862256527,0.6885713338851929,0.22930502891540527],[0.05744624137878418,-0.1938108205795288,0.15392909944057465]],[[-0.03713065758347511,0.08463619649410248,-0.14640285074710846],[-0.0977398231625557,-0.29952123761177063,-0.07677245885133743],[0.10146011412143707,0.2927035391330719,0.12126430869102478]],[[0.07278085500001907,0.11737924814224243,0.0486634336411953],[0.04615942761301994,-0.1301584094762802,-0.22976550459861755],[-0.07845519483089447,-0.04252079501748085,0.12025732547044754]],[[-0.07272118330001831,-0.13564465939998627,-0.03404737263917923],[-0.2549664378166199,-0.27082690596580505,-0.07461436837911606],[0.32193461060523987,0.48020103573799133,0.023805905133485794]],[[-0.06595028191804886,-0.046100616455078125,0.25458237528800964],[0.09778597205877304,-0.16609534621238708,-0.1829477995634079],[0.09616909921169281,0.22194041311740875,0.03754092752933502]],[[0.024453556165099144,-0.015801357105374336,-0.1504146307706833],[-0.059022679924964905,-0.10098070651292801,0.09564662724733353],[-0.0008595881517976522,-0.09767290204763412,-0.04813005030155182]],[[0.010933075100183487,-0.01906788907945156,-0.02947722002863884],[0.05082808807492256,0.12210819125175476,0.34861522912979126],[-0.06459090858697891,-0.27236881852149963,-0.45753511786460876]]],[[[-0.14908599853515625,-0.13299202919006348,0.2971941828727722],[-0.10847953706979752,0.19776473939418793,0.18826335668563843],[-0.04517027363181114,-0.02212204970419407,-0.05664529651403427]],[[0.022403374314308167,-0.10627561062574387,0.19274497032165527],[-0.41299188137054443,0.22988133132457733,0.012659462168812752],[0.0961906835436821,-0.10422758013010025,0.038307711482048035]],[[-0.10320622473955154,-0.04223427549004555,-0.14541038870811462],[0.10997850447893143,-0.2631072998046875,0.02650776505470276],[0.029294738546013832,0.2043818086385727,-0.02544309012591839]],[[-0.2112276554107666,0.2221091091632843,-0.044060081243515015],[-0.19337300956249237,-0.06853458285331726,0.150146484375],[0.030525879934430122,-0.183367520570755,0.09918994456529617]],[[0.15898673236370087,-0.09924827516078949,-0.08897291868925095],[0.26694390177726746,-0.09427124261856079,-0.11467047035694122],[-0.1744341403245926,0.39064282178878784,-0.19372883439064026]],[[0.055410467088222504,-0.35616210103034973,0.08402884751558304],[-0.6007084846496582,-0.050352685153484344,-0.19866009056568146],[-0.24251283705234528,-0.12103132903575897,-0.32667937874794006]],[[-0.03430653735995293,0.07343698292970657,0.09886545687913895],[0.017955441027879715,0.7391142249107361,0.05786622688174248],[0.005248279310762882,-0.03215285763144493,0.1911478191614151]],[[0.15284498035907745,-0.1846994012594223,0.054847970604896545],[-0.005394253879785538,0.1036478653550148,-0.19397027790546417],[0.07152348756790161,-0.05320604518055916,-0.004949301481246948]]],[[[0.19069790840148926,-0.09826396405696869,0.08872014284133911],[-0.08521950989961624,0.027858732268214226,0.2399686872959137],[0.08128948509693146,0.09474886208772659,0.16340477764606476]],[[0.11755362898111343,0.17240791022777557,-0.1609930694103241],[0.10846186429262161,0.04547741636633873,-0.17904411256313324],[-0.08779872208833694,-0.08023199439048767,-0.023072246462106705]],[[-0.02437904290854931,-0.12496308982372284,0.07608228921890259],[-0.09860116988420486,0.05321121960878372,0.02500438690185547],[0.06350169330835342,-0.008292661048471928,-0.007626745849847794]],[[0.10924920439720154,-0.18482491374015808,-0.12063989043235779],[0.15191850066184998,-0.00216354476287961,-0.1360468715429306],[-0.1276245415210724,-0.031571727246046066,-0.025435589253902435]],[[0.04698602855205536,-0.06359171867370605,0.04696375131607056],[-0.056452445685863495,-0.007136941887438297,0.16480979323387146],[0.10986990481615067,0.1575915515422821,0.19232717156410217]],[[-0.08481455594301224,0.16861014068126678,0.06598873436450958],[0.12939149141311646,-0.37375909090042114,0.2336767613887787],[0.0739867314696312,0.053102727979421616,-0.01943245530128479]],[[0.004818773828446865,-0.031604278832674026,0.026589002460241318],[-0.054074130952358246,-0.02427786961197853,0.14355449378490448],[-0.041025057435035706,-0.12221965938806534,0.12771180272102356]],[[0.12369140237569809,-0.04072222486138344,0.0065795378759503365],[-0.10446607321500778,0.01937793754041195,-0.2646149694919586],[0.06570195406675339,-0.0524185374379158,0.005462002009153366]]]],"biases":[-0.06823863834142685,-0.04536651819944382,-0.06087478995323181,-0.05929500609636307,-0.07625190913677216,-0.006348676048219204,-0.060986123979091644,0.012936408631503582]},"conv6":{"weights":[[[[-0.012166044674813747,-0.182716965675354,0.12905099987983704],[-0.054705943912267685,-0.22581708431243896,0.025370271876454353],[-0.09542442858219147,-0.07985077053308487,0.31163495779037476]],[[-0.1479022353887558,-0.15995560586452484,0.09785959124565125],[0.04148845002055168,-0.08152581751346588,-0.13160473108291626],[-0.09415086358785629,-0.1106642559170723,0.12936529517173767]],[[-0.00045245804358273745,0.05396208539605141,0.052103061228990555],[0.07327011972665787,0.3690536618232727,0.21882565319538116],[0.028076432645320892,0.06494604796171188,-0.07220601290464401]],[[0.0019790034275501966,0.326114296913147,-0.022942371666431427],[0.018855717033147812,0.2584456503391266,0.2541537582874298],[0.17293184995651245,0.35979530215263367,0.04774128645658493]],[[-0.01765015721321106,-0.09050127863883972,0.10260090976953506],[-0.02252378687262535,0.025946656242012978,-0.22837664186954498],[-0.09251470863819122,0.035019051283597946,0.016748253256082535]],[[0.011048662476241589,0.3351476192474365,0.08742441236972809],[0.2966844439506531,-0.4386744797229767,0.17179808020591736],[-0.15514719486236572,-0.06805732101202011,-0.02119830995798111]],[[0.05084683373570442,0.08461904525756836,-0.1331816166639328],[0.08347418904304504,-0.27068740129470825,0.16592028737068176],[-0.11889954656362534,-0.04654209315776825,0.2337643951177597]],[[-0.06475827097892761,-0.008731872774660587,0.08489774167537689],[-0.020253945142030716,0.026212982833385468,-0.03564157336950302],[0.036141831427812576,0.06561833620071411,0.04348032921552658]]],[[[-0.11372186243534088,-0.08679527044296265,0.06167209520936012],[0.0865853801369667,0.0030493950471282005,0.2648828625679016],[-0.1944388747215271,0.09915364533662796,0.07963946461677551]],[[-0.16188684105873108,0.15537162125110626,-0.1735309511423111],[0.07481557130813599,0.00174484692979604,0.2660413682460785],[-0.09165984392166138,0.21737217903137207,0.03780106455087662]],[[0.006672442425042391,0.17943499982357025,0.14729195833206177],[0.12211912125349045,0.07678854465484619,0.13597092032432556],[0.03202449902892113,0.12625020742416382,0.3382027745246887]],[[0.058515552431344986,0.011846615932881832,-0.10417713969945908],[-0.01885312609374523,-0.051186442375183105,-0.27939319610595703],[0.21559616923332214,0.1047016978263855,-0.22145575284957886]],[[-0.10183078795671463,0.19127710163593292,-0.06167393550276756],[0.25430387258529663,0.09812585264444351,0.05553503334522247],[-0.2423306554555893,-0.11348732560873032,-0.09949524700641632]],[[-0.03268264979124069,-0.34893321990966797,0.04585085064172745],[0.4160977602005005,0.06303972750902176,-0.22922727465629578],[-0.20574544370174408,0.31491565704345703,-0.17874754965305328]],[[-0.026308700442314148,-0.13824915885925293,0.13672542572021484],[0.027689257636666298,0.06147870793938637,-0.11021750420331955],[-0.19704470038414001,-0.015273225493729115,0.08878228068351746]],[[0.006951099261641502,-0.13435938954353333,-0.08671628683805466],[-0.2139042615890503,0.2999446392059326,-0.08349756896495819],[-0.05337034910917282,-0.03709136322140694,0.1586497724056244]]],[[[-0.061934925615787506,0.03868045657873154,0.04210307449102402],[0.01476116944104433,0.37196069955825806,0.14825867116451263],[-0.07494036108255386,0.22788995504379272,-0.21655669808387756]],[[0.006769810803234577,0.07065092772245407,0.026199854910373688],[0.02489142119884491,0.2880972921848297,-0.0090482197701931],[-0.03209659829735756,0.20700567960739136,-0.1327618658542633]],[[0.036597661674022675,-0.22204141318798065,-0.04867753013968468],[-0.040405210107564926,0.017747968435287476,0.2719167470932007],[0.1139473021030426,-0.27637219429016113,0.13043749332427979]],[[0.03531316667795181,-0.09144220501184464,-0.0833834633231163],[0.1340191513299942,-0.21089893579483032,-0.41335442662239075],[0.12205316871404648,-0.3215845227241516,-0.09180101752281189]],[[0.08057282865047455,0.008153571747243404,-0.03557083010673523],[-0.02469698153436184,0.21174341440200806,0.135590597987175],[0.07411377131938934,0.31688565015792847,0.18048684298992157]],[[0.06783730536699295,0.10244616866111755,-0.03905511647462845],[-0.15586192905902863,-0.45259812474250793,-0.036008115857839584],[0.14199765026569366,-0.19466455280780792,0.08735233545303345]],[[-0.026374679058790207,-0.007659489754587412,-0.08027656376361847],[-0.12220515310764313,-0.0463460236787796,0.1154203861951828],[-0.08603699505329132,0.25898459553718567,-0.22507086396217346]],[[-0.04075287654995918,0.1585160195827484,0.08499455451965332],[0.0942029282450676,0.016589444130659103,-0.013014600612223148],[-0.06768032163381577,-0.24234476685523987,-0.052290573716163635]]],[[[-0.021675586700439453,0.1605193316936493,-0.06982802599668503],[0.06314513087272644,0.8585638403892517,-0.015206128358840942],[-0.036803051829338074,0.23887670040130615,0.445786714553833]],[[0.18272607028484344,-0.028045788407325745,0.01666048914194107],[0.14986321330070496,0.7664691805839539,-0.2449915111064911],[-0.058562517166137695,0.10519109666347504,0.26664218306541443]],[[0.10400600731372833,0.18084144592285156,0.1270822286605835],[-0.046615224331617355,-0.09209911525249481,0.18305040895938873],[0.05229010060429573,-0.28973618149757385,0.21741345524787903]],[[-0.01686740480363369,-0.3349597156047821,-0.15406417846679688],[0.1831706166267395,-0.6378238201141357,-0.4650130569934845],[0.1640595644712448,0.08974335342645645,-0.21267922222614288]],[[0.12701858580112457,0.011759676039218903,-0.027208805084228516],[-0.174804225564003,-0.2862623631954193,0.2503584325313568],[0.21403242647647858,0.4102917015552521,-0.1801365464925766]],[[0.2205246537923813,0.057650044560432434,0.12618862092494965],[-0.20689311623573303,-0.298399955034256,0.18504291772842407],[-0.15957796573638916,0.04512502998113632,-0.025287382304668427]],[[0.03918949142098427,-0.09192101657390594,0.018669137731194496],[-0.11747881025075912,0.054066091775894165,-0.07398147135972977],[-0.029542600736021996,0.09811503440141678,0.053842127323150635]],[[-0.00516239320859313,0.12907539308071136,0.013087132945656776],[0.19381776452064514,-0.10641990602016449,-0.10271156579256058],[0.04430403932929039,0.0243502389639616,0.22486421465873718]]],[[[0.17924848198890686,-0.15761907398700714,0.21354928612709045],[-0.0754622370004654,0.08532097190618515,-0.29553088545799255],[0.05007217451930046,-0.16379046440124512,-0.13723187148571014]],[[-0.03490833193063736,-0.3171291947364807,0.5041549801826477],[0.03754197061061859,-0.3079128563404083,0.402291476726532],[0.003277032868936658,-0.13339555263519287,0.07390127331018448]],[[-0.0769471824169159,0.05373707041144371,-0.2836029529571533],[0.0014000390656292439,0.08287058770656586,-0.1985807865858078],[-0.04552048072218895,0.12673383951187134,-0.044661737978458405]],[[-0.20985177159309387,0.21758997440338135,-0.06343045830726624],[0.016736386343836784,0.15519526600837708,-0.4126206636428833],[-0.08717216551303864,-0.03838319331407547,-0.12151908874511719]],[[0.15381549298763275,-0.21558259427547455,0.19088925421237946],[-0.025382045656442642,0.11423332989215851,-0.08139581233263016],[-0.027214400470256805,-0.054364051669836044,-0.017962230369448662]],[[-0.2602074146270752,0.13610121607780457,-0.5746544599533081],[0.05051152780652046,0.05176160857081413,-0.35445380210876465],[0.10237572342157364,-0.11372879147529602,-0.08570783585309982]],[[0.1040818840265274,-0.28409144282341003,0.36402222514152527],[0.04164561629295349,-0.2623966932296753,0.8029460906982422],[0.009137348271906376,-0.15769916772842407,0.22465954720973969]],[[0.043720487505197525,-0.08819814026355743,0.5003458857536316],[-0.042209431529045105,-0.16175642609596252,0.11915336549282074],[0.09881815314292908,-0.05525455251336098,0.029541924595832825]]],[[[-0.3707243502140045,-1.3783581256866455,0.4577043354511261],[0.4143839478492737,-0.7974968552589417,0.5040324926376343],[-0.08355484902858734,0.10604789853096008,0.038866668939590454]],[[-0.7504076361656189,-0.3209535479545593,-0.6576775908470154],[-0.03920871019363403,0.1420173943042755,-0.29005464911460876],[-0.07573285698890686,-0.12618619203567505,0.046016231179237366]],[[-0.7715430855751038,-0.38654834032058716,-0.2374597191810608],[0.20630237460136414,0.5376119613647461,0.3919089436531067],[-0.014277476817369461,0.0714556947350502,0.12328720092773438]],[[-0.13855977356433868,-0.16472122073173523,-0.0236100722104311],[-0.5870885252952576,0.30462583899497986,-0.30633896589279175],[0.12769180536270142,0.005719486624002457,0.10589864104986191]],[[-0.6950638294219971,-0.15105901658535004,-1.0336403846740723],[0.07197612524032593,0.5337530374526978,-0.034744828939437866],[-0.1583763211965561,-0.13546524941921234,-0.039829038083553314]],[[-2.216426372528076,-1.2272237539291382,-0.9238186478614807],[-0.03058633767068386,0.24360883235931396,-0.15512585639953613],[-0.19573841989040375,-0.2690945565700531,-0.13317157328128815]],[[-0.3060324192047119,-0.16830754280090332,-0.3709293603897095],[0.015183534473180771,-0.18331560492515564,-0.17290732264518738],[-0.04692010581493378,-0.10305281728506088,0.015032968483865261]],[[-1.7123980522155762,-0.3230537176132202,-0.5202621221542358],[-0.09827914834022522,-0.1381700336933136,-0.06402777880430222],[-0.006034792400896549,-0.1071879118680954,0.09939904510974884]]],[[[-0.029326407238841057,-0.0037433947436511517,-0.014118342660367489],[-0.028623251244425774,-0.19039975106716156,0.2254294604063034],[-0.18188469111919403,0.20710735023021698,0.15366530418395996]],[[-0.049245964735746384,-0.04252569377422333,-0.00285650254227221],[0.007711419370025396,0.01627933233976364,-0.009103141725063324],[-0.1386476308107376,0.22312647104263306,-0.015617060475051403]],[[0.0023371323477476835,-0.2778686583042145,-0.05968231335282326],[0.051134783774614334,0.38394081592559814,0.23872800171375275],[0.1100957989692688,-0.17812924087047577,0.14836527407169342]],[[-0.014518262818455696,0.02345634251832962,-0.05641760677099228],[0.0045648785308003426,0.22235648334026337,-0.13498686254024506],[0.25574785470962524,0.004967238288372755,-0.17881964147090912]],[[0.0081053227186203,-0.09789097309112549,0.035553887486457825],[0.036144599318504333,0.30166542530059814,0.036206942051649094],[-0.03941810131072998,0.2267978936433792,0.09032098203897476]],[[-0.0002837643551174551,0.07304813712835312,0.06405022740364075],[0.10339358448982239,-0.39337968826293945,0.01997445337474346],[-0.10156511515378952,-0.05860505253076553,0.02955462597310543]],[[-0.02143855392932892,0.12440705299377441,-0.13611163198947906],[0.07130695879459381,-0.329738050699234,0.13281121850013733],[-0.16765239834785461,0.1435149759054184,0.05436748266220093]],[[-0.09708192944526672,0.09229393303394318,0.07253995537757874],[-0.05036389082670212,-0.061178166419267654,-0.19354507327079773],[-0.07198509573936462,-0.08736018091440201,0.07187904417514801]]],[[[-0.0630100667476654,0.045440737158060074,0.08266355097293854],[-0.09708079695701599,0.21531741321086884,0.09757322818040848],[-0.009905441664159298,-0.1284470111131668,-0.05016057565808296]],[[0.011233941651880741,0.056855130940675735,-0.057033639401197433],[-0.06943023949861526,-0.008268263190984726,0.09092015027999878],[0.07101895660161972,0.1511787325143814,-0.1015370637178421]],[[0.08832301944494247,0.07778245210647583,0.09308237582445145],[0.08906640112400055,-0.11225147545337677,0.3446780741214752],[0.03174899145960808,-0.011008070781826973,0.01316844206303358]],[[0.06600300967693329,-0.015036980621516705,-0.09703709185123444],[0.054341524839401245,-0.10254789888858795,-0.07383356988430023],[-0.03342203050851822,0.020775841549038887,-0.15688031911849976]],[[0.01663818024098873,0.08801599591970444,0.017309030517935753],[-0.12588337063789368,0.18452832102775574,0.004699469078332186],[0.06865943968296051,0.1372770518064499,0.20681114494800568]],[[0.08611340820789337,0.19041649997234344,-0.013083902187645435],[0.06411712616682053,-0.5357220768928528,-0.01066352054476738],[-0.02150818333029747,0.08173732459545135,-0.09044024348258972]],[[-0.01063028909265995,-0.06293971836566925,-0.022750817239284515],[-0.18951986730098724,0.2566853165626526,-0.08894812315702438],[0.03692761808633804,-0.1702704280614853,0.05442727729678154]],[[-0.15435130894184113,-0.01612851954996586,-0.007593536749482155],[-0.17891311645507812,0.017624754458665848,-0.11659719049930573],[-0.009820221923291683,-0.21569861471652985,-0.10755900293588638]]]],"biases":[0.039380282163619995,-0.06137166917324066,-0.025238586589694023,0.08857811242341995,-0.09988444298505783,0.00929997954517603,0.015675941482186317,0.051797688007354736]},"conv7":{"weights":[[[[-0.031207924708724022,0.2704310715198517,-0.022981442511081696],[-0.00220800144597888,0.1533898413181305,-0.19965864717960358],[0.07671725004911423,0.19012628495693207,-0.1082538291811943]],[[0.07556629180908203,0.07016392797231674,0.026985686272382736],[-0.015199324116110802,0.44654732942581177,-0.02069537714123726],[0.005238824989646673,-0.015970347449183464,-0.07917070388793945]],[[0.23057599365711212,-0.0038673593662679195,0.07941359281539917],[-0.04000169783830643,-0.1490764170885086,-0.027039507403969765],[0.06051222234964371,0.08809760957956314,-0.10068348050117493]],[[-0.07546664029359818,-0.04932704195380211,0.05312654748558998],[0.0220862478017807,-0.30777087807655334,0.20345762372016907],[-0.007902045734226704,0.12575607001781464,0.029160548001527786]],[[0.07909009605646133,-0.018116267397999763,-0.009460640139877796],[-0.6021126508712769,0.19610463082790375,-0.023759346455335617],[0.024344684556126595,0.062324315309524536,-0.04493547976016998]],[[0.18870361149311066,0.1993177980184555,0.004041070118546486],[0.4938437342643738,0.6636379957199097,-0.2746693193912506],[-0.6533516049385071,-0.18409983813762665,-0.33071067929267883]],[[0.1326473504304886,-0.028549976646900177,-0.0292929969727993],[-0.1370360106229782,-0.39209702610969543,-0.0284638162702322],[-0.09696819633245468,-0.2515639364719391,0.060097116976976395]],[[0.1994355171918869,-0.17928269505500793,-0.17295394837856293],[-0.19963738322257996,-0.08633419871330261,-0.045985396951436996],[0.11830892413854599,0.12164419144392014,0.02370401658117771]]],[[[-0.058157965540885925,0.024517055600881577,-0.015646476298570633],[-0.0034949725959450006,-0.4705972373485565,0.08730977028608322],[0.14103631675243378,0.08556251972913742,-0.13446199893951416]],[[-0.019165262579917908,0.08800341188907623,0.045016754418611526],[-0.02601519040763378,0.24530529975891113,0.16173970699310303],[-0.05299684777855873,-0.057216864079236984,-0.15334102511405945]],[[0.07675261795520782,0.007293002214282751,0.07133856415748596],[-0.19612917304039001,-0.2503316104412079,0.013786247931420803],[-0.006666636560112238,-0.07980301976203918,-0.13289763033390045]],[[-0.0757971853017807,0.126143217086792,-0.09492357820272446],[0.12434203922748566,-0.11819442361593246,0.15065939724445343],[-0.018292812630534172,0.0930926501750946,0.1137533038854599]],[[-0.05180458724498749,-0.01574074663221836,0.0005496460944414139],[0.14383234083652496,0.24475494027137756,-0.07552316784858704],[0.1298544704914093,0.0012284833937883377,0.007549988105893135]],[[0.06395427882671356,0.2219524383544922,0.11945728957653046],[-0.04703565314412117,0.9969471096992493,-0.043773625046014786],[0.12610945105552673,-0.04233570396900177,-0.3890227973461151]],[[0.009418654255568981,0.3417172431945801,-0.17080634832382202],[0.0236817579716444,-0.23404695093631744,-0.11692377179861069],[-0.04368635639548302,-0.1265023946762085,-0.009513932280242443]],[[-0.019387908279895782,0.1057577058672905,-0.06705157458782196],[-0.11580226570367813,0.20330427587032318,-0.12328027933835983],[0.14179988205432892,0.2225826233625412,0.1814592480659485]]],[[[-0.0892583355307579,-0.1811387836933136,0.11781532317399979],[0.08247669041156769,-0.5197489261627197,0.3246852457523346],[0.11162637174129486,0.023843126371502876,-0.05658137425780296]],[[-0.06908886134624481,0.009323549456894398,0.11338284611701965],[-0.010025415569543839,-0.05185640603303909,0.16082391142845154],[-0.001482337829656899,-0.09688186645507812,-0.1609724760055542]],[[-0.22931388020515442,0.13192592561244965,0.04601207375526428],[-0.22727228701114655,-0.23941530287265778,0.03424900397658348],[0.01964096538722515,-0.058447811752557755,-0.15065918862819672]],[[0.01185142807662487,-0.025007594376802444,-0.17447306215763092],[0.13854749500751495,0.16274213790893555,-0.24436813592910767],[0.009457613341510296,0.046970319002866745,0.09034858644008636]],[[-0.015618108212947845,0.028882049024105072,0.0045528230257332325],[0.4478994905948639,-0.3092364966869354,-0.07489102333784103],[-0.0040239072404801846,-0.07246234267950058,0.09150724112987518]],[[-0.02522174082696438,0.11701762676239014,0.27776849269866943],[-0.19667479395866394,0.31085464358329773,0.6840259432792664],[0.04099545255303383,-0.771438717842102,-0.8295204639434814]],[[0.015143059194087982,0.35959985852241516,0.0446043536067009],[-0.16100479662418365,-0.12326027452945709,0.07479893416166306],[-0.13248737156391144,-0.007773219607770443,0.05145575478672981]],[[0.12748725712299347,0.4840555191040039,0.009660766460001469],[0.06969130039215088,-0.09414269775152206,-0.12106118351221085],[0.14418742060661316,0.18873123824596405,0.1981639862060547]]],[[[-0.10690183192491531,0.22965964674949646,-0.06587018817663193],[0.13543333113193512,0.2887023091316223,-0.01840827614068985],[0.07377228140830994,0.17247362434864044,-0.22153101861476898]],[[0.03091553971171379,0.1552872359752655,-0.06976049393415451],[-0.07821626216173172,0.09788858890533447,0.13611310720443726],[0.05183504521846771,0.03693356364965439,-0.11428199708461761]],[[0.2573338449001312,-0.13582421839237213,0.07606519013643265],[0.2147211730480194,-0.07312921434640884,0.1352550983428955],[0.1389169991016388,0.11092837899923325,-0.15760309994220734]],[[-0.06766477972269058,0.1664285957813263,-0.012340978719294071],[-0.09977913647890091,-0.3435687720775604,0.18256492912769318],[-0.029015876352787018,0.08712857961654663,0.051870450377464294]],[[0.06065748631954193,0.04562673345208168,-0.0377216674387455],[-0.35685014724731445,0.04389551281929016,0.020140256732702255],[-0.23882576823234558,0.16223545372486115,-0.05147494375705719]],[[0.09669212996959686,-0.07175567746162415,-0.11799662560224533],[0.11401312053203583,0.21887744963169098,-0.403581440448761],[-0.3295935094356537,0.34724947810173035,0.0917825847864151]],[[-0.002018823055550456,-0.2940833866596222,-0.012195256538689137],[-0.009347876533865929,0.10665811598300934,-0.20835673809051514],[-0.1554504781961441,-0.3075801432132721,0.128062441945076]],[[-0.18445485830307007,-0.23016946017742157,-0.05805370956659317],[0.10408476740121841,-0.11939490586519241,-0.18112225830554962],[0.0035239628050476313,0.1204914003610611,0.0484749935567379]]],[[[-0.02488710545003414,-0.057786185294389725,-0.05256215110421181],[-0.08745044469833374,-0.13370440900325775,0.2923659086227417],[0.2250072956085205,-0.08977245539426804,-0.2725988030433655]],[[-0.12129157036542892,0.24477657675743103,-0.07871094346046448],[0.0072158523835241795,-0.1201886385679245,0.33657175302505493],[-0.024364225566387177,0.01140808779746294,-0.2221575826406479]],[[-0.051336899399757385,-0.11567758768796921,0.1507381647825241],[0.005432025529444218,0.13917718827724457,0.09889614582061768],[0.07745429873466492,-0.16092272102832794,-0.19302049279212952]],[[-0.0432606041431427,0.20909292995929718,-0.1200641468167305],[0.07600799947977066,-0.14298564195632935,0.07669742405414581],[-0.04976245388388634,0.052686769515275955,0.15947206318378448]],[[-0.016917172819375992,-0.027327217161655426,-0.02586589753627777],[0.04345797002315521,0.17118079960346222,0.007051491644233465],[0.19991621375083923,0.09022073447704315,-0.031829413026571274]],[[-0.01997324265539646,-0.026718316599726677,-0.07008450478315353],[-0.2119743973016739,0.349158376455307,-0.23862382769584656],[0.4153960347175598,0.6026365756988525,0.01795630343258381]],[[-0.025560127571225166,0.05444478616118431,-0.25306791067123413],[-0.0010382242035120726,0.2830985486507416,-0.2510389983654022],[-0.15798373520374298,-0.09239736944437027,0.09995898604393005]],[[-0.07542283833026886,-0.2548297941684723,0.07845605164766312],[-0.03944465145468712,0.2662794589996338,-0.25303536653518677],[0.18239766359329224,0.1395517736673355,0.20675474405288696]]],[[[0.06398863345384598,-0.31703975796699524,0.06375548243522644],[0.0036565090995281935,-0.0985596552491188,0.39510124921798706],[0.0882006511092186,-0.07795349508523941,0.1181863322854042]],[[-0.06361491978168488,0.05320287495851517,0.009818489663302898],[0.022537700831890106,-0.31894034147262573,0.07155238837003708],[-0.06394843757152557,-0.11588554829359055,-0.07301522046327591]],[[-0.13748937845230103,0.18807478249073029,0.03831515833735466],[-0.06721124798059464,0.29082465171813965,-0.12804804742336273],[-0.02777259796857834,-0.11393405497074127,0.06413617730140686]],[[0.019413607195019722,-0.07984050363302231,-0.023920975625514984],[0.09902463853359222,0.0016049254918470979,-0.2972206771373749],[-0.03553282096982002,0.035132285207509995,0.1387195587158203]],[[-0.04928906634449959,-0.05524458363652229,0.023515990003943443],[0.29001671075820923,-0.06013600900769234,-0.04076419025659561],[0.16239257156848907,-0.24369709193706512,0.06132419407367706]],[[-0.09973616898059845,-0.006927924230694771,0.019428709521889687],[-0.27485769987106323,-0.27045780420303345,0.3599613606929779],[0.19031475484371185,-0.38761261105537415,-0.2511405944824219]],[[-0.07832234352827072,0.07635598629713058,-0.2089734971523285],[-0.07767938077449799,0.08161672949790955,0.1507064700126648],[-0.015361673198640347,0.03983280807733536,-0.2838432490825653]],[[0.06231999397277832,-0.05319249629974365,0.1533871591091156],[-0.07386744022369385,0.3062543570995331,0.02587870880961418],[0.15448595583438873,0.08641316741704941,0.2480350285768509]]],[[[0.0817636251449585,0.16096727550029755,-0.10079293698072433],[0.019870160147547722,0.35546255111694336,-0.1496160477399826],[-0.16636863350868225,0.05657390132546425,-0.0010185865685343742]],[[0.001615318818949163,0.01659773848950863,-0.11171218007802963],[-0.04354322701692581,-0.09477930516004562,-0.043515224009752274],[0.0631333515048027,0.23157784342765808,0.057013142853975296]],[[0.2902890741825104,-0.17151160538196564,-0.09790148586034775],[0.21965289115905762,0.04347260668873787,0.13113120198249817],[0.030019398778676987,0.05634545162320137,0.10703377425670624]],[[-0.040243130177259445,0.15041476488113403,0.03275526687502861],[-0.15836353600025177,-0.07055921107530594,0.17176911234855652],[0.028851622715592384,-0.19057415425777435,0.002509946469217539]],[[-0.02081882953643799,0.07997283339500427,-0.021413229405879974],[-0.040376752614974976,-0.06695225834846497,0.04916077479720116],[-0.49157851934432983,0.22517096996307373,-0.06506592780351639]],[[-0.03042333573102951,-0.20270970463752747,-0.1792106181383133],[-0.08299417048692703,-0.22361566126346588,-0.48561981320381165],[-0.07782508432865143,0.6673150658607483,0.3315865099430084]],[[-0.2022603303194046,-0.19529590010643005,0.09150119870901108],[0.3160878121852875,0.22265274822711945,-0.20601464807987213],[0.06631436198949814,0.05862676724791527,-0.025264739990234375]],[[-0.3206995129585266,-0.1319454163312912,0.03541300818324089],[0.307532399892807,-0.3545377850532532,-0.03468712419271469],[-0.3036041855812073,-0.1525702327489853,-0.1785951852798462]]],[[[0.08719856292009354,-0.12404607981443405,-0.03502457216382027],[-0.0916019007563591,0.1514986902475357,0.01029954757541418],[-0.027156157419085503,-0.2713806927204132,-0.030935771763324738]],[[-0.08672809600830078,-0.007828948087990284,-0.129380002617836],[-0.000044366959627950564,-0.1611994057893753,0.09433416277170181],[-0.04474765062332153,0.22252430021762848,0.03322535753250122]],[[-0.04163651540875435,-0.19412866234779358,0.01751738227903843],[0.16374948620796204,0.28993648290634155,0.08125653117895126],[-0.09121585637331009,-0.0981198400259018,0.06350540369749069]],[[0.005879960488528013,0.09927736222743988,-0.009043581783771515],[-0.07300411909818649,0.1720452904701233,0.03250820189714432],[0.04389951750636101,-0.14162538945674896,-0.0007011466077528894]],[[-0.001463156659156084,0.021200982853770256,-0.02875709906220436],[-0.020484380424022675,0.026861872524023056,0.08506204932928085],[0.24760310351848602,0.19317469000816345,-0.0847635269165039]],[[-0.10874629020690918,-0.16702277958393097,-0.16325201094150543],[-0.2553143799304962,-0.24492880702018738,-0.34980496764183044],[0.5737606883049011,1.1434552669525146,0.15395227074623108]],[[-0.10273195058107376,0.021109342575073242,-0.14103363454341888],[0.006397247780114412,0.4712841212749481,-0.24136982858181],[0.12286008149385452,0.06285444647073746,0.08334354311227798]],[[-0.08228921890258789,-0.1462898999452591,0.09582707285881042],[-0.013001061044633389,0.09695175290107727,-0.02318600006401539],[-0.025715524330735207,-0.15410424768924713,-0.14310339093208313]]],[[[0.06037157028913498,-0.21554958820343018,0.09348547458648682],[-0.08278559893369675,0.07733666151762009,0.046855613589286804],[0.026924854144454002,-0.24827076494693756,0.22711047530174255]],[[-0.04589880630373955,-0.10133419185876846,-0.0414281003177166],[-0.035975877195596695,-0.3041219413280487,-0.16833746433258057],[-0.06680148839950562,0.05196549743413925,0.20261916518211365]],[[-0.18304502964019775,0.07779694348573685,0.006675824988633394],[0.0035632438957691193,0.2855680584907532,-0.1258590817451477],[-0.027898913249373436,0.03778277337551117,0.1652069240808487]],[[0.060882508754730225,-0.050607770681381226,0.06289037317037582],[-0.012383134104311466,0.1516619622707367,-0.25520384311676025],[0.017780600115656853,0.012445192784070969,-0.17953364551067352]],[[0.0029449034482240677,-0.05748334154486656,0.028878409415483475],[0.07679544389247894,0.09576832503080368,0.0028577069751918316],[0.3687228858470917,-0.38185805082321167,0.009956467896699905]],[[-0.15322715044021606,-0.14164407551288605,-0.1049080565571785],[-0.26366934180259705,-0.6636046171188354,0.0828411653637886],[0.24085983633995056,0.03513194993138313,-0.14500358700752258]],[[-0.014771959744393826,-0.042270489037036896,-0.1145329400897026],[-0.07003400474786758,0.3011540174484253,0.3177027404308319],[0.034042902290821075,0.049937859177589417,-0.002160176867619157]],[[0.03480454906821251,-0.10782192647457123,0.08610167354345322],[-0.0650695189833641,0.48099103569984436,0.10684897005558014],[0.04103636369109154,-0.2774771451950073,-0.14261527359485626]]]],"biases":[0.04272926598787308,0.0010811173124238849,0.007513424381613731,0.014202184975147247,-0.018441060557961464,-0.02686302736401558,-0.0062058609910309315,-0.0263260118663311,-0.028508935123682022]}}')}}]);