(self.webpackChunkUpscaler=self.webpackChunkUpscaler||[]).push([[111],{385:s=>{"use strict";s.exports=JSON.parse('{"conv1":{"weights":[[[[-0.22839492559432983,-0.02656889334321022,0.10303325206041336],[-0.38820788264274597,-0.2245168685913086,0.004142763093113899],[-0.0941508561372757,-0.20246568322181702,-0.18926426768302917]]],[[[0.15596018731594086,-0.09617400169372559,-0.20271511375904083],[-0.17653092741966248,-0.23549006879329681,0.2929455041885376],[0.14036491513252258,0.09366870671510696,0.15138264000415802]]],[[[-0.14965669810771942,-0.09133664518594742,-0.09739071130752563],[0.14075063169002533,0.10550174862146378,-0.26566821336746216],[-0.1968683898448944,0.10268189758062363,-0.27228468656539917]]],[[[0.33473727107048035,0.04266415163874626,0.09221125394105911],[0.2838103473186493,-0.2171788364648819,-0.13609333336353302],[-0.1238446906208992,-0.14978694915771484,0.07823897153139114]]],[[[-0.0703788697719574,-0.2211998999118805,0.18388785421848297],[0.3724645674228668,0.0619070827960968,-0.1069856658577919],[0.24639959633350372,-0.3098779320716858,0.005707883276045322]]],[[[-0.027422508224844933,-0.132801815867424,0.35766100883483887],[-0.16390374302864075,-0.05691877380013466,-0.10086502134799957],[0.17943590879440308,0.2265617996454239,-0.1579391062259674]]],[[[0.03226431831717491,0.31589600443840027,0.24681106209754944],[0.002624566899612546,0.1552749127149582,-0.1775677502155304],[-0.08203916996717453,0.0741155594587326,0.22409020364284515]]],[[[-0.29325559735298157,-0.35333630442619324,-0.043239109218120575],[0.04751652106642723,-0.26246577501296997,0.2409495860338211],[-0.1584111452102661,-0.12224746495485306,0.1480080932378769]]]],"biases":[0.2392362356185913,0.43171191215515137,-0.03483989089727402,-0.06046874076128006,0.24964696168899536,0.3954848051071167,-0.23051652312278748,0.2837941348552704]},"conv2":{"weights":[[[[0.13083237409591675,0.04844912514090538,-0.0019040353363379836],[-0.0600886270403862,-0.00335593125782907,0.10296385735273361],[0.08954863250255585,0.029077699407935143,0.05060720443725586]],[[-0.04101379215717316,-0.008017901331186295,0.011851384304463863],[-0.048749636858701706,0.16485176980495453,0.14494550228118896],[0.07704183459281921,0.008552315644919872,0.15123428404331207]],[[-0.04568669572472572,0.06321665644645691,-0.04974983260035515],[0.060806773602962494,0.043848760426044464,0.016814131289720535],[0.04662289842963219,0.07040641456842422,0.06390384584665298]],[[-0.023405926302075386,0.130811870098114,0.09628837555646896],[-0.005222664680331945,0.11938631534576416,0.14792782068252563],[-0.028445936739444733,-0.10968075692653656,-0.014078930951654911]],[[0.07997218519449234,0.14962682127952576,0.0009389333426952362],[-0.12723760306835175,0.11367639154195786,0.0803164467215538],[-0.03832536190748215,-0.0059914723969995975,0.17570818960666656]],[[0.07754102349281311,0.1718539297580719,0.03242691233754158],[0.14185361564159393,0.16856896877288818,0.18103714287281036],[-0.07358315587043762,-0.014162923209369183,-0.010562789626419544]],[[0.02240052819252014,-0.08182977885007858,-0.04621865600347519],[0.058321915566921234,0.05452275276184082,0.16670478880405426],[-0.05233771726489067,-0.05564454197883606,-0.14350184798240662]],[[0.04811549931764603,-0.08864979445934296,-0.04306318238377571],[0.1063690334558487,-0.04134519398212433,0.1422646939754486],[-0.059224843978881836,-0.07129368931055069,0.10872826725244522]]],[[[0.02778693661093712,0.10645212978124619,0.011442401446402073],[0.004158459138125181,0.054986558854579926,0.038018494844436646],[-0.06358249485492706,0.0005516220116987824,-0.0059763467870652676]],[[0.07316432148218155,0.05048992112278938,-0.0862385481595993],[0.000028353410016279668,-0.11577460914850235,0.03271957486867905],[0.008438386023044586,-0.019394783303141594,-0.023791247978806496]],[[-0.04651137813925743,-0.018800491467118263,0.015584021806716919],[-0.012615097686648369,0.05724696069955826,0.028669340535998344],[0.047569189220666885,0.035793889313936234,0.05245676264166832]],[[0.10245787352323532,0.04332053288817406,0.030788414180278778],[0.009556089527904987,0.04285518825054169,0.17001301050186157],[0.1632586121559143,0.08499237895011902,-0.019704511389136314]],[[0.09194598346948624,-0.11975222080945969,0.1253640204668045],[0.0665268748998642,-0.0474306084215641,0.23171992599964142],[0.12091971188783646,-0.05946924537420273,0.07255028188228607]],[[-0.13635198771953583,0.057911526411771774,-0.06217554584145546],[-0.07606352865695953,0.01787298545241356,-0.0422782376408577],[0.09275125712156296,-0.05323261022567749,-0.06004873290657997]],[[0.062087513506412506,0.04412276670336723,-0.07058491557836533],[0.06917546689510345,0.1315937042236328,0.08754570782184601],[0.08296377956867218,0.06288690119981766,0.14538562297821045]],[[0.06857884675264359,0.03363281860947609,0.08107093721628189],[0.09564134478569031,-0.010745798237621784,0.019048886373639107],[0.057152945548295975,-0.027763627469539642,0.014041131362318993]]],[[[-0.08329261094331741,0.11418968439102173,0.09509727358818054],[0.12397176772356033,0.07865191996097565,-0.02408132515847683],[0.10421863943338394,0.03140231594443321,-0.013779784552752972]],[[0.01681024208664894,0.002783911768347025,-0.08471709489822388],[-0.010915981605648994,0.11431310325860977,0.14321130514144897],[-0.02980451099574566,0.1343138962984085,-0.01593676395714283]],[[-0.012977592647075653,-0.02991645410656929,-0.04374484717845917],[0.047517742961645126,0.06551244109869003,0.06986267864704132],[-0.05595578998327255,0.030886299908161163,0.05237772315740585]],[[0.02735455334186554,0.019197242334485054,-0.03863301873207092],[0.15413270890712738,0.07835369557142258,0.07727506756782532],[0.10172254592180252,0.0640777200460434,0.09337790310382843]],[[0.14172348380088806,0.019875798374414444,-0.061082884669303894],[0.12499821186065674,-0.018360843881964684,-0.03482499346137047],[-0.007882817648351192,0.0450313501060009,-0.01198563538491726]],[[-0.06950130313634872,-0.10898109525442123,-0.09857267141342163],[0.08834237605333328,0.05887241289019585,0.08898421376943588],[0.025370165705680847,0.198200985789299,0.13794119656085968]],[[0.016718363389372826,-0.084748275578022,0.11423347145318985],[-0.04033055901527405,0.09653107076883316,0.07827679812908173],[-0.03575192764401436,-0.014455819502472878,-0.147774338722229]],[[0.11478850990533829,0.11952298134565353,0.079122394323349],[0.0930556058883667,0.06192328408360481,-0.005649412050843239],[0.04871385917067528,0.0626554936170578,-0.036394376307725906]]],[[[-0.012765035964548588,0.10101903229951859,-0.007466219365596771],[-0.08435042947530746,0.12139350920915604,0.08507044613361359],[0.028190163895487785,0.10016012191772461,-0.03671002388000488]],[[-0.02556050941348076,-0.0561305470764637,-0.025024237111210823],[-0.10511091351509094,-0.0024750344455242157,0.14034457504749298],[0.018446674570441246,0.053290050476789474,0.06147178262472153]],[[-0.04120062291622162,0.038889408111572266,0.07998447865247726],[0.08814623206853867,-0.04552342742681503,-0.016840871423482895],[-0.08529066294431686,0.026049675419926643,0.0004002476925961673]],[[-0.03874007239937782,0.03930811956524849,-0.023086363449692726],[-0.007517840713262558,0.09387964755296707,-0.013554674573242664],[0.0569644533097744,0.014312108978629112,0.03790172189474106]],[[0.0523490309715271,0.13688573241233826,-0.022549495100975037],[0.04435984790325165,0.06064329668879509,-0.1989075392484665],[0.007786877918988466,0.04857519268989563,-0.07886344194412231]],[[0.1412385106086731,0.09258347004652023,0.01170937716960907],[0.03703032061457634,-0.047508709132671356,0.16925357282161713],[0.00022222725965548307,-0.06334929913282394,0.10431639105081558]],[[0.056010860949754715,-0.07434035837650299,0.1145271435379982],[0.06719228625297546,-0.07441055029630661,0.07429327070713043],[-0.001639015506953001,-0.0429060161113739,-0.05680320784449577]],[[-0.0508045069873333,0.0067722126841545105,0.10919526219367981],[0.014065908268094063,-0.08092429488897324,-0.048535846173763275],[0.10069818049669266,0.10424008220434189,0.042494770139455795]]],[[[-0.03670680522918701,-0.12295418977737427,0.04947655275464058],[0.041553959250450134,-0.144015371799469,0.020584940910339355],[0.08078224956989288,0.014675582759082317,-0.12158291041851044]],[[0.14978429675102234,0.16135235130786896,0.022935697808861732],[0.016450118273496628,-0.01596793718636036,0.06358645856380463],[0.06978798657655716,-0.00377882132306695,-0.04118265584111214]],[[-0.029738400131464005,-0.0670943558216095,0.0991261824965477],[-0.016747605055570602,0.05717918276786804,0.08811700344085693],[0.042303360998630524,0.07435682415962219,-0.056973010301589966]],[[0.006749968975782394,-0.05949768051505089,0.011163377203047276],[0.08432851731777191,-0.04617371782660484,-0.02595188096165657],[0.010387683287262917,0.08548759669065475,-0.014525339938700199]],[[0.05399387329816818,0.03505048528313637,0.007269828114658594],[0.06715726852416992,0.06267611682415009,0.13720709085464478],[-0.0779152661561966,-0.04996112734079361,-0.04268981143832207]],[[0.03657810762524605,0.060983698815107346,0.14518089592456818],[-0.029831457883119583,-0.05111946538090706,0.02613600715994835],[-0.009847468696534634,0.07410378009080887,0.017857510596513748]],[[-0.008477437309920788,-0.027869468554854393,0.01937197335064411],[-0.06631018221378326,0.09538514167070389,-0.036285653710365295],[0.08713498711585999,0.0012366838054731488,0.07118739932775497]],[[0.14453721046447754,-0.020484665408730507,0.03881869092583656],[-0.005318580660969019,-0.11218265444040298,0.015936708077788353],[-0.035204894840717316,-0.15110376477241516,0.05766165256500244]]],[[[0.029153672978281975,-0.0459621399641037,0.019649183377623558],[-0.07665063440799713,0.029398014768958092,-0.08873844891786575],[-0.012355785816907883,0.09650004655122757,-0.09441322833299637]],[[0.10107474029064178,0.13553065061569214,0.07550361752510071],[-0.057716116309165955,-0.011535917408764362,0.018257256597280502],[-0.043856602162122726,-0.10885118693113327,0.012000280432403088]],[[0.08806086331605911,0.05770152062177658,0.11178462207317352],[0.06023796275258064,0.12531328201293945,-0.015721721574664116],[-0.010430137626826763,-0.05195241793990135,-0.022148272022604942]],[[0.053492072969675064,-0.022726360708475113,0.0059875803999602795],[0.0008353990269824862,-0.10615336149930954,0.022066554054617882],[0.08205651491880417,-0.0564466193318367,0.15108197927474976]],[[0.04682118818163872,-0.07278402894735336,-0.06795008480548859],[0.023243704810738564,-0.11563847959041595,0.015057215467095375],[0.08271358162164688,0.026102658361196518,0.11331155896186829]],[[0.059767335653305054,0.1370227336883545,0.049316924065351486],[0.05529894307255745,-0.03313564136624336,0.0355498380959034],[0.020263729616999626,0.07254786789417267,-0.1421544998884201]],[[0.1288515329360962,0.17509788274765015,-0.01206593494862318],[0.07794174551963806,0.1266186684370041,0.11466464400291443],[0.11679569631814957,0.10746132582426071,0.04942796751856804]],[[-0.017901204526424408,-0.07363744080066681,0.011128614656627178],[0.07345829159021378,0.005572933237999678,-0.012121898122131824],[0.06059781089425087,0.03211887553334236,-0.06129973754286766]]],[[[0.041584353893995285,-0.048625655472278595,-0.04465969651937485],[-0.042239103466272354,0.04767238348722458,-0.08665962517261505],[0.025072311982512474,-0.12494926154613495,0.03244297206401825]],[[-0.04909978806972504,0.08343113213777542,0.056008242070674896],[0.0921059176325798,0.03403276950120926,0.10927136242389679],[0.07594603300094604,-0.06565752625465393,-0.1130157932639122]],[[0.018158186227083206,0.051588211208581924,-0.0007822970510460436],[-0.0008056021179072559,-0.06284644454717636,-0.03615322336554527],[0.023501230403780937,0.01842995174229145,-0.007755843922495842]],[[0.09206187725067139,0.04964326694607735,0.10112150758504868],[0.009657216258347034,0.06415694206953049,-0.005043541546911001],[0.005268688313663006,0.14229944348335266,0.17750374972820282]],[[-0.13238544762134552,0.1173393726348877,0.08533447235822678],[0.04635155573487282,-0.004820921458303928,0.27288827300071716],[0.05000485107302666,0.09104197472333908,0.1383618712425232]],[[0.07952597737312317,0.16626901924610138,0.12367938458919525],[-0.004396263509988785,-0.07753290981054306,0.08704721182584763],[-0.10201891511678696,-0.16659536957740784,0.10548651963472366]],[[-0.020121943205595016,-0.10385692119598389,-0.020707491785287857],[0.0006916511920280755,-0.10035069286823273,-0.034769847989082336],[-0.02465222403407097,0.0003237445780541748,-0.029558071866631508]],[[0.006376180797815323,-0.11527806520462036,-0.08543353527784348],[0.10456851124763489,-0.022959444671869278,0.08251728117465973],[0.06325125694274902,-0.11207956820726395,0.08278680592775345]]],[[[0.05400030314922333,0.10747835040092468,0.0105308061465621],[0.10613033920526505,0.09381825476884842,0.14345310628414154],[0.034567445516586304,-0.07077883929014206,0.08330759406089783]],[[-0.07517483830451965,0.12589728832244873,-0.014641557820141315],[0.11237182468175888,-0.025039799511432648,0.026005253195762634],[0.04848916828632355,0.1442476511001587,-0.0158246997743845]],[[0.06534156203269958,0.037590689957141876,0.1320178061723709],[0.09996910393238068,0.053958553820848465,-0.031628865748643875],[0.0164655651897192,0.07738130539655685,0.08620212227106094]],[[0.06771606206893921,0.1085849478840828,0.016343144699931145],[0.11011984199285507,-0.018499793484807014,-0.056805651634931564],[0.05765555799007416,-0.09501824527978897,-0.04174095392227173]],[[0.1071322038769722,-0.03130175918340683,0.03820182755589485],[0.0027672098949551582,0.14738520979881287,-0.04482986032962799],[-0.005570552311837673,0.13053643703460693,0.1135442778468132]],[[0.031154749915003777,0.029771510511636734,-0.030837588012218475],[0.08641362190246582,0.016085105016827583,-0.03803512826561928],[0.05418742820620537,0.0470508337020874,0.049317020922899246]],[[0.017208926379680634,0.047011762857437134,-0.040333230048418045],[0.04688170552253723,0.09201320260763168,0.03392845392227173],[0.002488813828676939,0.06808330863714218,0.035276614129543304]],[[0.04340910166501999,-0.053673822432756424,0.05469605699181557],[0.10371223092079163,-0.03452921658754349,-0.03933258354663849],[0.09051912277936935,-0.05038226395845413,0.06517176330089569]]]],"biases":[-0.03135945647954941,-0.05471499264240265,0.1648598611354828,0.05003651976585388,0.01502920687198639,-0.05472325161099434,0.12550295889377594,0.07786306738853455]},"conv3":{"weights":[[[[-0.14629659056663513,-0.0038467012345790863,-0.09360843896865845],[-0.08994191139936447,-0.12589678168296814,-0.03541739657521248],[0.10855986177921295,0.0493524894118309,0.04778556898236275]],[[0.11394795030355453,0.10837900638580322,0.052295099943876266],[0.21785111725330353,0.03724534064531326,0.02603318728506565],[-0.049419280141592026,-0.07885843515396118,0.08699305355548859]],[[-0.06709380447864532,-0.13419660925865173,0.04342389851808548],[0.00548537028953433,0.15127773582935333,-0.043405771255493164],[-0.080149807035923,-0.09336087107658386,0.09447965770959854]],[[-0.1721336543560028,0.021343180909752846,-0.1115352213382721],[-0.05499212071299553,0.032080862671136856,-0.04810919985175133],[0.07181727141141891,0.06681360304355621,-0.05394969508051872]],[[0.0972800925374031,-0.042903851717710495,0.15003570914268494],[-0.045056287199258804,0.01093889307230711,0.18381871283054352],[-0.1291712373495102,-0.21030157804489136,-0.11689162254333496]],[[-0.01299592200666666,-0.027755219489336014,0.03297445923089981],[-0.025595394894480705,-0.02706005983054638,-0.05819570645689964],[0.07946407794952393,0.08295497298240662,-0.03440060466527939]],[[0.14878232777118683,0.24244822561740875,0.09522201865911484],[-0.022189442068338394,0.035801272839307785,-0.0049088215455412865],[0.11032766103744507,0.1821838617324829,0.10250244289636612]],[[0.08720505237579346,0.06396294385194778,-0.12643824517726898],[0.09107601642608643,-0.0313580147922039,0.02182815410196781],[0.10452326387166977,-0.06674539297819138,0.12018592655658722]]],[[[0.006563796196132898,0.028571421280503273,-0.027720458805561066],[0.06577584892511368,0.1397901177406311,-0.04545921832323074],[-0.13060107827186584,0.11007028818130493,0.10086769610643387]],[[0.0386660061776638,-0.11331187933683395,0.003714674385264516],[0.12143626064062119,0.011399815790355206,-0.14225482940673828],[0.03013337217271328,0.05735570564866066,0.0880884900689125]],[[0.028084535151720047,0.05684162303805351,-0.028210138902068138],[0.06345610320568085,-0.06491301208734512,0.09005413204431534],[0.03023887239396572,-0.05061202496290207,-0.04393086954951286]],[[-0.024852989241480827,0.03695041313767433,0.09432350099086761],[-0.07947849482297897,0.14156223833560944,0.12404319643974304],[-0.06158820912241936,0.0151596674695611,-0.028713127598166466]],[[-0.09479089826345444,0.021166948601603508,-0.029007889330387115],[-0.006637399084866047,0.11258231848478317,-0.028580905869603157],[0.02842356450855732,-0.07926689088344574,-0.028108160942792892]],[[0.04755629971623421,0.025568649172782898,0.0895109549164772],[-0.04736535996198654,-0.13271686434745789,-0.1476336419582367],[0.10088706761598587,-0.005318445153534412,-0.0036761306691914797]],[[-0.09902167320251465,0.03395072743296623,-0.10178814083337784],[-0.18863986432552338,0.13874177634716034,-0.06267719715833664],[-0.0726369246840477,-0.0072840480133891106,-0.025191599503159523]],[[-0.047706447541713715,-0.04322003573179245,-0.0012082308530807495],[-0.01664792373776436,0.058352936059236526,0.035191282629966736],[0.09832713007926941,0.03828679025173187,-0.07488426566123962]]],[[[-0.04783909022808075,-0.06453561037778854,0.07338825613260269],[0.18248189985752106,-0.027679331600666046,0.1363508105278015],[0.11622603237628937,-0.04819188266992569,0.09255236387252808]],[[-0.11375175416469574,-0.1657238006591797,-0.10089344531297684],[-0.18141703307628632,-0.066190704703331,-0.07919857650995255],[-0.1543843001127243,0.033856235444545746,-0.015304858796298504]],[[0.010009602643549442,-0.040594857186079025,0.1093120127916336],[0.09090986847877502,0.0803084522485733,0.037383731454610825],[-0.034702036529779434,0.13963869214057922,-0.060697831213474274]],[[0.15575921535491943,0.138045534491539,0.16268248856067657],[0.02490493468940258,0.06598397344350815,-0.07847271859645844],[-0.030023759230971336,-0.0823083370923996,-0.13382527232170105]],[[0.06394083797931671,-0.00212686276063323,-0.009971706196665764],[0.09603878855705261,0.0036017941311001778,-0.09020467847585678],[-0.08855899423360825,0.08780848234891891,-0.04585565999150276]],[[0.034481920301914215,-0.10410235077142715,-0.05843842029571533],[-0.07008586823940277,-0.028833605349063873,0.025653155520558357],[-0.09753017872571945,-0.021679800003767014,-0.04278154671192169]],[[-0.007552701979875565,-0.09453169256448746,0.05435621365904808],[0.041544198989868164,0.12831604480743408,0.10940489172935486],[0.16685372591018677,0.08446066081523895,0.21702980995178223]],[[0.029002919793128967,0.13344654440879822,0.07170450687408447],[0.02672550454735756,0.03958027809858322,-0.0042887236922979355],[-0.027817556634545326,0.10545370727777481,0.02935306541621685]]],[[[0.09760972112417221,0.07190878689289093,0.009627271443605423],[0.1271616816520691,0.10277660191059113,-0.012818921357393265],[0.044437382370233536,-0.08461391925811768,-0.10373441129922867]],[[0.16871291399002075,-0.09285354614257812,0.20316536724567413],[0.10330568253993988,-0.07322517037391663,0.1380806267261505],[-0.1166418120265007,-0.054189398884773254,0.17108260095119476]],[[-0.0519431047141552,0.11515170335769653,-0.023492325097322464],[-0.10123590379953384,-0.01196551974862814,0.04478645697236061],[0.009627911262214184,0.022290868684649467,0.05669654160737991]],[[-0.11428897827863693,-0.03544813022017479,-0.033303674310445786],[0.012676949612796307,0.12793360650539398,0.04276203736662865],[0.088454470038414,-0.03566386178135872,-0.10627274960279465]],[[-0.028298746794462204,0.0037659774534404278,-0.1500914990901947],[0.03379109129309654,-0.10203436762094498,-0.2446025311946869],[-0.050584882497787476,0.0016424033092334867,-0.04644123092293739]],[[-0.004662227816879749,-0.18157917261123657,0.038879550993442535],[-0.15252430737018585,-0.2369668036699295,-0.003689875826239586],[-0.05525492504239082,0.0000807761971373111,0.159245565533638]],[[-0.005864357575774193,-0.11747419089078903,-0.07315423339605331],[0.03591902181506157,-0.2717708647251129,-0.05916577950119972],[0.2534891963005066,0.11734490841627121,0.11293978989124298]],[[-0.09632918983697891,-0.01706025004386902,-0.13179636001586914],[0.05072278529405594,0.00792500376701355,-0.11087064445018768],[-0.11063967645168304,0.11109527945518494,0.03152564540505409]]],[[[0.07771214842796326,0.007856800220906734,-0.023595580831170082],[0.0042792633175849915,0.015163682401180267,0.022975420579314232],[0.10028432309627533,-0.04342426732182503,-0.07277905195951462]],[[-0.022919761016964912,-0.03240692988038063,0.08096009492874146],[-0.13093608617782593,-0.06533225625753403,-0.008577468805015087],[0.05145629867911339,-0.054194625467061996,0.1333780586719513]],[[0.057555072009563446,0.039103034883737564,0.005180256441235542],[-0.0293878223747015,-0.017981447279453278,0.030638914555311203],[-0.06121719256043434,0.07410192489624023,0.1158251017332077]],[[-0.07108333706855774,-0.0017795742023736238,0.005832983646541834],[0.047901835292577744,-0.08400892466306686,-0.07968579232692719],[0.00427214102819562,-0.08226092159748077,-0.13921956717967987]],[[0.009982055053114891,0.14142033457756042,0.11780468374490738],[0.07158184051513672,0.12008033692836761,-0.003761524800211191],[0.048883069306612015,0.030399907380342484,0.11029474437236786]],[[-0.09031480550765991,0.10022132098674774,-0.07656298577785492],[-0.04051385819911957,0.08014602959156036,0.11633650958538055],[0.07704107463359833,-0.01267022080719471,0.04697060212492943]],[[-0.07473352551460266,0.0326542891561985,0.10762423276901245],[-0.012003917247056961,-0.09883611649274826,0.01385083794593811],[0.028266899287700653,-0.11667251586914062,-0.12762972712516785]],[[-0.049989327788352966,0.04074299708008766,0.06681555509567261],[0.10007670521736145,0.05773550271987915,-0.018290337175130844],[0.1142520010471344,-0.08217957615852356,0.13042263686656952]]],[[[0.06964201480150223,0.03215601667761803,0.09317345917224884],[0.11268302798271179,0.10041647404432297,-0.08740431815385818],[0.027928341180086136,-0.028768504038453102,0.05099735036492348]],[[-0.06191643327474594,-0.02693256363272667,0.0037899515591561794],[0.05709049105644226,-0.1275651454925537,-0.06573020666837692],[-0.07095123827457428,-0.05900169163942337,0.12337111681699753]],[[0.0292543713003397,0.13258083164691925,0.14741477370262146],[-0.08520934730768204,0.11558903753757477,0.11356322467327118],[-0.060565244406461716,0.0615067183971405,0.12732253968715668]],[[-0.08947286754846573,0.11167925596237183,-0.030082661658525467],[-0.08135933429002762,-0.002252622740343213,-0.01582322083413601],[0.04686715081334114,0.08229812234640121,0.0027835392393171787]],[[0.004759101662784815,-0.08123337477445602,-0.02517636865377426],[0.01510386448353529,-0.06785629689693451,-0.07375112175941467],[0.023755304515361786,-0.11622855812311172,-0.06923694908618927]],[[0.040044188499450684,-0.12825018167495728,0.09685739874839783],[-0.13423922657966614,-0.025129489600658417,-0.007873897440731525],[0.03507387265563011,-0.1613996922969818,0.03297046199440956]],[[0.11215732991695404,-0.1276990920305252,0.03617393597960472],[0.049713872373104095,0.059008873999118805,-0.08320330083370209],[0.10679278522729874,0.07013978809118271,0.02060849405825138]],[[0.10056296736001968,0.05754225701093674,-0.035104818642139435],[-0.008841891773045063,0.09569629281759262,0.11151059716939926],[0.13183282315731049,0.12940870225429535,0.07692275196313858]]],[[[-0.027723116800189018,-0.00014300145267043263,-0.09713075309991837],[0.13103461265563965,0.12991972267627716,0.0005468644085340202],[-0.01675465889275074,0.049964841455221176,0.12239404767751694]],[[-0.05370539054274559,-0.023621708154678345,-0.07556944340467453],[-0.020747283473610878,-0.10249330848455429,-0.049071069806814194],[0.02738349884748459,-0.0443006195127964,0.03174157440662384]],[[0.07553278654813766,0.0871819332242012,0.12659376859664917],[0.03337502107024193,0.020526980981230736,0.014755197800695896],[0.13218924403190613,0.02863277867436409,0.11440405994653702]],[[0.044630035758018494,0.13283167779445648,0.08704695850610733],[-0.03187811002135277,-0.03318840265274048,-0.06388715654611588],[-0.021738702431321144,0.03725224733352661,-0.020947812125086784]],[[0.020516665652394295,-0.10344640910625458,-0.09995713084936142],[0.04612314701080322,-0.11626129597425461,-0.09690622240304947],[0.10045158863067627,0.10293862223625183,0.039631396532058716]],[[-0.027194242924451828,-0.046853404492139816,0.015844454988837242],[-0.12604866921901703,-0.12315210700035095,0.07792960852384567],[-0.09409855306148529,-0.02255733124911785,-0.08820692449808121]],[[-0.020796023309230804,0.009701180271804333,-0.006728808861225843],[0.09084650874137878,0.11174917966127396,-0.05213933438062668],[0.14072085916996002,0.05455014109611511,-0.0678262859582901]],[[0.021854115650057793,-0.09886812418699265,0.11678222566843033],[-0.020472746342420578,0.0017225793562829494,-0.032673563808202744],[0.0802357941865921,0.07581779360771179,0.12385445088148117]]],[[[0.028795944526791573,-0.0988977700471878,-0.06448764353990555],[0.03362848609685898,0.013446804136037827,0.03742923587560654],[0.05622895434498787,-0.0454876683652401,-0.07910468429327011]],[[0.03837268427014351,-0.05932876095175743,0.10993336141109467],[0.06323131173849106,0.06525816768407822,0.062412064522504807],[0.024119602516293526,-0.036096442490816116,-0.002329501323401928]],[[0.08137460052967072,0.13534967601299286,0.009408541955053806],[0.022242536768317223,0.10604961961507797,0.11813230067491531],[0.021150125190615654,0.03203283250331879,0.03240073472261429]],[[0.007197899743914604,0.15814101696014404,0.13301442563533783],[0.027888696640729904,0.12609578669071198,0.1433982253074646],[0.016610950231552124,0.012383893132209778,-0.06611272692680359]],[[-0.02217312902212143,0.026279786601662636,-0.07138879597187042],[-0.026455657556653023,-0.115424245595932,0.004185530357062817],[0.12428923696279526,0.09233008325099945,0.04844604805111885]],[[-0.133138045668602,-0.07363838702440262,-0.07844068855047226],[0.07193019986152649,-0.1448284238576889,0.0495467483997345],[0.05946853384375572,0.1092580184340477,0.0055027068592607975]],[[-0.06385883688926697,-0.12735551595687866,0.019871341064572334],[0.056417275220155716,0.009406204335391521,0.07138824462890625],[0.17332500219345093,-0.06340523809194565,0.03749488294124603]],[[0.00912073627114296,-0.04436124116182327,-0.08636000007390976],[-0.04686545953154564,0.059903334826231,-0.0002430523163639009],[-0.05375170335173607,0.11469181627035141,-0.08603543043136597]]]],"biases":[0.10237585753202438,0.06963860988616943,0.1100526675581932,-0.04732409492135048,-0.021201850846409798,-0.02024730294942856,-0.006044711451977491,-0.037414610385894775]},"conv4":{"weights":[[[[0.03870329633355141,0.12750661373138428,0.0629468485713005],[-0.16878914833068848,-0.040727268904447556,0.024344440549612045],[0.0388309508562088,0.1258571892976761,0.07852673530578613]],[[0.006447820458561182,0.17248770594596863,-0.01312971767038107],[0.04668116196990013,0.1583177149295807,0.04478703439235687],[0.06695448607206345,0.0038907076232135296,0.14281462132930756]],[[-0.052686430513858795,0.10124518722295761,-0.12412731349468231],[0.031718190759420395,-0.02275783196091652,-0.05857492983341217],[-0.054427653551101685,0.07020634412765503,0.02481689304113388]],[[0.3054450750350952,-0.30714669823646545,0.028470581397414207],[0.1251450926065445,0.3559718430042267,0.20471301674842834],[-0.510102391242981,0.3847845494747162,0.012128499336540699]],[[-0.021034948527812958,0.09691878408193588,-0.035603445023298264],[0.04172926023602486,0.013176818378269672,-0.024519605562090874],[0.04553897678852081,-0.06519396603107452,0.08077867329120636]],[[-0.007155322004109621,0.04874445125460625,0.07570403814315796],[0.03100515715777874,0.0424809455871582,-0.012146688997745514],[0.07501419633626938,0.04611008241772652,0.016794070601463318]],[[-0.11406037956476212,0.009700954891741276,-0.05653904750943184],[0.005003602709621191,0.040836308151483536,0.09937171638011932],[-0.03028295375406742,0.040269188582897186,-0.0014766801614314318]],[[0.0272348802536726,-0.08725886791944504,-0.13897332549095154],[0.11299020051956177,0.0215742290019989,0.13355420529842377],[-0.0008627875940874219,0.068991519510746,-0.07367019355297089]]],[[[0.03832064941525459,0.1286681741476059,0.011928782798349857],[0.024123718962073326,0.045230090618133545,-0.1343153417110443],[-0.002406694460660219,-0.11047802865505219,-0.09334224462509155]],[[-0.028037933632731438,-0.036199212074279785,0.054764434695243835],[0.06888911873102188,-0.08773098140954971,-0.0006527426303364336],[-0.09081822633743286,-0.06443221122026443,-0.06436379253864288]],[[-0.05946603789925575,0.026094552129507065,0.08399934321641922],[0.14596496522426605,-0.04416245222091675,-0.08408517390489578],[0.105128213763237,0.10692408680915833,0.04235704615712166]],[[-0.1486774981021881,0.3758898675441742,0.08205270767211914],[-0.18258236348628998,0.15443764626979828,-0.05947307124733925],[-0.22087232768535614,0.2332024872303009,-0.332232803106308]],[[-0.042832642793655396,0.08835103362798691,-0.03418044000864029],[-0.04609879478812218,-0.010896016843616962,0.016878027468919754],[-0.033550165593624115,-0.024863962084054947,0.009788531810045242]],[[0.08618171513080597,0.05523242428898811,-0.004219152498990297],[-0.05330837145447731,0.03535059094429016,0.08592091500759125],[-0.03719690442085266,0.1327316015958786,0.06533972173929214]],[[0.03343437612056732,0.06025203689932823,0.1024089977145195],[0.14946405589580536,0.0673588216304779,-0.03466736525297165],[0.06864387542009354,0.010961087420582771,-0.014676711522042751]],[[-0.11062746495008469,0.13047143816947937,-0.056094709783792496],[-0.011513685807585716,0.17506496608257294,0.046697698533535004],[-0.05294884368777275,0.04987766966223717,0.03630513697862625]]],[[[0.19111469388008118,0.06637096405029297,0.1587473452091217],[0.17998535931110382,0.1863848865032196,0.16057361662387848],[0.10294775664806366,0.012154285795986652,-0.09547048062086105]],[[0.08934440463781357,0.01302917581051588,-0.1240047886967659],[0.032051194459199905,0.018651284277439117,-0.09658829867839813],[-0.011618167161941528,0.07934019714593887,-0.03413305804133415]],[[-0.10050691664218903,-0.0656810775399208,0.06653288006782532],[0.008847387507557869,0.09139204770326614,0.13731855154037476],[0.06993649899959564,-0.017325114458799362,0.019374659284949303]],[[0.021378131583333015,0.9183704257011414,0.08610899746417999],[-0.04835672676563263,0.6369936466217041,-0.17505162954330444],[0.04324057325720787,0.6541285514831543,-0.009984943084418774]],[[0.04970737174153328,0.10587729513645172,-0.044369958341121674],[0.01769080013036728,-0.017583472654223442,-0.03926793485879898],[-0.03075714036822319,-0.07052720338106155,-0.02864660695195198]],[[0.08299768716096878,0.1333053559064865,-0.007662207819521427],[0.03917650505900383,0.009634999558329582,0.07355699688196182],[0.06609299033880234,0.11881495267152786,0.05361710488796234]],[[-0.01199309527873993,0.05431975796818733,0.02322334051132202],[-0.04602916166186333,0.054999664425849915,-0.03832719847559929],[0.05546261742711067,-0.002831242512911558,-0.00939969439059496]],[[-0.09985470026731491,-0.06423882395029068,0.07076014578342438],[-0.06696828454732895,0.12875430285930634,0.1471695452928543],[0.03261370211839676,0.043430935591459274,0.02732967771589756]]],[[[0.20477591454982758,-0.05124733969569206,-0.03782602399587631],[-0.0072807976976037025,0.0737115815281868,0.18968245387077332],[-0.004743145778775215,0.11161860823631287,0.06908166408538818]],[[-0.11814379692077637,-0.006594716105610132,0.07690080255270004],[-0.11115726083517075,-0.023017698898911476,0.08849649876356125],[0.062096644192934036,0.04883114993572235,0.05025334283709526]],[[0.13009144365787506,0.13880768418312073,0.05976535379886627],[-0.030328694730997086,-0.08616477251052856,-0.009791260585188866],[-0.03311627358198166,0.03296041861176491,0.11762109398841858]],[[-0.2496010810136795,-0.11704008281230927,0.28590551018714905],[0.1496601551771164,-0.08912744373083115,0.10851481556892395],[0.09786762297153473,-0.2852643132209778,0.12870754301548004]],[[0.02082827314734459,0.003179404651746154,-0.05905448645353317],[0.1131671816110611,-0.09301996976137161,0.06743954867124557],[0.14310400187969208,0.06056580692529678,0.07886254787445068]],[[0.10998879373073578,0.05796215683221817,0.09767939895391464],[-0.0933706983923912,-0.0868951827287674,0.03929327055811882],[-0.11821067333221436,-0.056248847395181656,0.09467048943042755]],[[-0.03538915887475014,-0.0689292773604393,-0.028125962242484093],[0.08084619790315628,0.10848186165094376,-0.0966610237956047],[-0.0160225760191679,0.008851733058691025,-0.033536702394485474]],[[-0.10747196525335312,-0.014351475983858109,-0.0447959341108799],[0.08676820248365402,0.06522173434495926,0.03596031665802002],[-0.1333160549402237,-0.1407187581062317,0.0610940121114254]]],[[[0.03255804255604744,0.02628638595342636,0.019557839259505272],[0.030688460916280746,-0.010487175546586514,0.09511411935091019],[-0.06691253185272217,-0.06927467882633209,-0.1412646472454071]],[[-0.05904293432831764,0.05373625457286835,-0.059066709131002426],[0.06567443162202835,0.11033269017934799,-0.05002715811133385],[-0.09865633398294449,-0.05263511463999748,-0.049757733941078186]],[[-0.07325707376003265,-0.05870114639401436,0.08682966977357864],[0.11127860844135284,-0.005752338096499443,0.07192929834127426],[0.06401118636131287,0.059234220534563065,0.08645358681678772]],[[0.05167260393500328,0.2183036506175995,0.027211451902985573],[-0.029643265530467033,0.22010067105293274,0.1389142870903015],[0.012751230970025063,0.17881760001182556,-0.10615098476409912]],[[-0.12527528405189514,0.024228960275650024,-0.04339189827442169],[-0.05158056318759918,0.012721735052764416,0.03427499532699585],[0.09451916813850403,0.023746594786643982,-0.0041595040820539]],[[-0.011471870355308056,0.13032416999340057,-0.07199268043041229],[0.029071783646941185,0.047684650868177414,0.061431884765625],[-0.08713982999324799,0.009740357287228107,-0.03455469384789467]],[[0.010827366262674332,0.12886196374893188,-0.056315161287784576],[0.07957809418439865,-0.056962355971336365,0.12951244413852692],[0.012913285754621029,0.10986100882291794,0.08621764928102493]],[[-0.12475156784057617,-0.0010972277959808707,-0.08427581936120987],[-0.0014384851092472672,0.1404132843017578,0.1387549489736557],[0.008503269404172897,-0.0365150086581707,0.126592755317688]]],[[[0.09555508941411972,-0.039331115782260895,0.15121771395206451],[-0.03384534269571304,0.054343853145837784,-0.058737486600875854],[0.0531090684235096,0.006736498326063156,-0.11508405208587646]],[[0.12362735718488693,-0.07752861082553864,0.10723599046468735],[0.06571444123983383,-0.052645694464445114,-0.05122854560613632],[-0.1085478737950325,0.0643819198012352,-0.03730423003435135]],[[-0.052893199026584625,-0.07301020622253418,0.08692517876625061],[-0.07028238475322723,0.07511693984270096,0.03155240789055824],[0.07173605263233185,-0.05492617189884186,0.025574294850230217]],[[-0.01083977147936821,0.020450403913855553,0.18642732501029968],[0.07603013515472412,-0.020389635115861893,0.04206628352403641],[0.10326577723026276,0.00055913464166224,-0.3568831980228424]],[[-0.08888217061758041,-0.08455590158700943,0.08162765949964523],[-0.14089728891849518,-0.04836519435048103,0.02431124821305275],[0.0485600121319294,0.05227486416697502,-0.05300452187657356]],[[0.11216437071561813,0.13991552591323853,0.0030075283721089363],[-0.06635402888059616,0.10673889517784119,-0.030436530709266663],[-0.07121148705482483,0.10118758678436279,0.011346871964633465]],[[0.09214255213737488,0.0554095134139061,-0.1015305295586586],[0.07259295880794525,-0.041073013097047806,0.001981316367164254],[0.02426362968981266,0.02195432037115097,0.05564671754837036]],[[0.05289384722709656,0.12429293245077133,-0.03537152707576752],[-0.04304691404104233,-0.01988939195871353,-0.018135035410523415],[0.11339101940393448,0.01723453588783741,0.03651732578873634]]],[[[-0.020072972401976585,0.17806501686573029,0.21834027767181396],[-0.06160539761185646,-0.08798422664403915,-0.02068297192454338],[-0.0400988906621933,0.09335189312696457,0.11578622460365295]],[[0.052874017506837845,0.007679143454879522,-0.13019126653671265],[0.06903252005577087,0.12090317159891129,-0.10215270519256592],[0.08044461160898209,-0.002168230479583144,-0.13378213346004486]],[[-0.11836286634206772,-0.02331116981804371,0.00021855809609405696],[-0.1513054072856903,-0.05653845891356468,0.04936756193637848],[-0.001456909696571529,-0.06987074762582779,0.0017661534948274493]],[[0.6753767728805542,0.7645187377929688,-0.2901258170604706],[-0.023027263581752777,0.5842381119728088,-0.10123658925294876],[0.39522260427474976,0.7018566131591797,0.3153804838657379]],[[0.015983683988451958,-0.07329100370407104,0.016939308494329453],[-0.08646634221076965,0.06763847172260284,-0.05030912160873413],[0.09341610223054886,0.02619040571153164,0.04374626651406288]],[[0.04135479778051376,-0.062313999980688095,0.049824878573417664],[0.0067451042123138905,0.048671018332242966,0.09876912832260132],[0.10026179999113083,-0.040774066001176834,0.08765994757413864]],[[0.0013608555309474468,-0.007964813150465488,0.033764392137527466],[-0.09510140120983124,0.014885437674820423,0.08361629396677017],[0.03040890023112297,-0.020697416737675667,0.05910273268818855]],[[0.05657996982336044,-0.05640799552202225,-0.047865528613328934],[0.13441699743270874,0.056504204869270325,0.17858095467090607],[-0.005552472546696663,-0.08787472546100616,-0.03624624013900757]]],[[[-0.012532358057796955,0.12715694308280945,0.09220266342163086],[0.12942971289157867,0.07032228261232376,0.07541500777006149],[-0.07465367764234543,0.03653011843562126,-0.046357713639736176]],[[-0.01823839731514454,0.0981563925743103,0.09546171873807907],[-0.04229138791561127,0.08144845813512802,0.12383496016263962],[-0.08843524008989334,-0.027002418413758278,-0.022565718740224838]],[[0.005109471268951893,0.10192763805389404,0.049044620245695114],[0.15136730670928955,0.014807776547968388,0.14623944461345673],[0.09671397507190704,0.1071465015411377,0.11932790279388428]],[[0.012395557947456837,0.1052260622382164,-0.010333488695323467],[-0.060172151774168015,0.5718913674354553,-0.20894642174243927],[-0.46858254075050354,0.7412206530570984,-0.3918289542198181]],[[0.09298207610845566,-0.04458823800086975,0.08817001432180405],[0.13456420600414276,0.06712506711483002,0.05813446640968323],[-0.0014156375546008348,0.10190562158823013,0.12340307235717773]],[[0.024946602061390877,-0.09141591936349869,0.03719083219766617],[-0.001487511908635497,-0.11862954497337341,0.09180361032485962],[0.032393764704465866,-0.0473073311150074,0.07423534244298935]],[[0.12442000210285187,-0.018191933631896973,0.021803101524710655],[0.07532965391874313,-0.09729181975126266,-0.05627848207950592],[0.001893544802442193,-0.06138573959469795,0.032677024602890015]],[[-0.01842140220105648,0.043018877506256104,0.010214618407189846],[0.009188658557832241,-0.10536094009876251,0.07239211350679398],[-0.10264015197753906,0.0565992072224617,-0.11488448083400726]]]],"biases":[0.031774383038282394,0.06449654698371887,0.05723227187991142,0.15202845633029938,0.06526196002960205,0.13223546743392944,-0.03291086107492447,0.1693486124277115]},"conv5":{"weights":[[[[-0.059265658259391785,-0.08053512126207352,0.10357663035392761],[0.08092230558395386,-0.06025812774896622,0.04488334804773331],[-0.01716657541692257,0.007533001247793436,0.06846126168966293]],[[0.058258701115846634,0.017915591597557068,-0.10880975425243378],[0.03619872033596039,0.12768302857875824,-0.028522249311208725],[0.05070218816399574,0.024958251044154167,-0.034990083426237106]],[[-0.009190456941723824,0.09091363102197647,0.06286339461803436],[-0.08170345425605774,0.12053641676902771,0.05678565055131912],[-0.11689581722021103,-0.04132803529500961,-0.11155945062637329]],[[0.03346993401646614,-0.04810776934027672,-0.03158431127667427],[-0.03236522153019905,-0.05775775387883186,0.04098845645785332],[0.12924598157405853,-0.02272821217775345,-0.05714486166834831]],[[0.13139592111110687,0.09088440239429474,0.012684440240263939],[0.037681177258491516,0.08409940451383591,-0.02865908294916153],[-0.04103735089302063,0.09360884875059128,0.09414555132389069]],[[-0.025214171037077904,0.03925945982336998,0.015047903172671795],[-0.05317928269505501,0.1437874585390091,-0.02144671604037285],[-0.06845122575759888,0.10451760143041611,0.12632018327713013]],[[-0.07079199701547623,-0.02443106099963188,0.038287993520498276],[0.1488359570503235,0.05531686544418335,-0.05717555060982704],[0.05688813328742981,0.05720007047057152,0.0931195616722107]],[[0.06175536662340164,0.07667417824268341,0.09471193701028824],[0.00830092839896679,0.07550590485334396,-0.04504022002220154],[-0.09503688663244247,-0.12937873601913452,-0.09674308449029922]]],[[[0.026228055357933044,-0.20454664528369904,-0.09485883265733719],[-0.10767204314470291,0.058753322809934616,-0.03391972929239273],[0.09002179652452469,0.22058318555355072,0.007313377223908901]],[[-0.03959402069449425,-0.018201597034931183,-0.0887674018740654],[0.040945522487163544,-0.10144858807325363,0.06015290319919586],[-0.033443253487348557,-0.06381526589393616,-0.10160377621650696]],[[0.0849718376994133,0.04926887899637222,0.00443021347746253],[0.08218248188495636,-0.15869110822677612,0.15532346069812775],[0.0075665791518986225,-0.16644376516342163,0.1183120384812355]],[[0.036308255046606064,0.06654248386621475,0.11494475603103638],[-0.018730731680989265,0.020325902849435806,0.10801802575588226],[-0.013860874809324741,-0.029654990881681442,0.03747057169675827]],[[0.02497081272304058,-0.035196803510189056,0.12510092556476593],[-0.1746930330991745,0.012770825996994972,0.1476324200630188],[0.008869988843798637,-0.09437757730484009,-0.007035103160887957]],[[-0.06277891993522644,0.004929684568196535,-0.08526661247015],[-0.13132500648498535,0.028842031955718994,-0.04727547988295555],[-0.10800964385271072,-0.13886697590351105,-0.014752917923033237]],[[-0.05224025249481201,-0.1743561178445816,0.1757877916097641],[0.16453030705451965,-0.031227726489305496,0.18655887246131897],[0.01904797926545143,-0.02103227935731411,0.08779740333557129]],[[0.000012570170838444028,0.11312691122293472,0.010918079875409603],[0.11514020711183548,0.1067224070429802,-0.04604300856590271],[0.0714121162891388,0.04775170981884003,-0.04321137070655823]]],[[[0.07372985035181046,0.005785510875284672,-0.0675327479839325],[0.1350017637014389,0.10784964263439178,-0.061825841665267944],[0.008553946390748024,-0.02427888847887516,0.08630245178937912]],[[-0.09416273981332779,0.11303547024726868,0.10756994038820267],[-0.0709211453795433,0.1495707929134369,0.10054133087396622],[0.06828882545232773,0.09458691626787186,-0.031200069934129715]],[[-0.05090177431702614,0.09022266417741776,0.027249768376350403],[0.1070493832230568,0.04318009689450264,-0.009344587102532387],[0.09671465307474136,-0.03558585047721863,0.022624466568231583]],[[0.11949729174375534,0.022767286747694016,-0.06520727276802063],[-0.10323286801576614,-0.08369212597608566,0.027421562001109123],[-0.03068210743367672,0.05787285789847374,-0.06269815564155579]],[[0.0902198776602745,-0.04535121098160744,0.05423921346664429],[0.07043885439634323,0.06588301807641983,-0.018001047894358635],[0.036624688655138016,-0.01736113429069519,-0.08220797777175903]],[[-0.1340862512588501,0.12019701302051544,0.08374671638011932],[-0.04421728849411011,0.07066380977630615,0.028111351653933525],[-0.1130276620388031,0.07875264436006546,0.020416153594851494]],[[-0.02820204384624958,0.16418807208538055,0.07910595089197159],[0.07119602710008621,0.06824968755245209,0.039285916835069656],[-0.022484686225652695,-0.07628122717142105,0.08142637461423874]],[[0.00784214399755001,-0.10361123830080032,-0.05329790338873863],[0.04497082531452179,0.08329660445451736,0.021217534318566322],[-0.014806043356657028,-0.09580811113119125,-0.10947917401790619]]],[[[-0.06056514382362366,0.12739874422550201,-0.061217181384563446],[-0.0797017514705658,-0.04556503891944885,0.06090088561177254],[-0.018365459516644478,0.07213930040597916,-0.086287721991539]],[[0.0549524761736393,-0.025985969230532646,0.1373334527015686],[0.009240596555173397,0.14571446180343628,-0.07276245951652527],[-0.0316818542778492,0.1512206643819809,0.08426009118556976]],[[0.08191350102424622,0.003980482462793589,0.12115328013896942],[-0.06557445228099823,0.07628179341554642,0.03211488574743271],[0.023106146603822708,0.09950050711631775,0.06758281588554382]],[[0.0950201004743576,-0.017847709357738495,-0.10575830936431885],[-0.008970033377408981,0.027262961491942406,-0.02204853855073452],[-0.033378973603248596,0.08938983082771301,-0.12710624933242798]],[[-0.07913891971111298,0.07607966661453247,-0.07328418642282486],[0.10248935967683792,-0.07260363548994064,-0.0296812504529953],[-0.02993195317685604,0.11025889962911606,0.11652513593435287]],[[0.12121274322271347,-0.07169243693351746,-0.08108829706907272],[0.08382093906402588,0.1177821084856987,-0.09143751114606857],[0.07091622799634933,0.023112036287784576,0.06357806921005249]],[[0.020334582775831223,0.06352482736110687,-0.015630947425961494],[-0.04073396697640419,-0.06012287735939026,0.08788006007671356],[0.00529417535290122,-0.0730108916759491,0.0840599536895752]],[[0.03954538330435753,0.0028917337767779827,0.11765211820602417],[-0.10272444039583206,0.11774858087301254,-0.05033009871840477],[-0.03936717286705971,0.08058858662843704,0.12478919327259064]]],[[[-0.0714358314871788,0.0877908244729042,0.007731076329946518],[-0.13614778220653534,0.003154948353767395,-0.09350389987230301],[0.027693260461091995,-0.008824718184769154,0.05683450028300285]],[[0.09675982594490051,0.013069423846900463,-0.00807593297213316],[0.00825022254139185,0.06586015969514847,-0.06363465636968613],[0.025490159168839455,0.04574845731258392,-0.05158299207687378]],[[0.018300587311387062,-0.1020754873752594,0.05232637748122215],[-0.017255347222089767,0.07146988809108734,0.03528432548046112],[-0.03781163692474365,0.0682474821805954,0.0403381809592247]],[[0.043775394558906555,-0.01076871994882822,0.1200186014175415],[0.06105790659785271,-0.015058130025863647,-0.09273028373718262],[0.06494270265102386,0.07514675706624985,-0.07723430544137955]],[[-0.006017828360199928,-0.11575157195329666,-0.02823047898709774],[-0.0443771593272686,-0.08060577511787415,-0.02692149206995964],[-0.10886645317077637,-0.03247278556227684,0.09275691211223602]],[[-0.10311329364776611,-0.07477575540542603,0.11014173924922943],[-0.024669034406542778,0.04857657849788666,-0.08213334530591965],[0.0872795581817627,0.08570929616689682,0.02859632857143879]],[[-0.08500979840755463,0.014059461653232574,0.031202005222439766],[-0.03566136956214905,-0.1058710590004921,0.03274264186620712],[-0.02385164052248001,0.07433083653450012,0.10479371249675751]],[[0.07238011807203293,0.12053151428699493,0.012505817227065563],[-0.0029394077137112617,-0.08210434019565582,0.13262280821800232],[0.08901936560869217,-0.05249651521444321,-0.036053527146577835]]],[[[-0.05868598818778992,-0.005828317254781723,-0.06141524016857147],[0.13407544791698456,0.20659995079040527,0.07147181034088135],[-0.0603635311126709,-0.1006779596209526,-0.1465321034193039]],[[0.027384819462895393,-0.07042142003774643,0.06825663894414902],[-0.06347662210464478,0.10903488099575043,0.07296964526176453],[-0.08013313263654709,-0.0763569176197052,-0.06021643802523613]],[[0.06792386621236801,0.0674881562590599,-0.005119947716593742],[-0.029076531529426575,0.194469153881073,-0.004095409065485001],[-0.040938910096883774,0.02651134505867958,0.06613195687532425]],[[-0.09465041756629944,-0.04411707818508148,-0.0497121587395668],[0.12386316806077957,0.11755423992872238,-0.017771348357200623],[-0.10514175146818161,0.048429712653160095,0.00009873673116089776]],[[-0.03708774968981743,0.21444149315357208,0.012747321277856827],[-0.04411398991942406,0.0428018718957901,-0.10225098580121994],[-0.06767643988132477,-0.12548315525054932,-0.1224355474114418]],[[0.01775108277797699,-0.0798707827925682,-0.027841685339808464],[0.1406129151582718,-0.00041132295154966414,-0.0678873360157013],[0.019064249470829964,0.05588633194565773,0.06905563920736313]],[[0.11258243024349213,0.16154606640338898,0.03212178125977516],[0.12128132581710815,0.15724898874759674,0.13468222320079803],[0.13101516664028168,0.020683275535702705,0.03568904846906662]],[[0.08037100732326508,0.06639957427978516,0.03722505643963814],[-0.028263460844755173,0.09346392005681992,-0.13698984682559967],[-0.045601896941661835,0.0898224264383316,-0.18578746914863586]]],[[[-0.12756109237670898,-0.03441393002867699,0.09660916775465012],[0.0641140416264534,-0.04502919316291809,0.09146694093942642],[-0.04796907678246498,-0.025929579511284828,0.029359225183725357]],[[-0.03720419853925705,-0.07680076360702515,0.10286679863929749],[0.08973533660173416,0.05790290981531143,0.03642494976520538],[0.03123077005147934,0.031852252781391144,0.07384852319955826]],[[0.14308865368366241,-0.02920777164399624,0.04023182392120361],[-0.081539086997509,-0.006871080957353115,0.014872618950903416],[0.07197955995798111,-0.04188310354948044,-0.11730927228927612]],[[0.002009659307077527,-0.035293810069561005,0.056773483753204346],[0.02516557276248932,0.07974164932966232,-0.009699846617877483],[-0.1168166995048523,0.02373146265745163,-0.08163730800151825]],[[0.07145953178405762,0.08333570510149002,0.0024294171016663313],[0.08523867279291153,0.012670674361288548,-0.06319886445999146],[0.11864767223596573,-0.03910013660788536,-0.07989371567964554]],[[0.07683813571929932,0.07019001245498657,0.08306968212127686],[0.022012386471033096,0.07787536084651947,-0.004660583101212978],[-0.007932152599096298,-0.10897387564182281,0.02046898566186428]],[[0.11864718794822693,-0.08314726501703262,-0.0807822123169899],[0.007236400619149208,0.029409585520625114,-0.07142765074968338],[0.004367429297417402,-0.08457246422767639,-0.004183311481028795]],[[-0.07754650712013245,-0.11990679055452347,0.1275455802679062],[0.06125594303011894,-0.028713103383779526,0.10419659316539764],[0.09735771268606186,-0.06847468763589859,0.03498336672782898]]],[[[-0.0444234199821949,-0.10311787575483322,-0.08480623364448547],[-0.14900389313697815,-0.0439632385969162,-0.04566345736384392],[0.0881401002407074,-0.09018388390541077,-0.011878890916705132]],[[0.03191538155078888,-0.04258106276392937,0.03519120439887047],[0.031498365104198456,-0.056745536625385284,0.06681803613901138],[-0.041108161211013794,0.06490858644247055,-0.045931629836559296]],[[-0.029963122680783272,-0.11079660803079605,-0.025249000638723373],[0.014649633318185806,-0.041968878358602524,0.006155986804515123],[0.13016346096992493,0.023780593648552895,0.06484749168157578]],[[-0.013322053477168083,0.1376768946647644,0.07697154581546783],[0.10065706819295883,0.15168094635009766,0.02650907263159752],[0.06402524560689926,0.1667383462190628,0.050312500447034836]],[[0.004428501706570387,0.04312537983059883,-0.008217974565923214],[-0.016520719975233078,-0.0882624164223671,0.051051873713731766],[0.06975331902503967,0.001456946018151939,-0.044430334120988846]],[[-0.051581971347332,-0.02303563430905342,-0.017508750781416893],[-0.023976147174835205,-0.037284497171640396,-0.035901546478271484],[0.006589903030544519,0.06114588677883148,-0.012387609109282494]],[[-0.01792347989976406,0.03966871276497841,0.08000784367322922],[-0.16491860151290894,-0.04995432123541832,0.10383087396621704],[-0.06980306655168533,-0.027873797342181206,0.010577461682260036]],[[0.027091383934020996,-0.03677104786038399,-0.002411650726571679],[0.12424101680517197,0.08080324530601501,0.020247001200914383],[-0.05027501657605171,0.08819371461868286,-0.004097117576748133]]]],"biases":[0.0904189795255661,-0.044754788279533386,0.09505072236061096,0.08540400862693787,-0.02158087119460106,-0.06011011451482773,0.04875621944665909,0.06911865621805191]},"conv6":{"weights":[[[[0.07252049446105957,0.10676354169845581,-0.06248408183455467],[-0.03325596824288368,0.046207088977098465,-0.05491279065608978],[0.09262184798717499,0.057371754199266434,0.12800374627113342]],[[-0.11114426702260971,-0.050787512212991714,0.0017211571102961898],[0.0329805426299572,-0.0028479769825935364,-0.03229476138949394],[-0.14756405353546143,-0.0006783815915696323,-0.06073496863245964]],[[0.14713937044143677,-0.007842800579965115,-0.017418866977095604],[-0.01295714545994997,-0.07394228875637054,-0.0362183153629303],[0.05372156947851181,0.01928931288421154,-0.08522053807973862]],[[0.10617370903491974,0.10461126267910004,0.08342134952545166],[-0.033904049545526505,0.002669918816536665,0.06551124155521393],[0.05737536400556564,0.016627835109829903,0.08266288787126541]],[[-0.02569018118083477,-0.004238633438944817,-0.09132623672485352],[0.0016033361898735166,0.02860334888100624,-0.101590596139431],[0.0025269652251154184,-0.014034654945135117,0.03973035886883736]],[[0.04661976173520088,0.02472146600484848,0.027525488287210464],[-0.061256278306245804,-0.0006432587979361415,0.06023424491286278],[-0.13348683714866638,-0.09295958280563354,-0.011421719565987587]],[[-0.025418542325496674,0.016758227720856667,0.12770122289657593],[0.03968976438045502,-0.013839999213814735,0.1197463646531105],[0.029047692194581032,0.029931340366601944,-0.07367957383394241]],[[0.032495319843292236,0.10129636526107788,0.06465066969394684],[-0.08228716999292374,-0.0980202704668045,-0.058375194668769836],[0.05342044308781624,0.09921161830425262,0.11866241693496704]]],[[[0.04404926300048828,-0.10487611591815948,-0.06064865365624428],[-0.019870614632964134,0.12376685440540314,0.060342174023389816],[0.038433898240327835,0.08907739073038101,0.009007415734231472]],[[0.16988228261470795,-0.18595139682292938,-0.22197680175304413],[0.1365855485200882,-0.07762327790260315,0.04609045758843422],[0.08159108459949493,-0.04000416770577431,0.017774630337953568]],[[-0.09904725104570389,0.009611346758902073,0.07980918139219284],[0.10894802212715149,-0.04124782979488373,0.04045068845152855],[0.12071967124938965,0.049076758325099945,0.11283877491950989]],[[0.09350144118070602,0.056939586997032166,0.015645604580640793],[0.031115246936678886,-0.07886417210102081,0.024810152128338814],[0.0835636556148529,-0.03371234983205795,-0.002130864653736353]],[[0.0477873757481575,-0.0819251537322998,-0.0927247405052185],[0.007065265439450741,-0.11898878216743469,0.04538906365633011],[-0.03533316031098366,-0.07514563947916031,-0.0739104151725769]],[[0.0654933899641037,0.00108777463901788,-0.04827681928873062],[0.008594563230872154,0.17144154012203217,-0.04233645275235176],[0.15850616991519928,-0.013308714143931866,0.1360977590084076]],[[-0.0895196720957756,-0.10494806617498398,-0.03174293041229248],[0.042050834745168686,-0.11776218563318253,0.04725531488656998],[-0.0767270177602768,-0.06958728283643723,-0.027602022513747215]],[[0.04153932258486748,0.03821153566241264,0.09921328723430634],[-0.09052229672670364,-0.05629082769155502,0.00831892341375351],[0.027036944404244423,-0.13414040207862854,0.038290128111839294]]],[[[0.04099022224545479,-0.04746687039732933,-0.013835339806973934],[0.005300047807395458,0.20936289429664612,-0.04466383531689644],[0.09445929527282715,0.03474723920226097,0.06935819238424301]],[[-0.020383432507514954,-0.20386750996112823,-0.0911979004740715],[0.13504362106323242,-0.17476169764995575,0.012917360290884972],[0.040130238980054855,-0.03578679636120796,0.00027222305652685463]],[[-0.0693032294511795,-0.03768829628825188,-0.07452276349067688],[0.1707855463027954,0.15982377529144287,0.019229911267757416],[0.040727533400058746,0.11854778230190277,-0.09205512702465057]],[[0.10230646282434464,0.038737423717975616,0.03385725989937782],[0.08804573863744736,0.05874457210302353,0.04282571002840996],[0.04473201557993889,0.02045067772269249,0.05341430380940437]],[[0.01024661585688591,-0.09280024468898773,-0.09945931285619736],[-0.07376614958047867,-0.12169741094112396,0.05411555990576744],[-0.1692277491092682,-0.12102901935577393,0.061861809343099594]],[[-0.023531079292297363,0.04943990334868431,0.14537310600280762],[0.06047271937131882,0.219425767660141,0.024612274020910263],[0.14579656720161438,0.20400415360927582,0.12005013972520828]],[[-0.06759730726480484,-0.03257495537400246,0.09804216027259827],[-0.015418166294693947,0.1321164071559906,-0.07529842853546143],[-0.0651150569319725,0.13076679408550262,-0.06843697279691696]],[[-0.08844553679227829,0.0985051617026329,0.19393855333328247],[-0.09449325501918793,-0.10176964849233627,0.038049060851335526],[-0.13406024873256683,-0.03647971153259277,-0.04997409135103226]]],[[[0.0887238159775734,-0.04589630290865898,0.04694098234176636],[-0.08248317241668701,0.1531805545091629,0.11005678027868271],[0.13873103260993958,-0.043473489582538605,0.1561339944601059]],[[-0.06518766283988953,0.01488504372537136,-0.06365513801574707],[0.1499996930360794,0.2295147031545639,0.013825858943164349],[0.050262175500392914,0.1187356561422348,0.02561950497329235]],[[0.040313780307769775,-0.08348351716995239,-0.09448134154081345],[0.12793684005737305,-0.026682045310735703,0.05910806357860565],[0.04100552573800087,0.11861775070428848,0.09783531725406647]],[[0.06907956302165985,-0.04478903114795685,-0.11669652909040451],[0.10291148722171783,0.03046180121600628,-0.06823430210351944],[0.014974914491176605,-0.015112383291125298,-0.03478045389056206]],[[0.19273795187473297,0.047829195857048035,0.1396430879831314],[0.17211014032363892,-0.038129907101392746,-0.08733970671892166],[-0.10542664676904678,-0.1365983784198761,-0.10731690376996994]],[[-0.005609889980405569,-0.08685678243637085,-0.017346525564789772],[-0.09315979480743408,0.06388306617736816,-0.0809369832277298],[0.050561513751745224,-0.0011615754337981343,0.08131259679794312]],[[0.06016801297664642,0.07279857248067856,0.10008922964334488],[0.03243201598525047,-0.12311545759439468,0.10336792469024658],[0.04553056135773659,-0.003158238949254155,0.07238232344388962]],[[0.04038611799478531,0.0043188720010221004,-0.09784571826457977],[0.05574391409754753,-0.1381208747625351,-0.07078356295824051],[0.010842191986739635,-0.016430165618658066,-0.1696569174528122]]],[[[-0.10291457176208496,0.13055425882339478,-0.0027728211134672165],[0.04903296008706093,0.07674364000558853,-0.09354570508003235],[0.043537117540836334,-0.04935818165540695,0.0060600112192332745]],[[0.00204527098685503,-0.05910199508070946,-0.10072492063045502],[0.07256471365690231,0.02872570790350437,-0.04511779174208641],[0.11271881312131882,0.08749060332775116,-0.07998999953269958]],[[0.09996781498193741,-0.012522894889116287,-0.04413330554962158],[0.04994194954633713,-0.0871385931968689,0.12860223650932312],[0.01825759932398796,-0.044551484286785126,0.01687302626669407]],[[0.11342699080705643,0.0009651228319853544,0.11514390259981155],[0.09454880654811859,-0.059494566172361374,0.02192682959139347],[-0.015023615211248398,0.1229960098862648,0.09490922093391418]],[[-0.10072844475507736,-0.11464031040668488,-0.07970395684242249],[-0.036365799605846405,-0.01793988235294819,-0.07203705608844757],[-0.1005394235253334,0.009029952809214592,-0.06960347294807434]],[[-0.07047750800848007,-0.10119707137346268,-0.04290202632546425],[0.12910209596157074,0.13465365767478943,-0.019943544641137123],[0.07506553083658218,-0.07892929017543793,0.1274973750114441]],[[0.046396803110837936,0.09600899368524551,-0.06468112766742706],[0.021220291033387184,-0.060153886675834656,0.028573088347911835],[0.049667853862047195,-0.06729726493358612,0.07669428735971451]],[[-0.09799348562955856,-0.035695403814315796,0.05555132031440735],[-0.09592532366514206,-0.033582840114831924,0.041526176035404205],[-0.029588649049401283,-0.011993542313575745,-0.1043187826871872]]],[[[0.024914175271987915,0.07419360429048538,-0.07117079943418503],[-0.02047312632203102,-0.09135853499174118,0.05703805387020111],[0.03468343988060951,-0.1146208867430687,0.10441560298204422]],[[0.15119116008281708,0.009780101478099823,0.04455740004777908],[0.08228079229593277,0.20175780355930328,0.03194468468427658],[0.0909494012594223,0.14879578351974487,0.0255274698138237]],[[0.0053556133061647415,0.0012738879304379225,-0.06475602090358734],[0.08545514196157455,-0.1039569303393364,-0.03257213905453682],[-0.07847487926483154,0.07706590741872787,0.06477870792150497]],[[0.0058913868851959705,0.04315394535660744,-0.09519925713539124],[0.09786437451839447,0.09701986610889435,0.010949771851301193],[0.07282128185033798,-0.06391769647598267,-0.07945122569799423]],[[0.05466252565383911,-0.05164036154747009,-0.01624145545065403],[0.11350520700216293,0.10630258172750473,0.0915035754442215],[0.12824906408786774,0.20538108050823212,0.04538396745920181]],[[-0.05623067915439606,-0.10795783251523972,0.06057891994714737],[-0.14518395066261292,-0.032207440584897995,0.09288506209850311],[-0.11899937689304352,-0.09071215242147446,-0.07333000004291534]],[[0.009777771309018135,0.00761148938909173,0.05772190913558006],[0.11718804389238358,-0.031532030552625656,0.008146652951836586],[0.04500116407871246,0.07909868657588959,-0.046975791454315186]],[[0.03066374361515045,0.007242847234010696,-0.02842037007212639],[-0.0028970716521143913,0.08272841572761536,0.12257417291402817],[-0.014946398325264454,0.021779708564281464,0.07114493101835251]]],[[[0.008481490425765514,0.04773055389523506,0.04586917906999588],[-0.08345705270767212,0.16571946442127228,0.11278779059648514],[-0.11534006148576736,0.06250936537981033,0.00822890643030405]],[[-0.03490562364459038,-0.17240780591964722,0.09579328447580338],[-0.02430231124162674,-0.03272943198680878,0.13050484657287598],[-0.08568593114614487,-0.15867260098457336,0.0022363087628036737]],[[0.01442710030823946,0.04060415178537369,0.08492778241634369],[0.08933704346418381,-0.029566489160060883,0.05301368609070778],[0.015247837640345097,0.08835262805223465,-0.0395825020968914]],[[0.0451374277472496,0.14120981097221375,-0.05861091986298561],[0.02674967423081398,0.05380854383111,0.09141719341278076],[0.03893521428108215,-0.0902857854962349,-0.028397541493177414]],[[0.024994302541017532,0.20794478058815002,0.15708957612514496],[-0.01868884451687336,0.09740722179412842,-0.03665117546916008],[-0.10053354501724243,-0.016668567433953285,-0.0956132560968399]],[[-0.16973814368247986,-0.004041107837110758,-0.17905853688716888],[-0.10884995758533478,-0.0006624969537369907,-0.04962917044758797],[0.10844692587852478,0.13031715154647827,-0.04020687937736511]],[[-0.003357419278472662,-0.13670790195465088,-0.04838093742728233],[0.0713781788945198,0.03757617622613907,-0.07219317555427551],[0.00528385303914547,-0.005812942050397396,0.09248485416173935]],[[0.10869098454713821,-0.07278171926736832,-0.13737981021404266],[-0.061756957322359085,-0.1424321085214615,-0.1725255697965622],[-0.054727740585803986,-0.04627210274338722,-0.008610190823674202]]],[[[-0.04587413743138313,0.054852403700351715,-0.14880119264125824],[-0.011460712179541588,0.11915683001279831,0.04881726950407028],[-0.12246641516685486,0.06299418956041336,0.010060637257993221]],[[-0.1283964067697525,-0.15154200792312622,0.13556307554244995],[0.0006377947865985334,0.20317944884300232,-0.05985605716705322],[-0.12164691835641861,0.030139071866869926,0.02268652245402336]],[[0.020232176408171654,0.01771126687526703,-0.08906660228967667],[0.05826286971569061,-0.02192709781229496,-0.01644054800271988],[-0.0572187602519989,-0.07755431532859802,-0.0374925397336483]],[[-0.0657176524400711,0.0699191689491272,0.023427346721291542],[0.08064776659011841,-0.059210848063230515,-0.011364978738129139],[0.09495293349027634,0.07050538063049316,-0.08072265237569809]],[[0.02036302722990513,0.16568173468112946,0.04416416585445404],[0.027690667659044266,0.1085207611322403,0.059757333248853683],[0.05909710004925728,0.13931423425674438,0.06846225261688232]],[[-0.020485997200012207,-0.05768980085849762,0.1230727806687355],[-0.07443180680274963,0.12000979483127594,0.07952217012643814],[0.0652916356921196,-0.0894484743475914,-0.07588912546634674]],[[0.04451402276754379,-0.06752771139144897,0.04351876676082611],[0.07372411340475082,0.02610156312584877,-0.12549282610416412],[-0.03705232962965965,-0.0839700773358345,-0.08870312571525574]],[[0.09316518902778625,-0.028881283476948738,0.13768309354782104],[0.11564230173826218,0.07154588401317596,0.03903380408883095],[0.16497592628002167,0.14900276064872742,-0.01354410219937563]]]],"biases":[-0.007187912240624428,-0.06365357339382172,0.036465778946876526,0.0692489966750145,0.09701794385910034,-0.03317735344171524,0.051471561193466187,0.08878137171268463]},"conv7":{"weights":[[[[-0.04589046165347099,-0.04587184637784958,0.17685899138450623],[-0.14597594738006592,-0.18415537476539612,0.002613379852846265],[0.08705002814531326,-0.002342390827834606,0.05081728473305702]],[[0.17183077335357666,-0.00438081007450819,-0.021463626995682716],[0.0681973472237587,0.042433373630046844,0.17002765834331512],[-0.11019036173820496,-0.05135047808289528,0.1557811200618744]],[[-0.31805068254470825,-0.20158594846725464,0.2822032570838928],[0.08942631632089615,-0.16730454564094543,-0.1339123249053955],[0.04650677740573883,-0.1665969341993332,0.017838556319475174]],[[0.24110382795333862,0.019607501104474068,-0.0290974210947752],[0.08306688815355301,0.1489570289850235,-0.14071068167686462],[0.05384919047355652,0.030820311978459358,0.025579841807484627]],[[0.06222481280565262,0.020933540537953377,0.06500503420829773],[-0.05063346400856972,0.06310208141803741,-0.1418488770723343],[0.17881760001182556,-0.10758274793624878,-0.026426611468195915]],[[-0.1182401180267334,-0.22060370445251465,-0.2951756417751312],[0.09908808022737503,0.15523141622543335,0.05505673587322235],[-0.013498293235898018,-0.01582428440451622,-0.32130011916160583]],[[-0.22565044462680817,-0.051869142800569534,0.2437833696603775],[0.18593209981918335,-0.4026716649532318,-0.08430058509111404],[-0.0012271961895748973,-0.09774595499038696,0.30199575424194336]],[[-0.317688524723053,-0.0905952900648117,0.6074482202529907],[-0.03716938570141792,0.1491234302520752,-0.0764404684305191],[-0.0044836183078587055,-0.03291257470846176,0.143961563706398]]],[[[-0.056896109133958817,0.0974818766117096,-0.09718453139066696],[0.026377733796834946,0.15573376417160034,-0.08646704256534576],[-0.024515099823474884,-0.010974024422466755,-0.2989748418331146]],[[0.09931700676679611,-0.27452123165130615,-0.6470500826835632],[0.10817240923643112,-0.06535512208938599,-0.17512811720371246],[0.039491426199674606,-0.0067735821940004826,-0.06877969950437546]],[[-0.017180459573864937,0.030750928446650505,0.13482354581356049],[-0.20872186124324799,-0.06610145419836044,-0.28819215297698975],[0.03929451107978821,0.11242213845252991,-0.08310674875974655]],[[0.0743766650557518,-0.0590922087430954,0.40265920758247375],[-0.20050297677516937,-0.07989510148763657,0.152894988656044],[0.042274314910173416,-0.0036303456872701645,0.10083535313606262]],[[0.01625358685851097,-0.02636602334678173,-0.3324984312057495],[-0.09218180924654007,0.09456045925617218,-0.15210194885730743],[0.029464473947882652,0.05586979165673256,-0.00163554516620934]],[[-0.29836297035217285,0.01870657689869404,-0.004006876610219479],[-0.1267177164554596,-0.006598825100809336,0.03679804503917694],[0.04920058697462082,0.18929478526115417,0.07404788583517075]],[[0.34070178866386414,-0.3377370238304138,0.25670766830444336],[0.6239290237426758,-0.5140870809555054,0.40929463505744934],[0.44236859679222107,-0.08979262411594391,0.23085850477218628]],[[-0.19710667431354523,-0.30602923035621643,-0.06087932735681534],[0.048715412616729736,0.18152792751789093,0.10490255057811737],[0.10504688322544098,0.16205132007598877,-0.0332220084965229]]],[[[-0.016109731048345566,-0.08543818444013596,-0.09165355563163757],[-0.016789337620139122,-0.007603868842124939,0.09584219008684158],[-0.17093689739704132,-0.0001933597814058885,0.14291462302207947]],[[0.0049709598533809185,0.0785508006811142,-0.022520186379551888],[0.03644557669758797,0.23571112751960754,-0.03610203415155411],[0.01041578408330679,0.10171116143465042,-0.06332086771726608]],[[0.07938326150178909,0.17657428979873657,0.15004906058311462],[0.09955217689275742,0.12800785899162292,0.18725061416625977],[0.02399943210184574,0.11134938150644302,0.026972150430083275]],[[0.16962596774101257,0.0709335207939148,0.07935218513011932],[0.07107022404670715,-0.03552926331758499,0.018494771793484688],[0.051867127418518066,-0.1140592023730278,-0.10572446137666702]],[[0.06288523972034454,0.08364185690879822,-0.0828166976571083],[0.07882869243621826,0.032847363501787186,0.07983576506376266],[-0.02644006907939911,0.08374619483947754,0.13013772666454315]],[[-0.10403136163949966,0.039153050631284714,0.17707699537277222],[-0.23151375353336334,-0.18284724652767181,-0.08136248588562012],[-0.009530878625810146,0.10369165986776352,-0.0380471907556057]],[[-0.04261652007699013,0.05232865363359451,-0.0016904158983379602],[0.04791441559791565,0.09268500655889511,0.15561631321907043],[-0.07407020032405853,-0.020759785547852516,-0.019708091393113136]],[[0.14146392047405243,-0.2426307052373886,0.013016332872211933],[-0.033209241926670074,-0.13992621004581451,0.0030740643851459026],[-0.03185136988759041,0.06585897505283356,-0.02243499830365181]]],[[[0.09663056582212448,-0.003513361793011427,0.03598780184984207],[0.11218053102493286,0.05737005174160004,0.08181285858154297],[-0.09016688913106918,0.08527331799268723,0.10188452899456024]],[[-0.05300433933734894,0.06444485485553741,-0.0216794665902853],[0.03246670588850975,0.07281851768493652,0.0983334481716156],[-0.05632302537560463,-0.08173126727342606,-0.008629132993519306]],[[-0.0848565399646759,0.116534024477005,0.020798537880182266],[-0.0209001824259758,0.10385624319314957,-0.010268156416714191],[-0.08918621391057968,0.05050363019108772,0.012695815414190292]],[[-0.04931382089853287,-0.1121726930141449,-0.015398318879306316],[0.024342775344848633,0.0920361876487732,0.06518653780221939],[0.03494991734623909,0.09199697524309158,-0.10007134824991226]],[[-0.0693214163184166,0.09985525161027908,0.1146925836801529],[0.059692852199077606,0.14913295209407806,-0.023130381479859352],[0.047688208520412445,-0.015203608199954033,-0.04571903869509697]],[[-0.0032886825501918793,0.025122052058577538,0.025800663977861404],[0.043598029762506485,0.03406482934951782,-0.05068376660346985],[-0.06550373136997223,0.06326965242624283,-0.02554408088326454]],[[0.010694848373532295,0.019442521035671234,-0.06597878783941269],[0.03510245680809021,-0.0008181211305782199,-0.016980230808258057],[0.011692514643073082,0.017114074900746346,0.06348911672830582]],[[-0.0892781913280487,-0.02230093814432621,0.10604295879602432],[0.08743724226951599,0.0153241828083992,-0.09828479588031769],[-0.10921286046504974,-0.0050955298356711864,0.06004706770181656]]],[[[-0.022172925993800163,-0.09463690966367722,-0.07976707816123962],[-0.036005303263664246,-0.001509912428446114,-0.04762479290366173],[0.022439921274781227,0.004758081398904324,-0.27279579639434814]],[[-0.015322830528020859,-0.478837788105011,-0.10140284895896912],[-0.069071926176548,-0.5757222771644592,0.005186459515243769],[0.1288882941007614,-0.23769596219062805,-0.18566885590553284]],[[-0.057185545563697815,0.0421527698636055,0.036561302840709686],[0.11063237488269806,-0.1544605940580368,0.27009153366088867],[0.2311515510082245,-0.008086580783128738,0.23639990389347076]],[[-0.13175973296165466,0.023656796663999557,-0.16651934385299683],[-0.1638488471508026,0.09864020347595215,-0.02316267229616642],[0.08485344052314758,0.04575222730636597,0.1363302618265152]],[[0.06006263196468353,0.11516480892896652,-0.1772364228963852],[-0.05400573089718819,0.1742437183856964,-0.41484612226486206],[-0.03963453322649002,-0.04060456529259682,-0.4681607782840729]],[[-0.06862615793943405,-0.05551888793706894,-0.2499367594718933],[0.12123893946409225,0.15564611554145813,-0.5103962421417236],[0.13346494734287262,0.08069612085819244,-0.5989186763763428]],[[0.11547867208719254,-0.6856387853622437,-0.12137958407402039],[-0.03996520861983299,-1.2781143188476562,-0.04919583722949028],[0.128029003739357,-0.86604905128479,0.0768088549375534]],[[-0.0748438835144043,-0.02815604768693447,0.12739913165569305],[0.262525737285614,0.2659934461116791,-0.08092395216226578],[0.08041476458311081,-0.16189005970954895,-0.156932532787323]]],[[[-0.006678141187876463,0.11877437680959702,-0.08725862205028534],[-0.16964204609394073,-0.08834172040224075,-0.035617895424366],[-0.12943106889724731,-0.08451307564973831,-0.022227296605706215]],[[-0.09932074695825577,-0.081419937312603,0.059127889573574066],[-0.019370608031749725,0.0394255556166172,0.05805691331624985],[-0.14271599054336548,-0.11717790365219116,0.0437859371304512]],[[-0.09367423504590988,-0.06345750391483307,-0.09518208354711533],[-0.07024834305047989,0.1080651581287384,-0.06169145926833153],[0.13519546389579773,-0.0033798597287386656,0.08646181225776672]],[[-0.1513662189245224,0.06020417809486389,-0.10743134468793869],[-0.22263652086257935,-0.13608500361442566,-0.1634746789932251],[0.07447604089975357,-0.002247236203402281,0.020557882264256477]],[[0.09632333368062973,0.08397186547517776,0.056507792323827744],[0.08026133477687836,0.08931881189346313,0.014704356901347637],[-0.04264426976442337,0.014066600240767002,-0.04878193140029907]],[[-0.17360739409923553,-0.015654126182198524,-0.09065060317516327],[-0.014672842808067799,0.1997879445552826,0.014274423010647297],[0.1176552027463913,0.11259019374847412,-0.04756215214729309]],[[0.22677339613437653,0.23925736546516418,0.034082263708114624],[0.21905666589736938,0.04405054450035095,0.0911690890789032],[0.19574198126792908,-0.04702441021800041,-0.047721054404973984]],[[-0.10293104499578476,-0.3132915198802948,0.094016432762146],[-0.06776344776153564,-0.012400372885167599,0.09037565439939499],[0.020160499960184097,-0.0046826619654893875,0.01118281576782465]]],[[[0.10528774559497833,-0.061355579644441605,0.021094782277941704],[0.09355614334344864,0.0822904109954834,0.06059367209672928],[-0.021358514204621315,-0.09095454216003418,-0.005113318096846342]],[[0.08230962604284286,-0.021559257060289383,0.10586858540773392],[0.08547022193670273,-0.023722689598798752,-0.00850877445191145],[0.08509868383407593,0.025671551004052162,0.03996143490076065]],[[-0.033712200820446014,0.05256038159132004,-0.10478975623846054],[-0.05428261682391167,0.04768742248415947,0.054215818643569946],[0.025846796110272408,-0.0019534770399332047,-0.022851930931210518]],[[0.05923615023493767,-0.100725457072258,-0.001610968029126525],[0.07206669449806213,0.03448253870010376,-0.027282511815428734],[-0.054037995636463165,-0.10648452490568161,-0.03523515909910202]],[[-0.029336607083678246,-0.003665114054456353,0.02255783975124359],[0.023494049906730652,0.12736128270626068,0.053719960153102875],[0.03075738251209259,-0.11811352521181107,-0.09361876547336578]],[[-0.008543046191334724,-0.05823340266942978,0.06194405257701874],[-0.13141095638275146,-0.08170469105243683,-0.049911562353372574],[0.10195951908826828,0.04297807440161705,0.1238040179014206]],[[0.07587535679340363,0.009080993011593819,0.16326074302196503],[-0.10735460370779037,-0.060255035758018494,0.07123421877622604],[0.02522866800427437,0.11246230453252792,0.07978492975234985]],[[-0.14856910705566406,-0.06807777285575867,-0.05377785116434097],[-0.017854316160082817,-0.05908073112368584,0.13041287660598755],[-0.04236933961510658,-0.01644238829612732,0.05769234523177147]]],[[[0.008747846819460392,-0.08056890964508057,0.12078879773616791],[-0.07587555795907974,-0.0030440231785178185,-0.061791710555553436],[0.093314990401268,-0.019095659255981445,0.03649206832051277]],[[-0.06891333311796188,-0.03877181187272072,-0.05728656053543091],[0.06548415869474411,0.02510324865579605,-0.052350763231515884],[0.03395187109708786,0.1233164444565773,0.07440931349992752]],[[-0.1072244644165039,0.036751650273799896,-0.04574860259890556],[-0.03939654678106308,-0.02680274285376072,-0.006099986843764782],[-0.01980854943394661,-0.07384207844734192,0.09874717891216278]],[[0.07975394278764725,-0.0713982805609703,-0.007926438935101032],[0.02754916250705719,0.11273287981748581,-0.011206433176994324],[0.02066136710345745,0.0546375997364521,0.07899762690067291]],[[0.054441358894109726,0.10250196605920792,0.0888817310333252],[0.09129595011472702,0.05384519323706627,-0.1151212826371193],[-0.10373877733945847,0.09308768063783646,0.09459847956895828]],[[0.09710101783275604,-0.006552207283675671,-0.048301342874765396],[-0.06676212698221207,-0.03669029101729393,-0.1087421253323555],[-0.0699574202299118,0.03957981988787651,-0.07499437034130096]],[[-0.011085594072937965,-0.0826990157365799,-0.026579037308692932],[0.03549985960125923,0.11594473570585251,0.03716956079006195],[-0.10110825300216675,0.10599523782730103,0.008191953413188457]],[[-0.09809069335460663,0.09622171521186829,0.0010077627375721931],[-0.0717754065990448,-0.127240851521492,-0.05503535270690918],[0.03720156103372574,-0.061171453446149826,0.08282119780778885]]]],"biases":[0.13772353529930115,0.14110401272773743,0.27261343598365784,-0.04927819222211838,0.1701136976480484,0.14883431792259216,-0.098244309425354,0.07719356566667557]},"conv8":{"weights":[[[[-0.017853785306215286,-0.055436696857213974,-0.032936450093984604],[-0.05797034129500389,-0.1266719102859497,-0.06296031177043915],[-0.11307625472545624,0.0023222160525619984,0.06986585259437561]],[[-0.04926340654492378,0.03301267325878143,0.15179090201854706],[0.02320668287575245,-0.010224862024188042,0.15571404993534088],[0.006508457008749247,-0.003334876848384738,0.01623903587460518]],[[0.007328855339437723,0.059800148010253906,-0.10769439488649368],[0.10436782240867615,-0.06660535931587219,0.08901069313287735],[-0.04931219294667244,-0.1010652482509613,0.0007712611695751548]],[[0.04906483739614487,-0.13216063380241394,0.0481780469417572],[-0.10752890259027481,-0.16657507419586182,-0.010109679773449898],[0.003481823718175292,-0.0015652298461645842,-0.09244269877672195]],[[-0.1144411489367485,-0.14787696301937103,0.04788016527891159],[-0.06624732166528702,-0.11369715631008148,-0.07664836198091507],[0.06357231736183167,-0.02546846680343151,0.08823070675134659]],[[0.03855719789862633,-0.014167582616209984,-0.10468577593564987],[-0.014321696944534779,-0.13686369359493256,-0.007468052674084902],[0.003939115442335606,-0.04634024575352669,-0.0576186329126358]],[[0.10750824213027954,-0.20401529967784882,0.1320054680109024],[-0.14521868526935577,-0.40393590927124023,0.1012052521109581],[0.21599894762039185,0.29573455452919006,-0.03574875369668007]],[[0.044425081461668015,-0.2246374487876892,0.08711569011211395],[-0.15704606473445892,-0.26792049407958984,-0.03911471739411354],[0.1096329614520073,0.0035047936253249645,0.06789363920688629]]],[[[-0.06105133146047592,0.04012611135840416,-0.18159538507461548],[-0.005268524866551161,0.07434263825416565,0.10088697075843811],[-0.08803486824035645,0.05204135552048683,-0.029932700097560883]],[[-0.13904114067554474,-0.014086319133639336,0.1378718763589859],[0.07999706268310547,-0.14630889892578125,0.3245379626750946],[-0.15818606317043304,-0.016668422147631645,0.08670172840356827]],[[0.049781255424022675,0.08097364753484726,0.07142046838998795],[0.03171147406101227,0.0024158963933587074,0.03289128839969635],[0.050824690610170364,0.002721907803788781,0.13616639375686646]],[[0.08367457240819931,-0.1401301920413971,0.06909579038619995],[0.1421690136194229,0.007065525744110346,0.13278484344482422],[-0.03412666171789169,0.08589982241392136,-0.027755234390497208]],[[-0.009920976124703884,0.07558747380971909,-0.0771678239107132],[0.06494054198265076,-0.014531733468174934,0.26115521788597107],[0.03794804960489273,0.20529700815677643,-0.07928512990474701]],[[0.0825449526309967,0.08948656171560287,-0.013597902841866016],[0.15154056251049042,0.02564219757914543,0.15499632060527802],[-0.11370844393968582,-0.042822759598493576,-0.1363789588212967]],[[0.00751070398837328,-0.012760058045387268,-0.06960488855838776],[0.12745681405067444,0.14916080236434937,0.21987032890319824],[0.05450747534632683,0.005351527128368616,-0.19571837782859802]],[[0.06361674517393112,0.21934638917446136,-0.18094003200531006],[0.05869647115468979,-0.0224873349070549,0.038686152547597885],[0.05059388652443886,0.06041312590241432,-0.10058136284351349]]],[[[-0.13212360441684723,-0.03541932255029678,-0.10294115543365479],[0.14030320942401886,-0.08831586688756943,0.19238857924938202],[-0.08961454778909683,-0.09132950007915497,-0.18478858470916748]],[[0.0024801355320960283,0.01593891531229019,-0.0892958864569664],[0.11714256554841995,-0.03936357423663139,0.1279899626970291],[-0.04040398448705673,-0.032856978476047516,-0.16085503995418549]],[[0.17388591170310974,-0.002637814963236451,-0.03612552210688591],[0.09906070679426193,0.12278807163238525,0.13602326810359955],[0.08352956920862198,-0.0363629125058651,0.16835558414459229]],[[0.06792837381362915,0.1403859555721283,-0.11350701004266739],[0.056391872465610504,0.027284542098641396,0.20922459661960602],[0.003954657353460789,-0.07824605703353882,-0.0015003265580162406]],[[-0.1627463549375534,0.09298541396856308,-0.07296670228242874],[0.11671766638755798,-0.014452331699430943,0.15515878796577454],[-0.09861662238836288,-0.15120485424995422,-0.03207520395517349]],[[0.08682333678007126,0.06579379737377167,-0.022394781932234764],[0.038111597299575806,-0.09753715246915817,0.2286558300256729],[0.0006569070392288268,-0.08070913702249527,-0.02240976132452488]],[[0.034166544675827026,-0.06385496258735657,-0.11285623162984848],[-0.01661219261586666,0.006000861059874296,0.16251356899738312],[0.00875474140048027,0.05410664156079292,-0.05157272145152092]],[[0.07453277707099915,0.010438760742545128,-0.015228151343762875],[-0.03473244979977608,-0.1388525515794754,0.1311921328306198],[-0.010247808881103992,-0.023246336728334427,-0.1304490715265274]]],[[[-0.09331775456666946,0.06541897356510162,-0.016126375645399094],[-0.11818942427635193,0.07206320762634277,-0.03992636874318123],[-0.00731539586558938,-0.06795556843280792,-0.026338735595345497]],[[0.016889307647943497,-0.12318193912506104,-0.0835624486207962],[-0.1075635775923729,0.13754737377166748,0.0935644656419754],[0.08298587054014206,-0.12530994415283203,-0.033811699599027634]],[[-0.08805727958679199,0.00011043134873034433,-0.05149073898792267],[-0.011259250342845917,0.12748663127422333,0.08430161327123642],[0.031582895666360855,0.05067884922027588,0.06830231845378876]],[[0.09744095802307129,-0.008415386080741882,-0.08429569005966187],[-0.116799496114254,0.2025587409734726,0.1311095952987671],[0.03847396373748779,0.07106958329677582,-0.06834981590509415]],[[-0.02272954396903515,-0.12868669629096985,-0.12681758403778076],[-0.09539548307657242,0.2003065049648285,-0.07667989283800125],[0.004694096278399229,-0.0917464941740036,-0.07716572284698486]],[[-0.022761238738894463,0.07286004722118378,0.10463114827871323],[-0.045482929795980453,0.11479288339614868,0.04456845670938492],[0.003737923689186573,-0.12924236059188843,0.006766671780496836]],[[0.0655018612742424,0.06793864071369171,-0.09154248237609863],[0.0618368424475193,0.04784223809838295,0.06186745688319206],[0.08792203664779663,-0.02408759854733944,0.06644470989704132]],[[-0.02868131548166275,-0.0008949012262746692,0.06864412873983383],[-0.030418798327445984,0.000007585598723380826,0.020202849060297012],[-0.05082522705197334,-0.004476601257920265,0.008538623340427876]]],[[[-0.0276963971555233,0.1382652372121811,-0.024809330701828003],[-0.017650725319981575,-0.052739016711711884,0.14213022589683533],[-0.04322397708892822,0.034044064581394196,-0.15747332572937012]],[[0.013897391967475414,-0.106641486287117,0.04254648834466934],[0.07376553863286972,0.04394696280360222,0.1135643795132637],[-0.12994587421417236,0.07077252864837646,-0.03248171508312225]],[[0.09326941519975662,0.05190794914960861,0.055524569004774094],[0.12810790538787842,0.1260162889957428,0.047687094658613205],[-0.013052151538431644,0.009037931449711323,0.14714589715003967]],[[0.07404772192239761,0.09575589001178741,0.013265605084598064],[0.049433719366788864,0.14007754623889923,0.04458862543106079],[0.06178233399987221,0.22006388008594513,0.004187679849565029]],[[0.10379890352487564,-0.010008888319134712,-0.12868541479110718],[0.0030395302455872297,-0.12550106644630432,0.00952217634767294],[0.0088321752846241,0.16590750217437744,0.028777481988072395]],[[0.07883293181657791,0.009728923439979553,-0.1021408885717392],[0.000039224429201567546,0.09346012771129608,0.11050907522439957],[0.00656796945258975,0.18208953738212585,-0.0908140242099762]],[[-0.0965638980269432,-0.05310241878032684,-0.12684419751167297],[0.023658310994505882,0.12168046087026596,0.05474087968468666],[0.01381201297044754,0.07602214068174362,-0.20196039974689484]],[[0.04682760685682297,0.24059870839118958,0.03222300112247467],[-0.11979265511035919,0.08946400880813599,0.10112264007329941],[-0.04947035014629364,0.038078103214502335,-0.19032655656337738]]],[[[0.009290512651205063,0.12631821632385254,-0.03741145506501198],[-0.1372126340866089,-0.035379741340875626,-0.03086196444928646],[0.1734522134065628,0.022489264607429504,-0.10000208765268326]],[[-0.021846624091267586,-0.14900240302085876,0.06027752161026001],[0.008257381618022919,0.1819310188293457,0.1997075229883194],[0.024057826027274132,-0.03771338611841202,-0.09379196912050247]],[[0.11929633468389511,0.11534051597118378,0.09309341758489609],[-0.08356322348117828,-0.015504145063459873,0.04227876663208008],[0.13034991919994354,0.12754011154174805,-0.03998369351029396]],[[0.06048485264182091,0.16752031445503235,-0.166620135307312],[-0.17262551188468933,0.15105460584163666,0.10840421915054321],[0.03265606239438057,0.1370249092578888,0.005719493143260479]],[[-0.06107679754495621,0.03540852293372154,-0.0583835169672966],[-0.2407950609922409,0.09507628530263901,-0.002041812753304839],[-0.019664641469717026,0.04002575948834419,-0.008419974707067013]],[[-0.07867392897605896,0.1597329080104828,-0.03514197841286659],[-0.20645247399806976,0.271075576543808,0.13795940577983856],[0.16053086519241333,0.0839618518948555,-0.029083386063575745]],[[0.044301945716142654,-0.12553878128528595,-0.12233443558216095],[-0.17471732199192047,0.07439389079809189,0.03918417543172836],[0.10480506718158722,0.02838851697742939,-0.020002448931336403]],[[0.19948656857013702,0.07778991013765335,-0.09099800139665604],[-0.02101353369653225,0.04538152366876602,0.02942458540201187],[0.020176948979496956,-0.045889999717473984,-0.12116750329732895]]],[[[0.03859603777527809,-0.08995446562767029,0.05372612923383713],[0.08028020709753036,-0.13638626039028168,-0.08299991488456726],[0.047018516808748245,-0.1407669484615326,0.1071193739771843]],[[-0.09630751609802246,0.059179890900850296,-0.12006527930498123],[0.03571265935897827,-0.02250443957746029,-0.09155893325805664],[-0.06529241800308228,0.015408635139465332,0.010712853632867336]],[[-0.03332245349884033,0.04439731687307358,0.0858912542462349],[-0.09736327081918716,0.09311869740486145,0.013016527518630028],[0.04069671407341957,0.05479203537106514,-0.0025666954461485147]],[[-0.05636623129248619,-0.05452006310224533,-0.09791954606771469],[0.052438728511333466,-0.06248248741030693,-0.020863432437181473],[0.03011990338563919,0.03180571272969246,-0.12099919468164444]],[[0.06668438762426376,-0.13557657599449158,0.041200682520866394],[-0.1286240667104721,-0.028929084539413452,-0.024445833638310432],[-0.012906352058053017,-0.10150934010744095,0.06442541629076004]],[[-0.08556117117404938,-0.08326112478971481,-0.05089499056339264],[0.04280305281281471,-0.0713328942656517,-0.014215817674994469],[0.009911874309182167,-0.06609625369310379,-0.09361527115106583]],[[0.04621144384145737,-0.03869744390249252,0.31165167689323425],[-0.024012304842472076,-0.1333840936422348,0.11438770592212677],[0.06909110397100449,0.16140960156917572,0.18227942287921906]],[[-0.003521425649523735,0.13273854553699493,0.022061478346586227],[-0.020051119849085808,0.06016305834054947,0.10977771878242493],[-0.09009981155395508,0.10215605050325394,-0.003150916425511241]]],[[[0.08863486349582672,0.10678717494010925,-0.04251161962747574],[0.010037706233561039,0.1905031055212021,-0.03362680971622467],[-0.1472739726305008,-0.045475151389837265,-0.03765512630343437]],[[0.06101908162236214,-0.06991928070783615,-0.0395122766494751],[0.041336387395858765,0.21723274886608124,0.06452445685863495],[-0.005597834009677172,0.07823566347360611,-0.1387515664100647]],[[-0.11471729725599289,0.08364752680063248,0.024055225774645805],[-0.0740562304854393,0.10334214568138123,-0.060722716152668],[0.06446955353021622,-0.07996931672096252,0.12177722901105881]],[[0.020216021686792374,0.08661545813083649,-0.0951269194483757],[0.09675323963165283,-0.005050902254879475,0.03239496797323227],[0.04202066734433174,-0.04880072548985481,0.09618498384952545]],[[-0.09697209298610687,0.18794968724250793,-0.06265523284673691],[-0.004361787810921669,0.14642170071601868,-0.11356942355632782],[0.014894785359501839,0.016998782753944397,0.0335644967854023]],[[-0.13597425818443298,0.1635158210992813,0.03486237674951553],[0.1581617295742035,0.1342991441488266,-0.09396102279424667],[-0.08976242691278458,0.0653524324297905,0.07159966230392456]],[[0.07051950693130493,0.08952576667070389,0.05480256676673889],[0.006143689621239901,0.05557664483785629,-0.017798567190766335],[-0.08122637867927551,-0.050919268280267715,-0.09797398746013641]],[[0.01573905348777771,0.10909828543663025,-0.15779359638690948],[0.10215026885271072,0.2182006984949112,0.09655329585075378],[0.04710861295461655,-0.06631096452474594,-0.09543710201978683]]]],"biases":[0.14169922471046448,0.10139651596546173,0.259332537651062,0.16010086238384247,-0.08453988283872604,0.22575098276138306,0.08835990726947784,0.02531067095696926]},"conv9":{"weights":[[[[-0.018488924950361252,-0.1596873551607132,-0.033472515642642975],[-0.021170945838093758,0.11672759056091309,-0.024357207119464874],[0.15622800588607788,-0.04779069125652313,-0.02121695503592491]],[[0.07096818834543228,-0.045434147119522095,0.04437993839383125],[-0.06087137758731842,0.11749062687158585,0.05838676542043686],[-0.0032494126353412867,0.0987163707613945,0.05537092313170433]],[[0.12607289850711823,0.007447319105267525,0.09756607562303543],[-0.1429642140865326,-0.03843514621257782,-0.08806336671113968],[0.06460809707641602,-0.04500222206115723,0.03151903301477432]],[[0.06120485067367554,0.10871364921331406,-0.13981857895851135],[0.05885543301701546,0.05152863264083862,0.10517081618309021],[-0.016927406191825867,0.006247344892472029,-0.01900881715118885]],[[-0.025618012994527817,-0.027976466342806816,0.10618960857391357],[0.014526491053402424,0.12617707252502441,0.11180717498064041],[0.08956898003816605,-0.05707195773720741,-0.06864133477210999]],[[0.06987708061933517,-0.1148405447602272,-0.08470560610294342],[-0.08249226957559586,0.05671904236078262,-0.09179864823818207],[0.01338887121528387,-0.039899300783872604,0.07012095302343369]],[[0.07194503396749496,0.012926481664180756,0.01594274863600731],[-0.04281408712267876,-0.01746288314461708,-0.03892279788851738],[0.07769277691841125,-0.03875252604484558,0.046848904341459274]],[[-0.0014326483942568302,-0.0019239569082856178,-0.03671400994062424],[-0.05616947263479233,0.14855064451694489,0.03749644756317139],[-0.026555532589554787,-0.06044682487845421,0.01616826467216015]]],[[[0.006527016405016184,0.05462954193353653,-0.1479525864124298],[-0.012416091747581959,0.2372739315032959,-0.1780138462781906],[0.0031550265848636627,0.1484549194574356,0.13512994349002838]],[[0.08668655902147293,0.0022254143841564655,-0.03481009602546692],[0.022999534383416176,0.017715798690915108,0.040013477206230164],[0.02472180686891079,-0.1402386575937271,0.031925927847623825]],[[-0.10557543486356735,-0.0032673936802893877,0.16221709549427032],[0.06758313626050949,-0.13545234501361847,0.14114795625209808],[0.07740365713834763,-0.04587569832801819,0.07270371168851852]],[[-0.018580317497253418,-0.09033187478780746,0.007966813631355762],[0.08474674820899963,-0.11550707370042801,0.09417494386434555],[0.0821295976638794,0.16002966463565826,-0.03037627972662449]],[[0.03251215070486069,0.055144619196653366,0.03565939888358116],[0.02627251297235489,0.0368521586060524,-0.10497274994850159],[-0.05132995918393135,-0.014033407904207706,0.036199092864990234]],[[0.03184906765818596,0.07541713118553162,0.15281488001346588],[0.06030825152993202,-0.04328528791666031,0.1108289286494255],[-0.005744646769016981,0.1133250892162323,-0.07133737206459045]],[[0.08314598351716995,-0.03313810005784035,0.016174793243408203],[0.047904472798109055,0.01853826828300953,0.04391021281480789],[0.034246962517499924,-0.015702011063694954,0.027490943670272827]],[[0.03205783665180206,0.05568501353263855,0.0405266098678112],[-0.010996680706739426,-0.1307096630334854,-0.11679616570472717],[-0.04044701159000397,0.07024244219064713,-0.030416365712881088]]],[[[-0.01826450414955616,-0.000606368004810065,-0.017770199105143547],[-0.18535056710243225,0.08107557892799377,-0.18025510013103485],[-0.007943832315504551,0.09415826201438904,-0.08220945298671722]],[[-0.11064492911100388,0.00048628958757035434,0.0710752010345459],[-0.05541740357875824,0.02201889082789421,0.13738468289375305],[-0.08176036924123764,0.04474382475018501,-0.03384644538164139]],[[0.04563106223940849,0.07837064564228058,-0.0301284771412611],[-0.03490865230560303,0.06819011270999908,0.021515831351280212],[0.10263191908597946,-0.03961901366710663,-0.03799811378121376]],[[-0.07669616490602493,0.14837601780891418,-0.04201097786426544],[-0.20037752389907837,-0.044210225343704224,0.04335659742355347],[0.022137003019452095,0.07922817766666412,-0.049391645938158035]],[[-0.05898353457450867,-0.020342018455266953,0.035100437700748444],[-0.022044029086828232,0.13998132944107056,-0.03178819268941879],[0.06508848071098328,-0.06617987900972366,-0.011246767826378345]],[[-0.0021043026354163885,0.07725296169519424,-0.09058175981044769],[0.1155315414071083,0.20569348335266113,0.03327866271138191],[-0.03357456624507904,0.10364670306444168,0.03776974976062775]],[[0.080052949488163,-0.035177890211343765,0.04917820915579796],[0.1376611739397049,-0.14109070599079132,0.05011208727955818],[0.15931949019432068,-0.07533034682273865,0.0736602395772934]],[[0.027326032519340515,0.03711782395839691,0.008727015927433968],[0.07646723091602325,0.10457765311002731,-0.012907958589494228],[-0.05231174826622009,0.07349875569343567,0.13726884126663208]]],[[[0.06068674474954605,-0.10959521681070328,-0.24365173280239105],[-0.11432748287916183,0.6531742215156555,0.15683501958847046],[-0.21481308341026306,0.29959264397621155,0.022301651537418365]],[[0.05725262686610222,-0.004023534711450338,0.0901811346411705],[-0.10222290456295013,0.07111184298992157,0.012962229549884796],[-0.00533981341868639,0.1094856709241867,-0.05679697543382645]],[[0.042747192084789276,0.11991387605667114,0.11960624158382416],[-0.12958312034606934,0.1335328221321106,-0.09539491683244705],[0.020251169800758362,0.08791214227676392,0.0558893159031868]],[[-0.04174194857478142,-0.08849042654037476,-0.042692139744758606],[-0.013173443265259266,-0.10601555556058884,-0.014591743238270283],[-0.006861445028334856,-0.02141369879245758,-0.005531057249754667]],[[0.1519424319267273,0.007456549443304539,-0.028790101408958435],[0.05851630121469498,0.0036715923342853785,0.060724206268787384],[0.07630220800638199,0.11374478787183762,0.041176196187734604]],[[-0.019479436799883842,-0.08648701012134552,0.03440114110708237],[-0.08147444576025009,-0.037051670253276825,0.20790793001651764],[0.0443795770406723,-0.056100405752658844,0.16642414033412933]],[[0.1399485021829605,0.01095607690513134,0.07240757346153259],[0.0970441922545433,0.01993459463119507,0.04872667416930199],[0.09543291479349136,0.02305479533970356,0.10086389631032944]],[[-0.02128584124147892,0.01940261572599411,0.016951408237218857],[0.08918152004480362,-0.1363091915845871,-0.17280837893486023],[0.06124076619744301,-0.21108859777450562,-0.061932992190122604]]],[[[0.06906034052371979,-0.13319069147109985,0.07690694183111191],[-0.0009359248797409236,0.04614192247390747,-0.1658923476934433],[-0.10559847205877304,-0.04799314960837364,0.08411038666963577]],[[0.09732982516288757,-0.045051634311676025,-0.0040264916606247425],[0.0563187301158905,0.09537095576524734,0.04177277907729149],[0.03827688470482826,0.04610849916934967,0.00044061383232474327]],[[-0.01939259096980095,0.12786687910556793,0.04307626932859421],[-0.016850100830197334,0.051715850830078125,0.05679754167795181],[0.002148013561964035,-0.004420274402946234,-0.01335553266108036]],[[0.018279975280165672,-0.014237510040402412,0.05629320442676544],[-0.0637894943356514,-0.025788811966776848,-0.0217403843998909],[0.05760650709271431,-0.004454911686480045,0.009180418215692043]],[[0.025195999071002007,-0.08402244746685028,0.039274830371141434],[0.04731711745262146,0.10240080952644348,0.13952940702438354],[0.008494149893522263,0.037091344594955444,-0.012308284640312195]],[[-0.014041288755834103,0.02309880405664444,-0.09318526089191437],[0.043086349964141846,0.0048193978145718575,-0.10048097372055054],[0.0680617168545723,0.04646396264433861,0.13467247784137726]],[[-0.02693840302526951,-0.053316544741392136,0.08595079928636551],[0.08516854792833328,0.04445529356598854,-0.028353948146104813],[0.06406372040510178,-0.013298850506544113,-0.001665226649492979]],[[-0.07964447140693665,0.04786452278494835,-0.05045536905527115],[0.11852014064788818,0.13498790562152863,0.10178211331367493],[0.00931956060230732,-0.013902347534894943,0.02863214910030365]]],[[[-0.05785757303237915,-0.027576711028814316,-0.17313776910305023],[-0.009786109440028667,0.10670454800128937,0.1902891844511032],[-0.194072887301445,0.2699017822742462,-0.1104121059179306]],[[-0.03810836002230644,-0.08890664577484131,0.07232336699962616],[-0.03526310995221138,0.06640598922967911,-0.022690029814839363],[0.05659981817007065,0.028165630996227264,-0.03061721660196781]],[[0.03351758047938347,-0.024512184783816338,-0.04579901695251465],[0.0743047297000885,0.038148246705532074,0.00490402989089489],[0.0013839078601449728,-0.08374326676130295,0.07424972206354141]],[[-0.07709570229053497,-0.16689297556877136,0.008027599193155766],[0.15031108260154724,0.025495998561382294,-0.04319062456488609],[-0.0007736843544989824,-0.013769829645752907,-0.07867705076932907]],[[-0.06467100232839584,0.0425078459084034,0.09019051492214203],[0.04204564914107323,0.09247270226478577,-0.07401114702224731],[0.05000413581728935,-0.05423532798886299,0.10820115357637405]],[[-0.04373887553811073,-0.020409712567925453,-0.0451376810669899],[-0.012395200319588184,0.024173112586140633,0.04423650726675987],[0.030781127512454987,0.08903088420629501,-0.020068809390068054]],[[0.21663224697113037,0.08864559978246689,0.14913393557071686],[0.09702205657958984,-0.2531224489212036,-0.05984506756067276],[0.17998939752578735,-0.05722151696681976,0.14582805335521698]],[[0.024032609537243843,-0.0836712047457695,-0.011545819230377674],[0.10365109145641327,-0.10269568860530853,0.0410325787961483],[0.031321678310632706,0.016159042716026306,-0.10726413875818253]]],[[[-0.013183395378291607,-0.2696581482887268,-0.003924760036170483],[0.1255084127187729,0.43591293692588806,0.12106747180223465],[-0.1574213057756424,-0.11185110360383987,0.08176170289516449]],[[0.15731288492679596,-0.0421588309109211,0.03801034018397331],[0.1072874590754509,-0.07724810391664505,-0.10648764669895172],[0.005119579378515482,-0.07984989136457443,0.06835878640413284]],[[-0.036255594342947006,0.10197146981954575,0.06482191383838654],[-0.051153190433979034,-0.01137335505336523,0.05107125639915466],[0.008962905965745449,-0.007128202356398106,0.0718233659863472]],[[-0.07230507582426071,0.10419797897338867,-0.02083323337137699],[-0.12508206069469452,