(self.webpackChunkUpscaler=self.webpackChunkUpscaler||[]).push([[662],{231:s=>{"use strict";s.exports=JSON.parse('{"conv1":{"weights":[[[[-0.000552745012100786,0.00028008068329654634,0.051091328263282776],[-0.051637034863233566,-0.10130774974822998,0.24712960422039032],[0.006858265493065119,0.2087988257408142,0.20267587900161743]]],[[[-0.07780669629573822,-0.06781379133462906,0.030323835089802742],[0.024447016417980194,0.3317962884902954,0.08739732205867767],[-0.17575228214263916,0.3142213821411133,0.008081255480647087]]],[[[-0.028845306485891342,-0.023932339623570442,-0.0169293824583292],[-0.053214166313409805,0.40111222863197327,-0.06124384328722954],[0.054350581020116806,-0.15002676844596863,0.025329478085041046]]],[[[-0.02005099691450596,0.08248303085565567,0.05468737334012985],[0.09561435878276825,0.01023730169981718,-0.3942733108997345],[0.05067050829529762,0.03152453154325485,0.08526379615068436]]],[[[0.0843207985162735,0.08062461763620377,-0.034779179841279984],[-0.019123539328575134,-0.3910360336303711,-0.09922894835472107],[0.19797761738300323,-0.36291059851646423,-0.008591006509959698]]],[[[0.005560638848692179,-0.01161877065896988,0.0488271601498127],[-0.07116800546646118,0.24174118041992188,-0.34305649995803833],[-0.027955062687397003,0.03326316550374031,0.09413941949605942]]],[[[0.06299958378076553,-0.21013237535953522,0.085427425801754],[-0.23828867077827454,-0.38991785049438477,-0.010177379474043846],[-0.02118442952632904,0.07864601165056229,-0.023060394451022148]]],[[[0.009766977280378342,-0.048368263989686966,-0.029917078092694283],[0.12115904688835144,-0.07202724367380142,0.08660093694925308],[-0.027192875742912292,0.41976940631866455,0.10373422503471375]]]],"biases":[-0.3219783902168274,0.19628114998340607,0.3254658579826355,-0.0037304211873561144,-0.22768869996070862,0.08465128391981125,-0.28741005063056946,0.05520162358880043]},"conv2":{"weights":[[[[0.08829156309366226,-0.05210447683930397,-0.011452756822109222],[0.048787616193294525,-0.10477320849895477,0.0016464048530906439],[0.012505709193646908,-0.018635878339409828,-0.0028293770737946033]],[[-0.04804149642586708,-0.045892924070358276,-0.29055410623550415],[0.18163330852985382,0.23409239947795868,0.009103034622967243],[-0.011650160886347294,-0.0736706554889679,-0.07130490243434906]],[[0.359186053276062,-0.08954579383134842,0.049218256026506424],[0.08909157663583755,0.39459729194641113,-0.5130454897880554],[-0.31348851323127747,0.20170216262340546,-0.17628251016139984]],[[0.21236373484134674,-0.31565260887145996,0.12090359628200531],[-0.2018275409936905,-0.7472372055053711,0.24803030490875244],[-0.05261179804801941,-0.042086705565452576,0.02797662280499935]],[[0.0028712484054267406,-0.014662793837487698,0.3586822748184204],[-0.02615555189549923,-0.1974072903394699,-0.0021578939631581306],[-0.004704751074314117,-0.02926795929670334,0.0934256985783577]],[[-0.2174430936574936,0.13592171669006348,-0.4289148151874542],[0.07757865637540817,1.2743498086929321,-0.3323647975921631],[-0.29749539494514465,0.0825132504105568,0.07031195610761642]],[[-0.02926292084157467,0.13516412675380707,-0.040288250893354416],[0.05573194846510887,-0.15183380246162415,0.024625275284051895],[-0.05995706841349602,-0.08253315836191177,-0.0641552209854126]],[[0.05518583580851555,-0.05683272331953049,-0.07224331796169281],[0.17043209075927734,-0.04936125501990318,0.11793389916419983],[0.014654194004833698,0.03555717319250107,-0.04431719332933426]]],[[[0.02898455411195755,-0.022715581580996513,0.047081153839826584],[0.021675212308764458,-0.11307786405086517,-0.001374503830447793],[0.015158197842538357,0.09244397282600403,-0.021779976785182953]],[[-0.01996522583067417,0.10725827515125275,-0.36444494128227234],[0.10161357372999191,0.37185126543045044,-0.04555219039320946],[-0.09440881013870239,0.14141984283924103,-0.0787096694111824]],[[0.004309640731662512,-0.14287874102592468,-0.2058967500925064],[0.11627218872308731,0.5145285129547119,-0.21634282171726227],[-0.17979785799980164,0.045885130763053894,-0.12879678606987]],[[0.15669676661491394,-0.2566402554512024,-0.0217670276761055],[-0.06569002568721771,0.6946511268615723,0.0023543050047010183],[0.11481235176324844,0.06163162738084793,0.03136914223432541]],[[-0.013184956274926662,-0.1479603797197342,0.3064304292201996],[-0.13968782126903534,-0.1618523895740509,0.08057832717895508],[0.11337913572788239,-0.007037158589810133,-0.06696376949548721]],[[0.3483751118183136,-0.10068146884441376,-0.22983376681804657],[-0.45478689670562744,0.3225477933883667,-0.05133430287241936],[0.16596603393554688,0.0169106163084507,-0.05666924640536308]],[[0.040455982089042664,0.06147947907447815,-0.08957292139530182],[-0.041547488421201706,0.009697944857180119,0.012039504945278168],[0.05540263652801514,-0.17030072212219238,0.14359907805919647]],[[0.01528048887848854,0.1297471970319748,-0.09228015691041946],[0.020917983725667,-0.08968286961317062,0.04832950234413147],[0.007157359272241592,-0.11315537244081497,0.01987028680741787]]],[[[0.04798266291618347,0.11539807170629501,0.02273254469037056],[0.29808759689331055,-0.04542341083288193,-0.1647818386554718],[0.003980664536356926,-0.030013998970389366,-0.010775922797620296]],[[-0.0363110788166523,0.07766669988632202,-0.12271814793348312],[-0.019320232793688774,0.2356286495923996,0.057278722524642944],[-0.1465976983308792,-0.11235330253839493,-0.16784939169883728]],[[0.11084861308336258,-0.2712814509868622,-0.15819016098976135],[-0.15276001393795013,0.367428183555603,0.03744955360889435],[-0.3132549226284027,-0.03099631331861019,-0.15606722235679626]],[[-0.03638627380132675,0.00013903902436140925,-0.046384505927562714],[-0.5609008073806763,-0.12143304198980331,-0.11216959357261658],[0.047612715512514114,-0.1068650409579277,-0.26950597763061523]],[[0.034754421561956406,-0.34577304124832153,0.06902259588241577],[0.13137491047382355,0.030248748138546944,-0.05905593931674957],[0.21236127614974976,-0.008017812855541706,0.0654323548078537]],[[0.050161756575107574,-0.11503896117210388,0.08958503603935242],[0.33205440640449524,0.5078803300857544,0.1495054066181183],[0.6628658175468445,0.05326683819293976,0.27962008118629456]],[[0.07113119959831238,-0.11062463372945786,0.01650748960673809],[-0.19786012172698975,0.015779362991452217,-0.23083965480327606],[-0.24166178703308105,0.9508423209190369,0.08317489922046661]],[[0.04786568507552147,0.23040078580379486,-0.08912255614995956],[0.16202716529369354,0.24772509932518005,0.1755039095878601],[0.009930511005222797,-0.18390972912311554,0.08764342218637466]]],[[[0.12247250974178314,0.15848533809185028,0.03544125333428383],[0.08559934794902802,0.12891913950443268,0.0531594380736351],[0.012118488550186157,0.13456623256206512,-0.04447939991950989]],[[0.11350355297327042,0.226364865899086,0.08648334443569183],[0.21902623772621155,0.3737083673477173,0.12318046391010284],[0.11528544127941132,0.021669182926416397,0.04290399327874184]],[[-0.09781847894191742,0.017365142703056335,-0.06378559023141861],[0.03803607076406479,0.20284542441368103,0.06860721856355667],[-0.09196676313877106,0.13445398211479187,0.03313152864575386]],[[0.0862053632736206,0.08699343353509903,0.0785006433725357],[0.06743479520082474,-0.1964767426252365,0.05807758495211601],[-0.0708342120051384,-0.15628597140312195,0.0773874819278717]],[[-0.13088181614875793,-0.0444212406873703,-0.07402060925960541],[-0.08667854964733124,0.158608078956604,-0.052288200706243515],[-0.05803525820374489,-0.05716010555624962,-0.008411793038249016]],[[0.02050876058638096,0.21177223324775696,-0.00013131744344718754],[-0.18275655806064606,0.06117419898509979,0.044996075332164764],[-0.11315593868494034,0.06363098323345184,-0.09118776768445969]],[[0.016080914065241814,0.041034843772649765,-0.044474538415670395],[0.01569465547800064,0.1337118148803711,0.17216527462005615],[-0.08957494795322418,0.07002949714660645,0.1265842616558075]],[[0.03660030663013458,0.27043652534484863,0.1916409581899643],[0.1287393420934677,0.12313178181648254,0.05453755706548691],[-0.03641292825341225,-0.050484947860240936,0.047203607857227325]]],[[[0.03046748787164688,0.04065767675638199,-0.012117469683289528],[-0.032207466661930084,0.011804900132119656,0.03310808911919594],[-0.03599262610077858,0.10195444524288177,-0.04118648171424866]],[[0.07016049325466156,-0.042111072689294815,0.15813057124614716],[0.07511201500892639,-0.13927161693572998,0.06294476240873337],[0.04670208692550659,-0.057175859808921814,0.048672642558813095]],[[-0.2262544333934784,0.0146621810272336,-0.09545125812292099],[0.10519019514322281,-0.5677011013031006,0.075608991086483],[-0.04833300784230232,0.04557699337601662,-0.08929082751274109]],[[0.0002846912248060107,0.04294310137629509,0.027281222864985466],[0.3210906982421875,0.1716698855161667,0.014375722967088223],[-0.056215979158878326,0.09247010201215744,0.028075020760297775]],[[-0.045167114585638046,0.1524675190448761,-0.13923735916614532],[0.02760428749024868,0.5111927390098572,0.01632249914109707],[-0.014798320829868317,0.08387698233127594,-0.040756598114967346]],[[0.06042221188545227,0.14594250917434692,0.060662463307380676],[0.23217853903770447,0.12477567791938782,0.14861063659191132],[-0.07271616160869598,0.003847954561933875,0.0687171220779419]],[[-0.021154262125492096,-0.01603373885154724,-0.05821661278605461],[0.01536613330245018,-0.05226559191942215,-0.012485533021390438],[-0.02586406283080578,-0.07137758284807205,-0.03481737896800041]],[[-0.08922926336526871,0.12319865822792053,0.019530676305294037],[0.01516079343855381,0.02005898579955101,0.04662082716822624],[-0.032452601939439774,-0.05819472298026085,-0.03271583467721939]]],[[[0.03401223570108414,0.018164310604333878,-0.042488016188144684],[0.007145165000110865,-0.011855216696858406,0.021267984062433243],[-0.03963341563940048,0.07215313613414764,-0.021739905700087547]],[[-0.029953917488455772,0.09104640036821365,0.0008107895846478641],[-0.06831923872232437,0.3997643291950226,0.3023245334625244],[-0.07874202728271484,-0.06188016012310982,-0.06302845478057861]],[[-0.02745792269706726,-0.18349751830101013,-0.0857141762971878],[-0.18729372322559357,0.5711327791213989,0.09442563354969025],[-0.015615633688867092,-0.18030165135860443,-0.2750937044620514]],[[-0.004094770643860102,0.08425849676132202,0.011613219045102596],[0.4386542737483978,0.48514890670776367,0.069318488240242],[-0.034384310245513916,0.274066686630249,0.03404631465673447]],[[0.07023024559020996,0.005097714718431234,0.038069382309913635],[0.0844629555940628,-0.10628979653120041,-0.19823408126831055],[0.05983424559235573,0.10023090243339539,0.042129505425691605]],[[0.0902620255947113,0.040640294551849365,0.07167605310678482],[0.39663460850715637,0.06625542789697647,0.155180424451828],[-0.049534354358911514,-0.07126268744468689,0.14869333803653717]],[[0.005590206012129784,0.013140623457729816,-0.03204302862286568],[0.13919679820537567,-0.06045167148113251,-0.06168185546994209],[0.08501085638999939,-0.0556875616312027,-0.08769389986991882]],[[-0.11530786752700806,0.031515102833509445,-0.04819035902619362],[-0.00046277843648567796,-0.006101476028561592,0.041945233941078186],[-0.016844382509589195,-0.025244172662496567,-0.06035323068499565]]],[[[-0.11860285699367523,-0.09684465080499649,0.013351124711334705],[0.08276280760765076,0.1394900381565094,0.016673987731337547],[0.05385168641805649,-0.054292093962430954,0.01914149895310402]],[[-0.01770239882171154,-0.3765474557876587,0.12669986486434937],[0.19523510336875916,-0.04848521947860718,-0.2021281123161316],[0.021660204976797104,0.3495209515094757,0.07540770620107651]],[[-0.015787217766046524,0.1324717104434967,0.16777445375919342],[-0.14457708597183228,-0.8531330227851868,-0.1487821638584137],[-0.0024737429339438677,0.252138614654541,0.12622030079364777]],[[-0.11207587271928787,-0.04154139384627342,-0.08055784553289413],[-0.0782255232334137,0.27713820338249207,-0.030494239181280136],[0.16266030073165894,-0.07551107555627823,0.05960649996995926]],[[0.03445590287446976,0.3447257876396179,-0.14598609507083893],[-0.3206489682197571,0.17652104794979095,0.10495683550834656],[-0.11750452220439911,-0.3030889630317688,-0.027641721069812775]],[[-0.13141904771327972,0.15681934356689453,0.11747080832719803],[0.7719080448150635,-0.1538369506597519,0.007403093855828047],[-1.120394229888916,0.29966825246810913,-0.08715274930000305]],[[-0.014323622919619083,-0.041052721440792084,-0.04497503489255905],[-0.15714216232299805,0.2951071560382843,0.21086251735687256],[-0.05699390918016434,0.04449658840894699,-0.1477688103914261]],[[-0.0708879753947258,-0.09962788224220276,-0.012353742495179176],[0.01980264112353325,0.2560504972934723,-0.02547130174934864],[0.05326171964406967,-0.14992587268352509,0.006595035083591938]]],[[[-0.026169629767537117,-0.043106526136398315,0.07403271645307541],[-0.07553473860025406,0.00340373651124537,-0.048278167843818665],[0.05746454745531082,0.04768386483192444,0.03649946674704552]],[[-0.15421155095100403,-0.09020446985960007,-0.13755278289318085],[-0.04298151284456253,-0.042839329689741135,0.001002450124360621],[-0.030106307938694954,-0.0781857967376709,-0.005927712190896273]],[[0.00470377504825592,0.10027437657117844,0.12829074263572693],[-0.06730541586875916,-0.0922006368637085,-0.037763725966215134],[-0.06486432254314423,-0.15104465186595917,0.02493683062493801]],[[-0.18086425960063934,0.044146712869405746,0.08808785676956177],[0.028110597282648087,0.0800134614109993,-0.06350873410701752],[0.15917076170444489,0.11365584284067154,0.0061673857271671295]],[[0.12181024998426437,0.242740660905838,-0.03357483819127083],[0.18340995907783508,0.48511892557144165,0.06660741567611694],[0.06604789197444916,0.11756904423236847,-0.06570182740688324]],[[0.015467408113181591,-0.04108060151338577,-0.007357523310929537],[0.021531110629439354,0.08066241443157196,0.00021968553483020514],[-0.03110804595053196,0.05956684798002243,0.007218146696686745]],[[-0.0012141114566475153,0.0009236027835868299,-0.08465195447206497],[0.04597824439406395,0.19170019030570984,0.2670951783657074],[0.08081217855215073,0.28783780336380005,0.12610507011413574]],[[-0.05178012698888779,0.2663392424583435,0.0008999863057397306],[0.08337891846895218,0.22518105804920197,-0.018636241555213928],[-0.009262388572096825,-0.06994836032390594,-0.006059909239411354]]]],"biases":[-0.05604587867856026,0.04801648110151291,-0.3289499282836914,-0.017224859446287155,0.38194045424461365,0.06129872798919678,0.1542597860097885,0.13030709326267242]},"conv3":{"weights":[[[[0.09280409663915634,-0.2522396147251129,0.053377021104097366],[-1.5070717334747314,-0.49802061915397644,-0.048459380865097046],[-0.35960641503334045,-0.2985931634902954,0.04324778541922569]],[[-0.08731977641582489,0.05295877903699875,-0.06509307026863098],[-0.3238416016101837,0.1681058555841446,-0.09437438100576401],[-0.7266851663589478,0.15809424221515656,0.18377771973609924]],[[-0.1694321185350418,0.21351110935211182,-0.07732114940881729],[-0.16520757973194122,1.0425249338150024,-0.36187586188316345],[-0.11668475717306137,-0.010717910714447498,-0.017516501247882843]],[[-0.025560755282640457,-0.11581605672836304,-0.15302889049053192],[0.13966980576515198,0.10327620059251785,0.034917864948511124],[0.06765417009592056,0.008826304227113724,-0.03812238574028015]],[[0.09375125914812088,0.013971173204481602,0.38078927993774414],[0.237208753824234,-0.2852582633495331,0.23382897675037384],[-0.1797698438167572,-0.3657190501689911,0.19005873799324036]],[[0.012307531200349331,-0.3521007001399994,0.10167498886585236],[0.17230266332626343,-0.0754498541355133,-0.19730636477470398],[0.304124116897583,-0.03164020925760269,0.10501736402511597]],[[0.07420463114976883,-0.27812251448631287,-0.12584058940410614],[-0.09342984855175018,-1.1793502569198608,-0.3550480008125305],[0.03597855940461159,0.010563807561993599,0.05166399106383324]],[[-0.055243220180273056,0.22709517180919647,0.02610202133655548],[-0.17818517982959747,0.008585155010223389,-0.12133235484361649],[0.004783276002854109,-0.0714026540517807,0.07217374444007874]]],[[[0.07974959909915924,0.1799943447113037,0.07076741755008698],[0.1373339742422104,0.23508383333683014,0.027151823043823242],[-0.028226198628544807,0.09427214413881302,0.006377621088176966]],[[0.07326102256774902,0.03746338188648224,0.01776895858347416],[0.030844582244753838,0.19306661188602448,0.05153487250208855],[0.10310471057891846,0.15760913491249084,0.03598283976316452]],[[0.012765809893608093,-0.010349124670028687,-0.08700799942016602],[0.06870773434638977,0.07607924938201904,-0.11240769922733307],[0.10579520463943481,0.11295831203460693,-0.05195225030183792]],[[-0.02901572547852993,0.11226730048656464,0.09550169855356216],[-0.0954861119389534,-0.30146434903144836,0.17132635414600372],[0.002345161745324731,0.0006766041624359787,0.06775811314582825]],[[0.07277234643697739,-0.07945559173822403,-0.10381197929382324],[0.02217845991253853,0.7657492160797119,-0.32501545548439026],[-0.06616822630167007,0.01897524483501911,-0.1869216412305832]],[[-0.06827942281961441,0.030281387269496918,0.006033932324498892],[-0.006276544649153948,-0.3059687316417694,0.3280419409275055],[-0.0189279206097126,-0.11330973356962204,0.10597889125347137]],[[0.07248680293560028,0.14529132843017578,0.03787084296345711],[0.07641798257827759,0.3010631203651428,0.24285708367824554],[-0.007776174694299698,0.10310851782560349,0.08730900287628174]],[[0.024303462356328964,-0.03920074552297592,-0.03431251645088196],[0.05596805363893509,0.014233767054975033,-0.028036246076226234],[0.05004409700632095,-0.022203080356121063,0.060234710574150085]]],[[[0.055298615247011185,0.0905333012342453,0.036643560975790024],[0.16612881422042847,-0.28897422552108765,0.0654391348361969],[0.2154644876718521,0.15523575246334076,-0.004642553627490997]],[[-0.002976191695779562,0.10504467040300369,-0.026615729555487633],[-0.033475492149591446,0.21519169211387634,-0.0031377598643302917],[-0.04977114498615265,-0.1322489231824875,0.027429264038801193]],[[0.02800440974533558,0.029681742191314697,0.12523305416107178],[-0.23930512368679047,0.387342244386673,0.1350467950105667],[-0.0033431050833314657,-0.15615583956241608,-0.13771389424800873]],[[0.02751379832625389,-0.09601541608572006,0.08453332632780075],[0.06739785522222519,-0.0040536681190133095,-0.061982739716768265],[-0.08228150010108948,0.0748286321759224,0.03500761836767197]],[[-0.09886523336172104,0.12576468288898468,-0.13257084786891937],[0.06148981302976608,0.23170603811740875,0.07070812582969666],[0.022044163197278976,-0.009437824599444866,-0.0528717003762722]],[[0.015258999541401863,0.004738450516015291,0.02200310304760933],[0.04739071801304817,-0.04090013727545738,0.05489185452461243],[-0.09846384078264236,0.03710930794477463,-0.10288405418395996]],[[0.04252193123102188,-0.060437001287937164,-0.09886062890291214],[0.22983752191066742,0.0049029248766601086,-0.026951370760798454],[0.11351986974477768,0.10877927392721176,-0.09841892123222351]],[[0.039561569690704346,0.1979120522737503,0.09322156757116318],[0.1436268538236618,0.39870548248291016,0.14812563359737396],[-0.07530350983142853,0.21820636093616486,0.028409233316779137]]],[[[0.08855733275413513,-0.043334513902664185,0.1735711246728897],[0.08503241837024689,-0.2592887282371521,-0.11197300255298615],[-0.0908074826002121,-0.2310395985841751,0.1673051118850708]],[[-0.22578585147857666,-0.15926170349121094,-0.18645596504211426],[-0.1696188896894455,0.00350938574410975,-0.04535074159502983],[0.11341406404972076,0.06377841532230377,-0.2765778601169586]],[[0.0813460648059845,0.3358598053455353,-0.04919342324137688],[-0.19373257458209991,-0.036376990377902985,-0.10603643208742142],[-0.04027977213263512,-0.007653136737644672,0.10169170796871185]],[[0.019930915907025337,-0.035658206790685654,0.03907109797000885],[0.20874646306037903,-0.003854926908388734,0.008797157555818558],[-0.20704707503318787,0.018311237916350365,-0.07623135298490524]],[[0.17786556482315063,-0.11918862164020538,0.179764062166214],[-0.010540117509663105,-0.152152419090271,0.2970811426639557],[-0.0724157765507698,-0.4665966331958771,-0.16229099035263062]],[[-0.19228804111480713,0.09296046942472458,-0.03536350652575493],[0.247569277882576,-0.23131544888019562,0.19987893104553223],[-0.009723318740725517,0.2740052044391632,0.0473974235355854]],[[-0.042823612689971924,0.040982313454151154,0.1478266566991806],[0.1208328902721405,0.05775542929768562,0.29058706760406494],[0.18396419286727905,0.20162750780582428,0.17545446753501892]],[[-0.2488071769475937,0.12086302042007446,-0.06730473041534424],[0.06539588421583176,0.00605268869549036,-0.18987266719341278],[0.0372987762093544,0.23710602521896362,0.1515052616596222]]],[[[-0.022949015721678734,0.023301556706428528,-0.20708055794239044],[0.03169739246368408,0.6014235019683838,-0.09388157725334167],[0.2287059724330902,0.16612102091312408,0.062335316091775894]],[[0.03578222543001175,0.0013792049139738083,0.16475781798362732],[0.20375193655490875,-0.35081779956817627,0.20682449638843536],[0.04507170245051384,-0.11972683668136597,-0.010743808001279831]],[[0.21354418992996216,0.034886397421360016,-0.01603606715798378],[-0.13413043320178986,-0.1579889953136444,0.2016480416059494],[-0.25718310475349426,-0.13211578130722046,0.03552846238017082]],[[0.05538991838693619,0.10276591777801514,0.03742779418826103],[0.02419971488416195,0.08586699515581131,0.07790389657020569],[-0.16917477548122406,-0.26729094982147217,0.055113036185503006]],[[0.014409626834094524,-0.10543864220380783,0.10003994405269623],[0.08550219237804413,0.10431700944900513,-0.3201111853122711],[-0.06849605590105057,0.15131817758083344,0.0863473042845726]],[[0.015184593386948109,0.21333721280097961,-0.2442009299993515],[-0.15306495130062103,0.3811754286289215,0.2113807201385498],[-0.11203532665967941,-0.22865228354930878,-0.10092055052518845]],[[0.09057046473026276,0.29196012020111084,0.005745097529143095],[0.1351865530014038,0.5676164031028748,0.21867208182811737],[0.21475958824157715,0.17833150923252106,0.024337932467460632]],[[-0.03912564367055893,-0.213665172457695,-0.17383825778961182],[0.24407246708869934,0.18646225333213806,-0.1118236556649208],[-0.014432817697525024,0.3306425213813782,-0.019168635830283165]]],[[[0.07816673815250397,0.21793189644813538,0.1394178420305252],[0.11080332100391388,0.1434280425310135,0.1368858516216278],[0.08309768885374069,0.2193210870027542,0.04948785901069641]],[[0.05726960673928261,0.03696971386671066,-0.04512421786785126],[-0.024585505947470665,0.278085321187973,0.022819506004452705],[0.05578848347067833,0.13158465921878815,0.04519638791680336]],[[-0.05998305231332779,0.028811192139983177,-0.07371357828378677],[-0.17466109991073608,0.3181910514831543,-0.06100903078913689],[0.023855915293097496,0.08583268523216248,-0.12368447333574295]],[[-0.05128544941544533,0.09764865785837173,0.025988416746258736],[-0.04512479528784752,0.14244724810123444,0.15554723143577576],[-0.15717336535453796,-0.022376427426934242,-0.05387265607714653]],[[-0.04534494876861572,0.05189520865678787,-0.0102571751922369],[0.028872879222035408,-0.2530604302883148,-0.12268709391355515],[0.07543450593948364,0.18891474604606628,0.07044930756092072]],[[-0.03677497059106827,-0.11266042292118073,-0.07242339104413986],[-0.04282626509666443,0.46999499201774597,0.13125714659690857],[-0.057712532579898834,-0.17303000390529633,-0.11865133792161942]],[[0.03361709043383598,0.000581634696573019,-0.02915983460843563],[0.05886036530137062,0.1277630776166916,0.24020394682884216],[0.049376480281353,0.13790705800056458,0.08919209986925125]],[[0.02386050671339035,-0.040264733135700226,-0.04928476735949516],[0.015618068166077137,0.056411415338516235,-0.10130912810564041],[0.05080145224928856,0.03475972265005112,0.0446065291762352]]],[[[-0.06837017089128494,0.16732856631278992,0.17548632621765137],[-0.07418283820152283,0.13371706008911133,-0.04797801747918129],[-0.024908099323511124,-0.1101260557770729,0.002936577657237649]],[[-0.08135823905467987,0.0856463611125946,0.030262228101491928],[-0.11137592047452927,0.19245891273021698,0.1292479932308197],[-0.1853732466697693,0.019723940640687943,-0.007404083851724863]],[[-0.09938479214906693,0.04270900413393974,-0.01571081392467022],[-0.0338425375521183,0.22547893226146698,-0.024846276268363],[-0.04363499954342842,0.03008558414876461,-0.08141005784273148]],[[0.11567418277263641,0.04643584415316582,0.0626097023487091],[0.18557222187519073,0.28968170285224915,0.04754817485809326],[0.1729840189218521,0.1741255521774292,-0.02898220904171467]],[[0.04910355061292648,0.1175515428185463,0.04028069227933884],[-0.05627473443746567,-0.09347674250602722,0.06521711498498917],[-0.056579262018203735,-0.038434986025094986,-0.03293680399656296]],[[-0.12332937121391296,-0.009483481757342815,-0.1533736288547516],[0.15515071153640747,0.11430170387029648,-0.025318842381238937],[0.07914290577173233,0.004301844164729118,0.021548131480813026]],[[-0.1612740159034729,0.167327880859375,0.014430717565119267],[-0.005443341098725796,0.2379586398601532,0.12102995812892914],[-0.11897625774145126,-0.0019575520418584347,-0.08074840903282166]],[[-0.04478585720062256,0.04875003546476364,-0.14985382556915283],[-0.009201179258525372,0.17334844172000885,0.01428152248263359],[-0.07541760057210922,0.031468961387872696,0.026238659396767616]]],[[[-0.05097765475511551,0.09105964750051498,-0.060573264956474304],[0.07989002019166946,0.4975161850452423,0.10384564846754074],[-0.09413723647594452,0.035404887050390244,-0.08026844263076782]],[[0.15484270453453064,-0.2521266043186188,-0.052494026720523834],[-0.126384899020195,-0.8394817113876343,-0.11158256232738495],[0.19651836156845093,0.14459656178951263,0.19536317884922028]],[[-0.03434164077043533,0.7596102356910706,-0.5791991353034973],[0.03582651913166046,0.19029968976974487,-0.24016977846622467],[-0.19398026168346405,-0.18350839614868164,-0.007423397619277239]],[[-0.11669756472110748,0.07716291397809982,0.0070516569539904594],[0.2407238483428955,-0.13040558993816376,-0.2057238668203354],[-0.24194784462451935,-0.0280821081250906,0.1386149674654007]],[[0.08695603907108307,0.23245203495025635,-0.14679354429244995],[0.03875904902815819,0.41731277108192444,-0.4830465018749237],[-0.0055641913786530495,-0.17853276431560516,-0.26807472109794617]],[[0.012027631513774395,-0.39223146438598633,-0.18413014709949493],[-0.14422622323036194,-0.09879106283187866,0.3990360200405121],[0.04100818186998367,-0.08872207254171371,0.2993045449256897]],[[-0.18122516572475433,-1.339612603187561,-0.06588886678218842],[0.29938939213752747,0.3036498427391052,-0.21622256934642792],[0.17131413519382477,-0.006180313415825367,0.05838635191321373]],[[-0.023295341059565544,0.15556320548057556,-0.07196363061666489],[0.10687608271837234,0.17613212764263153,-0.01614263281226158],[0.04728676378726959,-0.09918367117643356,0.007845488376915455]]]],"biases":[0.018953736871480942,0.0362086184322834,-0.018936699256300926,0.044254954904317856,-0.040303464978933334,0.03535256162285805,-0.004854735918343067,-0.02827524021267891]},"conv4":{"weights":[[[[-0.024839401245117188,0.03959069028496742,-0.03450927510857582],[0.01555511262267828,0.13508737087249756,-0.023096216842532158],[-0.05322432145476341,0.02234615758061409,-0.04745497182011604]],[[0.10254161804914474,-0.009025619365274906,0.024631904438138008],[0.14306412637233734,-0.14391827583312988,-0.06553268432617188],[0.046890974044799805,-0.05551417917013168,-0.02831023745238781]],[[0.002933979732915759,0.01154393795877695,-0.021926939487457275],[-0.056365761905908585,0.05823038890957832,-0.07559565454721451],[0.05868121236562729,-0.1253461390733719,0.09122447669506073]],[[0.05980364978313446,-0.07845587283372879,-0.04779122397303581],[-0.03637702763080597,0.07068837434053421,0.1300814002752304],[0.0043403697200119495,-0.03998834639787674,0.02150246500968933]],[[-0.09127314388751984,-0.09433900564908981,-0.06308445334434509],[0.07751326262950897,-0.0470694825053215,0.05876588076353073],[0.054821502417325974,0.08427765220403671,0.038296524435281754]],[[-0.05404391884803772,0.05826611444354057,-0.12371160835027695],[0.11000268906354904,0.018785955384373665,-0.07622804492712021],[0.012143468484282494,0.14787955582141876,-0.027608664706349373]],[[0.10609573125839233,0.10615682601928711,0.06128329411149025],[0.12887953221797943,0.3007547855377197,0.12384713441133499],[-0.0028752577491104603,0.03540169447660446,0.15919317305088043]],[[0.04619039222598076,-0.005030693020671606,0.0259923804551363],[-0.03800876438617706,-0.001233051298186183,0.04362637177109718],[0.07052245736122131,0.027944162487983704,0.10605031251907349]]],[[[0.04367256164550781,-0.041515640914440155,-0.05785201117396355],[-0.023278720676898956,0.010734773240983486,0.09878972917795181],[0.038750916719436646,-0.005238841753453016,0.05856376513838768]],[[-0.024919966235756874,0.012923752889037132,-0.017934303730726242],[-0.12239507585763931,0.06277719140052795,-0.09790286421775818],[0.08245224505662918,0.1819823980331421,-0.05386122316122055]],[[-0.05757501348853111,0.14658315479755402,-0.01802893914282322],[0.13508263230323792,0.329020231962204,0.18864551186561584],[0.11542809754610062,0.15483812987804413,0.040240801870822906]],[[-0.18460090458393097,0.0013562064850702882,0.1737709790468216],[-0.10827183723449707,-0.016673637554049492,0.053084615617990494],[0.09907562285661697,0.06722711026668549,-0.00633353553712368]],[[0.044450290501117706,0.09466341137886047,0.1566353142261505],[-0.14183473587036133,0.12204934656620026,0.2527659833431244],[-0.20172306895256042,-0.17027224600315094,-0.04501107707619667]],[[-0.05796007812023163,-0.07098184525966644,0.05383431166410446],[0.049886029213666916,-0.11098622530698776,0.07717394828796387],[0.0353485532104969,-0.031409937888383865,0.09848873317241669]],[[-0.08556891977787018,0.014580655843019485,-0.005034097004681826],[-0.08124049007892609,0.17558032274246216,-0.10034898668527603],[-0.16509027779102325,0.07371116429567337,-0.09994127601385117]],[[-0.0855121985077858,-0.08728665113449097,-0.0675237774848938],[-0.15183492004871368,0.2811788320541382,0.23429839313030243],[-0.06936387717723846,0.1780184656381607,0.21309280395507812]]],[[[-0.0241392832249403,-0.10878725349903107,0.016113726422190666],[-0.13729709386825562,0.042075902223587036,-0.11621491611003876],[-0.12445857375860214,0.1689751297235489,-0.0719648078083992]],[[-0.11522015184164047,0.0687367171049118,0.008491448126733303],[-0.044579580426216125,0.7525086402893066,-0.09901048988103867],[0.1408344954252243,-0.2219967097043991,-0.00790027529001236]],[[-0.01888684369623661,0.04954573139548302,0.022916724905371666],[0.05756920203566551,0.12616290152072906,0.1027798131108284],[-0.04182250797748566,-0.21985594928264618,0.03680039569735527]],[[-0.04624120518565178,0.14966635406017303,0.15793634951114655],[-0.038650572299957275,0.008148732595145702,0.03489662706851959],[-0.06452573835849762,-0.12528076767921448,0.044855955988168716]],[[0.022175317630171776,-0.006575813516974449,0.05470452085137367],[0.06438867002725601,0.23356547951698303,0.0673946961760521],[0.10704632848501205,0.08387326449155807,0.22371304035186768]],[[0.10753975063562393,0.05943324789404869,0.19506405293941498],[0.05418829247355461,-0.3179584741592407,-0.049178097397089005],[-0.01522205863147974,0.28743183612823486,-0.16103123128414154]],[[-0.0489908792078495,-0.0676015168428421,-0.0759621113538742],[0.03324422240257263,0.042827215045690536,-0.05862871930003166],[0.06035211682319641,0.08069206029176712,0.04104284942150116]],[[0.010807843878865242,0.014451785013079643,0.023282943293452263],[0.025166895240545273,0.06722785532474518,-0.07727105170488358],[0.15740276873111725,-0.03975687548518181,-0.004541355185210705]]],[[[-0.054529644548892975,0.015453817322850227,-0.044825728982686996],[0.09748120605945587,0.2084447145462036,0.048016276210546494],[-0.15937542915344238,-0.04738541692495346,0.07305263727903366]],[[0.045248497277498245,-0.1207912415266037,0.043257441371679306],[0.2511867880821228,0.08905395120382309,0.0998624637722969],[-0.009614641778171062,0.20732015371322632,-0.08261188119649887]],[[-0.04512324556708336,0.07821479439735413,0.006909662391990423],[-0.23149238526821136,0.14517775177955627,-0.014577062800526619],[-0.20596283674240112,0.2603040635585785,0.010185847990214825]],[[0.25914257764816284,0.05758661776781082,-0.0862841084599495],[0.12398847192525864,0.027496181428432465,-0.11530130356550217],[-0.018883483484387398,-0.0886848121881485,-0.036222588270902634]],[[-0.06896600127220154,-0.06611192226409912,-0.02683219313621521],[0.39841216802597046,0.09916336834430695,0.09602072089910507],[0.053251300007104874,0.12908416986465454,-0.02338043972849846]],[[-0.03588489070534706,-0.0544784739613533,-0.006520526949316263],[-0.024907974526286125,0.018887527287006378,-0.279928982257843],[-0.04001782089471817,-0.34453174471855164,0.0939747542142868]],[[0.038595013320446014,-0.07362187653779984,0.015654806047677994],[0.10889749228954315,0.005893735680729151,0.012564768083393574],[-0.0019818334840238094,0.022559156641364098,-0.07813828438520432]],[[0.055568236857652664,0.03959142416715622,0.04902971535921097],[0.003049776190891862,-0.1299925446510315,0.012795309536159039],[0.004335686098784208,0.17666210234165192,0.1453033983707428]]],[[[-0.36909767985343933,-0.4258593022823334,-0.012311885133385658],[-0.6103246808052063,-0.4165034294128418,0.26859134435653687],[0.27323615550994873,0.3177447021007538,0.14986389875411987]],[[0.13006335496902466,-0.0650211051106453,-0.014683636836707592],[0.366519570350647,0.19515925645828247,-0.05662989243865013],[-0.05100381746888161,-0.2308405190706253,0.03548502177000046]],[[-0.07205255329608917,0.172006294131279,0.003525680163875222],[-0.16182197630405426,-0.09993811696767807,-0.020692812278866768],[0.19481687247753143,0.028400113806128502,-0.06249142065644264]],[[-0.19117318093776703,0.0038991475012153387,0.1993422657251358],[-0.03625958040356636,-0.09719765931367874,0.3186134099960327],[-0.3173353970050812,-0.13367417454719543,-0.08498016744852066]],[[-0.23667430877685547,0.6095452904701233,0.01705958880484104],[-0.13452138006687164,0.44838258624076843,-0.1341218650341034],[-0.0785142257809639,-0.15870599448680878,-0.009140491485595703]],[[-0.01746002584695816,-0.1218603178858757,0.017649183049798012],[-0.25625714659690857,-0.31525829434394836,0.189018115401268],[0.3847653269767761,0.44133004546165466,-0.1312645822763443]],[[0.0054426053538918495,-0.00009476005652686581,0.018542388454079628],[-0.021015044301748276,0.008316989988088608,-0.08155687153339386],[0.043788567185401917,-0.09160587936639786,0.09943606704473495]],[[0.2181195467710495,-0.0028242566622793674,0.01732327789068222],[0.12729085981845856,-0.40301617980003357,0.08738119155168533],[-0.04139642044901848,0.09747108072042465,0.023155074566602707]]],[[[0.26253852248191833,-0.24476228654384613,-0.0666428804397583],[0.33100825548171997,-0.156411811709404,-0.31352487206459045],[0.2774789035320282,-0.14259234070777893,-0.6038822531700134]],[[0.05948444455862045,-0.029768360778689384,0.002623122651129961],[0.07363720238208771,0.08053477853536606,-0.16543659567832947],[-0.11315948516130447,-0.060511425137519836,0.32292798161506653]],[[-0.06989821791648865,0.221966952085495,-0.27299633622169495],[-0.09765695035457611,0.09773817658424377,0.05603606998920441],[-0.05406023934483528,0.08675532788038254,0.031440138816833496]],[[-0.02249250002205372,-0.07285264879465103,0.3782072365283966],[0.15753202140331268,0.25915706157684326,-0.5878917574882507],[-0.05133804678916931,-0.28366774320602417,0.009007819928228855]],[[0.0774228423833847,0.004574568942189217,-0.11410707235336304],[-0.04505724459886551,-0.10842765122652054,-0.30117011070251465],[0.268120139837265,-0.10828349739313126,0.048721522092819214]],[[0.18561263382434845,0.11237026005983353,0.3399057388305664],[-0.035858750343322754,0.17286564409732819,0.22336235642433167],[-0.03605269268155098,-0.11512576043605804,-0.18570014834403992]],[[-0.09226388484239578,-0.05141949653625488,-0.014874309301376343],[0.1698712706565857,0.06588895618915558,-0.05730569735169411],[-0.012286999262869358,-0.10512765496969223,0.018349820747971535]],[[0.06607012450695038,0.07104157656431198,-0.13869927823543549],[-0.1410643309354782,0.30499282479286194,0.0980105921626091],[-0.08005501329898834,-0.17125244438648224,0.14844414591789246]]],[[[-0.004669239744544029,-0.17041626572608948,0.036795251071453094],[-0.06120143085718155,-0.1264173537492752,-0.05039992555975914],[-0.06775784492492676,0.14284390211105347,-0.00121922860853374]],[[0.007792919408529997,-0.03988996893167496,-0.03803878650069237],[0.11790241301059723,-0.3684689700603485,0.13527752459049225],[-0.054190680384635925,0.1124238595366478,0.007773265242576599]],[[0.004922223277390003,-0.025677790865302086,0.06895991414785385],[-0.028008056804537773,-0.2419697791337967,0.14564891159534454],[-0.0016850188840180635,-0.01630309782922268,0.003240556688979268]],[[-0.06034224107861519,0.12758754193782806,0.12686270475387573],[0.00752464821562171,0.009751254692673683,-0.03483549878001213],[-0.047078654170036316,-0.10700490325689316,0.001368921366520226]],[[-0.04174742102622986,-0.038996100425720215,0.044449225068092346],[0.03412654623389244,0.22085689008235931,0.06496734917163849],[-0.018249254673719406,0.030192624777555466,0.16010816395282745]],[[0.06177365034818649,0.09280992299318314,0.2201765924692154],[0.24337902665138245,0.5556336641311646,-0.007253569085150957],[0.011258364655077457,-0.011784140951931477,-0.07632937282323837]],[[-0.06952386349439621,-0.06635090708732605,-0.026708053424954414],[0.0936623364686966,0.19728216528892517,-0.09444878995418549],[0.01983574777841568,-0.01638096012175083,-0.0592200867831707]],[[-0.011149990372359753,0.012246976606547832,0.0015857823891565204],[-0.030167393386363983,0.07202843576669693,-0.09048613905906677],[0.10635966062545776,-0.031170669943094254,-0.047364186495542526]]],[[[-0.04225866124033928,-0.012584038078784943,-0.0610332153737545],[0.07972239702939987,-0.00819056574255228,-0.11054261028766632],[0.0774792730808258,-0.05320948362350464,0.08426288515329361]],[[-0.07655449956655502,0.11742868274450302,-0.03759445995092392],[-0.055612143129110336,0.29357072710990906,-0.051102954894304276],[0.06785528361797333,0.06548026204109192,0.11177607625722885]],[[0.05484430864453316,-0.046225544065237045,-0.01743277721107006],[0.1941244900226593,0.255049467086792,-0.052660804241895676],[-0.10520428419113159,-0.23221585154533386,0.06031825765967369]],[[-0.046390287578105927,0.10544286668300629,0.0737411379814148],[-0.10765159130096436,0.18247392773628235,0.05245678126811981],[0.07912225276231766,-0.22113826870918274,-0.07710348814725876]],[[-0.053371623158454895,0.03816160559654236,-0.046430688351392746],[-0.054006583988666534,0.1728396713733673,0.1947520226240158],[-0.06422187387943268,0.17278051376342773,-0.08516819030046463]],[[0.0016139541985467076,0.09461838006973267,-0.052857957780361176],[-0.09787069261074066,-0.11240696161985397,-0.19253312051296234],[0.043166633695364,0.0015049197245389223,0.10547901690006256]],[[0.006109846755862236,-0.0017600145656615496,-0.0685773715376854],[-0.06461101770401001,0.19923816621303558,0.07023545354604721],[-0.04088796675205231,-0.10430821776390076,0.01757161132991314]],[[0.03239507973194122,-0.14564622938632965,-0.13641805946826935],[-0.19644486904144287,0.24477282166481018,-0.06311516463756561],[-0.10620956867933273,-0.1982184499502182,0.1098865196108818]]]],"biases":[0.01995658688247204,0.02179412730038166,0.006079391110688448,-0.04302263259887695,-0.053015921264886856,-0.06810852140188217,0.019446317106485367,-0.015109041705727577]},"conv5":{"weights":[[[[0.060410693287849426,0.029372649267315865,-0.10611961781978607],[-0.03687172010540962,0.1256149858236313,0.018101325258612633],[-0.05141165480017662,0.0248996801674366,0.049654774367809296]],[[0.09901953488588333,-0.12914961576461792,0.17025068402290344],[-0.2892443835735321,-0.18322061002254486,0.16100236773490906],[0.26406195759773254,-0.06263723969459534,-0.08330421894788742]],[[0.07689688354730606,-0.024457339197397232,0.00971007440239191],[0.21802395582199097,-0.3043955862522125,-0.17382317781448364],[0.11869869381189346,-0.18638554215431213,0.021674174815416336]],[[-0.03971344605088234,-0.24131640791893005,0.14769794046878815],[-0.1667001098394394,-0.008618558757007122,-0.09890087693929672],[-0.10416950285434723,0.15828585624694824,0.38500261306762695]],[[0.03166760876774788,0.19254688918590546,0.16954219341278076],[0.028526514768600464,-0.5207180380821228,-0.0507594458758831],[0.18171264231204987,-0.16200809180736542,-0.04728442057967186]],[[-0.13757482171058655,-0.23644781112670898,-0.007754004560410976],[-0.07528448849916458,0.13620531558990479,-0.18859027326107025],[0.08362767845392227,0.04636377468705177,-0.14871250092983246]],[[0.09420373290777206,-0.13721799850463867,0.030249586328864098],[-0.05090022087097168,-0.07553212344646454,0.14448446035385132],[-0.04931771755218506,-0.06075070798397064,0.09338752180337906]],[[0.10502824187278748,-0.1197579875588417,-0.04121139645576477],[0.18048299849033356,-0.06814976036548615,0.10920143127441406],[0.023653151467442513,-0.28907471895217896,-0.005490955896675587]]],[[[-2.178896427154541,0.2686631381511688,-0.06446030735969543],[0.19002322852611542,0.408602237701416,0.0576675683259964],[-0.05960215628147125,0.0941518247127533,-0.09209592640399933]],[[-2.03922176361084,0.11696033179759979,0.007111701648682356],[-0.08007026463747025,-0.09277627617120743,0.03501228988170624],[0.040484312921762466,-0.00815597828477621,0.0061355773359537125]],[[-1.8012007474899292,0.13528959453105927,-0.11485348641872406],[-0.04483657330274582,-0.27982503175735474,0.044480226933956146],[0.031748369336128235,0.031221656128764153,-0.06599102169275284]],[[-1.255761742591858,-0.05114172399044037,-0.12123512476682663],[-0.07934904843568802,-0.05244513601064682,-0.021342381834983826],[-0.0011252994881942868,0.05475514754652977,-0.08064597845077515]],[[-1.212074875831604,0.020974261686205864,-0.05442790314555168],[0.15513738989830017,-0.06473705917596817,0.03798189014196396],[0.027948476374149323,0.03781607374548912,-0.09300298988819122]],[[-1.6266218423843384,0.019153939560055733,0.05471968278288841],[0.07713582366704941,0.03801153972744942,0.03917168453335762],[0.05463172495365143,-0.04416193068027496,-0.024767503142356873]],[[-1.389100193977356,0.19360950589179993,-0.1173553541302681],[0.021947119385004044,0.5074741244316101,0.0390612930059433],[-0.12170963734388351,0.07302070409059525,-0.031603287905454636]],[[-1.3062442541122437,0.1483185738325119,0.01733742281794548],[0.011578635312616825,0.09081818908452988,-0.05227813497185707],[-0.02776201069355011,0.14296875894069672,-0.031225984916090965]]],[[[-0.03896911069750786,0.1436377763748169,-0.05734679847955704],[0.11936889588832855,0.27401500940322876,0.1299830973148346],[0.1331796795129776,0.2199440598487854,0.05130871757864952]],[[-0.0427248477935791,0.009233115240931511,-0.04231890290975571],[0.021589921787381172,0.018411580473184586,0.05902555584907532],[0.06304431706666946,-0.014940021559596062,-0.018780192360281944]],[[0.10292191058397293,0.12102405726909637,0.0023765815421938896],[-0.03183455765247345,0.09747262299060822,0.13966740667819977],[-0.1544872522354126,-0.18268784880638123,-0.0886782556772232]],[[-0.0360734798014164,-0.03518839552998543,-0.10501126945018768],[-0.02164945751428604,0.07224853336811066,0.07816676795482635],[-0.0054796491749584675,0.06286196410655975,0.039973847568035126]],[[0.006507448852062225,0.03729433938860893,0.00800985749810934],[-0.04793566092848778,0.03846854716539383,0.05472547188401222],[0.10895297676324844,-0.010805533267557621,-0.10865791887044907]],[[0.052933067083358765,-0.04004750773310661,-0.04914778098464012],[-0.07674753665924072,0.07257626205682755,0.11630547046661377],[0.04736243188381195,-0.02786034159362316,-0.03836721554398537]],[[-0.0989145040512085,-0.04060850664973259,-0.05534292012453079],[-0.1044173613190651,0.15435734391212463,-0.08577987551689148],[-0.002865513553842902,0.23937232792377472,0.022052668035030365]],[[-0.11417942494153976,-0.014687573537230492,-0.10906010866165161],[0.1632240116596222,0.0048398408107459545,0.024661250412464142],[0.015460978262126446,0.06134723499417305,-0.07471848279237747]]],[[[0.02342277765274048,-0.00898941420018673,-0.12105443328619003],[0.01701662316918373,-0.03319520130753517,0.1281808614730835],[0.009609954431653023,-0.1838470995426178,0.13141390681266785]],[[-0.04555597901344299,0.0696018859744072,-0.014062531292438507],[0.02033228613436222,0.0016045933589339256,0.024154014885425568],[-0.0016693802317604423,-0.010935649275779724,-0.0441296361386776]],[[0.09972796589136124,0.1091398149728775,0.012125181034207344],[0.12963321805000305,-0.19075308740139008,0.04972895234823227],[0.03199251741170883,0.07047168165445328,0.03675118461251259]],[[-0.0436115525662899,-0.09936074167490005,-0.131463885307312],[-0.20081208646297455,0.21654431521892548,-0.08864017575979233],[0.09333726763725281,-0.14836029708385468,0.07328720390796661]],[[-0.0004822205810341984,-0.03371099382638931,-0.15823306143283844],[0.042271483689546585,0.2977282404899597,0.27340683341026306],[-0.007519143633544445,0.39075106382369995,-0.017963727936148643]],[[0.08740243315696716,-0.22439023852348328,-0.13634267449378967],[0.019612615928053856,-0.11738671362400055,0.04299549013376236],[0.0008503168937750161,-0.09674080461263657,-0.04690435901284218]],[[0.0025314814411103725,-0.001113555277697742,0.010472500696778297],[0.09677115827798843,0.40671250224113464,-0.055352985858917236],[-0.029073230922222137,0.06058134511113167,0.039643544703722]],[[-0.04574756696820259,-0.010377119295299053,-0.006995024159550667],[-0.041270073503255844,-0.2411382645368576,-0.19017410278320312],[0.021899258717894554,0.10426514595746994,0.029947178438305855]]],[[[-0.05697518587112427,-0.021337220445275307,0.04717559367418289],[0.06442942470312119,-0.048397913575172424,0.004772802349179983],[0.03244439512491226,-0.07113350182771683,-0.04462011530995369]],[[0.026965327560901642,0.06871851533651352,-0.06184067949652672],[0.23178119957447052,0.24729609489440918,0.1363314539194107],[0.16336213052272797,0.2619100511074066,-0.024360118433833122]],[[-0.02152952551841736,-0.03369278833270073,0.02057350054383278],[-0.04799870774149895,-0.08057073503732681,0.01232024747878313],[-0.015612950548529625,0.12363521009683609,-0.017786163836717606]],[[0.031216125935316086,0.1484331637620926,0.0006453201058320701],[0.17320287227630615,0.18017242848873138,-0.051124799996614456],[0.031759414821863174,-0.25259238481521606,-0.2134466916322708]],[[0.00936138816177845,-0.02635963447391987,-0.023591317236423492],[0.06640040874481201,-0.00920535996556282,-0.021932756528258324],[-0.018925607204437256,0.06959030032157898,0.02225097082555294]],[[-0.032323963940143585,0.046119943261146545,0.09427879005670547],[-0.027344368398189545,-0.025488946586847305,-0.028597934171557426],[-0.11318908631801605,0.07808084785938263,-0.03548634052276611]],[[-0.020147787407040596,0.0915641337633133,0.030829492956399918],[0.05296708270907402,-0.06686712801456451,-0.10896576195955276],[0.05495887249708176,-0.1400669515132904,-0.07185208052396774]],[[-0.1493699997663498,-0.1039772778749466,-0.1948338896036148],[0.02287677489221096,0.061555858701467514,0.026970358565449715],[-0.057643018662929535,0.27391505241394043,0.15374454855918884]]],[[[-0.023995332419872284,-0.038585785776376724,-0.004046771675348282],[-0.11858814209699631,-0.03855007141828537,0.09163403511047363],[0.060217056423425674,0.06880299746990204,0.008292878046631813]],[[0.10014591366052628,-0.027973804622888565,-0.08287057280540466],[0.005248097237199545,-0.08589745312929153,0.08111868798732758],[-0.018289674073457718,-0.07242752611637115,0.05945013090968132]],[[-0.45019984245300293,0.10068158805370331,0.3462905287742615],[0.2002851516008377,0.7431169748306274,-0.599924623966217],[0.05280065909028053,-0.2608201205730438,-0.001786328968591988]],[[0.38967904448509216,0.22008036077022552,-0.3938371539115906],[0.2718183398246765,-0.5524675250053406,0.2539081573486328],[-0.14919084310531616,-0.2474837750196457,0.12025856226682663]],[[-0.017291737720370293,0.007828081957995892,-0.1870952993631363],[-0.12290305644273758,0.3623253107070923,0.12051194161176682],[-0.30800607800483704,0.4079580008983612,-0.5847610235214233]],[[0.0648079365491867,0.30204272270202637,0.017095541581511497],[-0.46780484914779663,-0.5614415407180786,-0.3401689827442169],[0.48156973719596863,0.24304422736167908,-0.10189829766750336]],[[0.1357383131980896,-0.2497524917125702,0.09650052338838577],[-0.34106308221817017,-0.2700532078742981,0.09757866710424423],[-0.34792694449424744,0.6722205281257629,-0.002030724659562111]],[[-0.3119065761566162,0.11430259793996811,0.18486304581165314],[0.3641834557056427,-0.08666093647480011,0.008067957125604153],[0.13313943147659302,-0.2771300971508026,-0.14676623046398163]]],[[[0.06697183102369308,-0.06486453860998154,-0.04396498575806618],[-0.010995875112712383,0.011462395079433918,0.05995618924498558],[0.036830950528383255,-0.038866713643074036,0.021479301154613495]],[[0.00904722698032856,0.1402548998594284,0.023650696501135826],[-0.07518492639064789,-0.030123231932520866,0.023085299879312515],[0.012217245064675808,-0.021751008927822113,0.017434190958738327]],[[-0.012276343069970608,-0.04856947436928749,0.06266359984874725],[-0.03310707211494446,0.6424168348312378,0.03171725571155548],[-0.05724000558257103,0.14164869487285614,0.05893126130104065]],[[0.0541730672121048,0.1277720183134079,-0.0797777995467186],[-0.12041456252336502,0.3084856867790222,0.038468629121780396],[0.02545933611690998,0.02533426322042942,0.02467276155948639]],[[-0.003941697534173727,-0.03664623573422432,-0.05030672997236252],[0.1335117369890213,0.1926598995923996,0.08203425258398056],[-0.05902639403939247,0.11927076429128647,-0.16006098687648773]],[[0.04223636910319328,-0.04064644128084183,0.028543930500745773],[0.01722867414355278,-0.017820898443460464,0.10303794592618942],[0.09673406928777695,-0.02495431900024414,-0.0014541713753715158]],[[-0.0682392343878746,0.11668837070465088,-0.029698196798563004],[-0.001319242874160409,-0.21062244474887848,0.043589551001787186],[-0.14963556826114655,0.04566315934062004,-0.03224331513047218]],[[-0.15884408354759216,0.058454155921936035,-0.14785653352737427],[0.06742442399263382,0.19728215038776398,0.14457105100154877],[-0.08621591329574585,0.07181376218795776,-0.003784065367653966]]],[[[-0.017611805349588394,0.20465868711471558,-0.10530763864517212],[-0.16215923428535461,0.3012225925922394,0.05514039099216461],[0.014224961400032043,-0.18192210793495178,-0.11722326278686523]],[[-0.02261143922805786,0.1452435404062271,0.02982931211590767],[-0.19269168376922607,-0.04197749122977257,0.016341978684067726],[0.008952904492616653,0.009287175722420216,0.0653739869594574]],[[0.07545167952775955,0.18611888587474823,-0.09119287878274918],[0.11272920668125153,-0.09760276228189468,-0.07488079369068146],[0.06144531071186066,0.2622620761394501,0.10013113915920258]],[[0.009050479158759117,0.11792361736297607,-0.24806593358516693],[-0.07028778642416,0.1100456491112709,-0.0827324241399765],[0.0091879116371274,0.01489426288753748,-0.009600365534424782]],[[0.034096505492925644,-0.04407957196235657,-0.011378245428204536],[0.05307125672698021,0.3237819969654083,0.08381761610507965],[-0.08600076287984848,0.03397742658853531,-0.0957367941737175]],[[0.07566068321466446,-0.08102650195360184,0.006152699235826731],[0.06871303915977478,-0.015464860014617443,0.0794476568698883],[0.07820962369441986,0.0027672285214066505,0.017700975760817528]],[[-0.14917758107185364,0.13342921435832977,-0.029608476907014847],[0.0158579982817173,0.6081339716911316,-0.06081080809235573],[-0.14632804691791534,-0.17305128276348114,0.01378173939883709]],[[-0.28804606199264526,0.07096594572067261,-0.18096601963043213],[0.05168720334768295,0.20365798473358154,0.33971890807151794],[-0.05338776856660843,-0.007540080230683088,-0.031196540221571922]]]],"biases":[0.042690031230449677,0.07341983169317245,-0.014081114903092384,-0.029877789318561554,0.031504351645708084,-0.011704480275511742,0.03446079418063164,-0.02953610196709633]},"conv6":{"weights":[[[[0.21507376432418823,0.0650550052523613,-0.09919925779104233],[0.26597946882247925,-0.27541205286979675,-0.15369723737239838],[0.07889366149902344,-0.07140129804611206,-0.12068330496549606]],[[0.07185058295726776,-0.0604773685336113,0.07558634132146835],[0.23753133416175842,0.11780007928609848,0.07203139364719391],[-0.1924443542957306,-0.11331982910633087,0.20189109444618225]],[[0.08604267984628677,0.07357001304626465,-0.11445268243551254],[0.05062980204820633,0.04671720042824745,0.03855496272444725],[-0.12108267098665237,0.013803407549858093,-0.033994048833847046]],[[0.16814188659191132,-0.5032493472099304,0.04255479946732521],[0.25677457451820374,-0.13534200191497803,-0.4755181670188904],[-0.019066106528043747,0.04534858092665672,0.0197003073990345]],[[-0.07755178213119507,0.3095233142375946,-0.20346148312091827],[-0.13083766400814056,0.16406291723251343,-0.06596922874450684],[0.03615763410925865,-0.03582710772752762,0.053565315902233124]],[[0.13872310519218445,0.2020050436258316,0.3868260979652405],[0.2054104506969452,0.2274787276983261,0.2866434156894684],[0.13451966643333435,0.16611970961093903,0.08131318539381027]],[[-0.06010793149471283,0.10886269807815552,-0.20209813117980957],[-0.11642107367515564,-0.5054699778556824,0.7002940773963928],[0.15422601997852325,-0.04342756047844887,-0.019357919692993164]],[[-0.271748423576355,-0.16059763729572296,0.37503355741500854],[-0.15959928929805756,0.5151264071464539,-0.38533687591552734],[-0.1516132950782776,0.2721121311187744,-0.26687371730804443]]],[[[-0.021596504375338554,0.01822683960199356,-0.034211352467536926],[-0.018823180347681046,0.049649678170681,0.07402686774730682],[0.00614844961091876,-0.030411669984459877,-0.004431565757840872]],[[0.029163064435124397,0.355612576007843,0.0048849075101315975],[0.24207648634910583,0.8788923025131226,0.6059643626213074],[-0.0049680969677865505,0.6414716243743896,-0.8399130702018738]],[[0.15899379551410675,0.2443595826625824,0.1672147512435913],[0.05393064022064209,0.10449322313070297,0.1870313584804535],[0.015953626483678818,-0.020187873393297195,0.09370741993188858]],[[0.11565852165222168,0.0501931756734848,-0.0887443944811821],[-0.053986139595508575,0.012416593730449677,-0.009823473170399666],[0.06975726783275604,-0.01050560362637043,-0.0837269201874733]],[[-0.10456948727369308,0.08104167133569717,-0.06456086784601212],[0.051961638033390045,0.06959633529186249,0.01670829765498638],[-0.023339267820119858,0.0026783947832882404,-0.1064983680844307]],[[0.04521862417459488,0.10225789248943329,-0.05477915331721306],[0.08322645723819733,-0.04601283743977547,0.0034098324831575155],[0.12438709288835526,-0.04975297302007675,-0.08325429260730743]],[[0.06565073132514954,-0.01863001100718975,0.07127387821674347],[-0.051716241985559464,0.006869153119623661,0.054779402911663055],[-0.1043575331568718,-0.03835590183734894,-0.05598653852939606]],[[-0.19287122786045074,-0.18464520573616028,0.028086289763450623],[-0.04061185196042061,0.13632752001285553,-0.0625319704413414],[0.11760831624269485,0.01716400869190693,0.183563694357872]]],[[[0.05602200701832771,-0.10202760994434357,-0.05827482417225838],[0.05360957235097885,-0.24285000562667847,0.20132049918174744],[0.0014800730859860778,0.0016176797216758132,0.03394651412963867]],[[0.04172459617257118,0.09488299489021301,0.03616713732481003],[0.04585302993655205,0.2754412889480591,0.07116416841745377],[0.01148939598351717,-0.36268696188926697,0.8369523882865906]],[[0.07364781945943832,0.0799243152141571,0.05220422148704529],[0.09380033612251282,-0.08715477585792542,-0.041400887072086334],[0.10490897297859192,-0.2233816683292389,-0.011416579596698284]],[[0.07103589922189713,-0.03509371355175972,-0.19643904268741608],[-0.09467030316591263,-0.19305312633514404,0.3939705491065979],[-0.03474391996860504,0.3199542760848999,-0.22213780879974365]],[[0.02081889472901821,-0.013677151873707771,0.06021067127585411],[-0.09187445044517517,-0.07070554047822952,0.22126774489879608],[-0.05025815591216087,0.12491694837808609,0.030240995809435844]],[[0.18629935383796692,0.27394384145736694,0.2767188549041748],[0.1821761429309845,0.4374341666698456,0.47899311780929565],[0.20197448134422302,0.3809925317764282,0.40964892506599426]],[[-0.1501864790916443,0.08342213183641434,-0.17332300543785095],[0.08732680976390839,-0.3388824164867401,0.04891970753669739],[-0.1050504669547081,-0.44402992725372314,0.5159347653388977]],[[0.0024906566832214594,-0.04492838680744171,-0.02010398730635643],[-0.17472034692764282,0.4803551733493805,-0.23140469193458557],[0.22110947966575623,-0.04752417653799057,-0.511239767074585]]],[[[-0.004661815240979195,-0.13836358487606049,-0.02150587923824787],[-0.06718846410512924,-0.2717905044555664,0.23808856308460236],[0.051726847887039185,-0.03376879170536995,0.0570635087788105]],[[0.018759025260806084,-0.049392491579055786,-0.10489412397146225],[-0.08564294129610062,-0.18925520777702332,-0.055605072528123856],[-0.012652670033276081,0.15594695508480072,-1.417866587638855]],[[-0.006560422945767641,-0.0957593247294426,-0.049523770809173584],[0.008008995093405247,0.10187619924545288,0.11405912041664124],[-0.0676882192492485,0.022264521569013596,-0.0004092137678526342]],[[-0.16956982016563416,0.09560979157686234,0.08241725713014603],[0.2582207918167114,0.24313925206661224,-0.200432687997818],[-0.0742713212966919,0.14305436611175537,0.019514482468366623]],[[0.08152301609516144,-0.1682993322610855,0.09156785160303116],[0.0855025202035904,-0.12369239330291748,0.0021186000667512417],[0.006999393925070763,0.019215375185012817,-0.03179483860731125]],[[-0.0262275580316782,-0.024447975680232048,0.08098068088293076],[-0.018526826053857803,0.21547529101371765,-0.06421729922294617],[-0.0407826192677021,0.0032848080154508352,-0.10075898468494415]],[[-0.095649853348732,0.07127124071121216,-0.11377471685409546],[0.17384402453899384,0.4695417881011963,-0.029086191207170486],[-0.10314227640628815,-0.09724149852991104,0.01888730563223362]],[[0.18606078624725342,0.060080286115407944,0.09975768625736237],[-0.18329507112503052,0.15910865366458893,0.10575629770755768],[0.1630125492811203,-0.21496516466140747,0.1251225620508194]]],[[[0.014283629134297371,-0.018840698525309563,0.03896117955446243],[0.2677132189273834,0.08529210090637207,0.11700209230184555],[0.14732538163661957,0.1776145100593567,0.06142118200659752]],[[-0.03160012140870094,0.010302415117621422,-0.0077406070195138454],[0.05825546011328697,-0.23167522251605988,0.16870790719985962],[0.07187168300151825,0.7054367065429688,-0.8446322083473206]],[[-0.012519992887973785,-0.024487558752298355,-0.11655985563993454],[-0.12717248499393463,0.13377037644386292,0.08445084095001221],[-0.06586264073848724,0.10627269744873047,-0.017596250399947166]],[[-0.02792412042617798,-0.0503300242125988,-0.14053626358509064],[0.2858660817146301,-0.10460269451141357,0.025822989642620087],[0.208266019821167,0.027881043031811714,-0.1666894108057022]],[[0.033350467681884766,0.040722642093896866,-0.18153637647628784],[-0.14800138771533966,0.5641682744026184,-0.20994889736175537],[0.03380495682358742,-0.13804149627685547,-0.01653025485575199]],[[-0.07667310535907745,-0.09568414837121964,-0.09221149235963821],[-0.02625572495162487,-0.20240581035614014,-0.17017540335655212],[-0.1818513125181198,-0.3421699106693268,-0.09364684671163559]],[[-0.04740161448717117,0.15272517502307892,0.13135157525539398],[0.14489799737930298,0.06496814638376236,-0.22733840346336365],[0.17790670692920685,-0.4754592776298523,0.17357942461967468]],[[0.1423587203025818,0.086960569024086,0.11652202159166336],[-0.4804242253303528,-0.3837440013885498,0.10950836539268494],[-0.43164846301078796,0.6620974540710449,0.17397768795490265]]],[[[0.022278159856796265,-0.025650551542639732,0.05045521259307861],[0.03207268938422203,-0.2445579618215561,-0.23776468634605408],[0.09650572389364243,-0.13062384724617004,0.10903912037611008]],[[0.04978681728243828,0.00134600093588233,0.13490824401378632],[-0.045394182205200195,0.06343679875135422,0.14956937730312347],[-0.03231386840343475,-0.17796088755130768,0.4438706040382385]],[[-0.06464806944131851,0.043571822345256805,0.0940004214644432],[0.06886709481477737,-0.1015804335474968,0.10452363640069962],[-0.05467698350548744,0.021688150241971016,-0.07099258154630661]],[[-0.07310333847999573,-0.21398134529590607,-0.05764877796173096],[0.1723308265209198,-0.13270218670368195,0.5153202414512634],[-0.09598004072904587,-0.11420712620019913,0.17565767467021942]],[[0.04749409481883049,-0.1374116837978363,-0.15941426157951355],[-0.0285321231931448,-0.10401836037635803,0.16795474290847778],[0.02622503973543644,0.02510383538901806,0.08231795579195023]],[[-0.026916032657027245,0.016413314267992973,-0.048374250531196594],[0.013200621120631695,0.04148078337311745,0.023430582135915756],[-0.04992251470685005,0.014694737270474434,0.06302860379219055]],[[0.044832535088062286,-0.017382148653268814,0.07769061625003815],[0.25212061405181885,0.20040787756443024,-0.24868349730968475],[0.028134677559137344,0.049923837184906006,-0.06016293168067932]],[[0.023485558107495308,0.29614073038101196,0.02277764305472374],[-0.05598494037985802,-0.14185701310634613,0.27902355790138245],[-0.0037919762544333935,-0.03595184162259102,-0.05024879798293114]]],[[[-0.0462799109518528,0.041317425668239594,-0.06793630123138428],[0.02266097441315651,0.26751136779785156,-0.04921026527881622],[-0.009032540023326874,-0.03453264757990837,-0.04812929779291153]],[[-0.06439296901226044,-0.024980774149298668,-0.025029653683304787],[0.011802580207586288,-0.20047353208065033,-0.13921351730823517],[-0.020799117162823677,0.27706435322761536,1.2492966651916504]],[[-0.011259494349360466,-0.07354573905467987,0.12332486361265182],[0.0704202726483345,-0.10324514657258987,-0.0464615672826767],[-0.0037198630161583424,0.012080763466656208,0.08166469633579254]],[[-0.07950045168399811,0.18920324742794037,0.09254173189401627],[-0.09572340548038483,-0.15013769268989563,0.1357404887676239],[-0.051687099039554596,-0.06673271954059601,0.04821637645363808]],[[0.06485117226839066,0.2887393832206726,0.18381737172603607],[0.05614190548658371,0.25427600741386414,0.14489220082759857],[-0.029653824865818024,-0.017268409952521324,0.021098332479596138]],[[0.003461194224655628,0.0012622723588719964,0.01257268711924553],[-0.017435520887374878,-0.11617898941040039,0.12381332367658615],[-0.01932152919471264,0.09979764372110367,-0.03425726667046547]],[[-0.030312146991491318,0.09660985320806503,-0.20001859962940216],[0.04019022360444069,0.32986390590667725,-0.08821451663970947],[-0.08985141664743423,0.16802361607551575,-0.19766594469547272]],[[-0.05403401702642441,-0.07167184352874756,-0.1393989622592926],[0.11299194395542145,0.22062288224697113,-0.11056328564882278],[0.08611039817333221,0.10007725656032562,-0.061675701290369034]]],[[[-0.03613146394491196,-0.22316747903823853,-0.073729507625103],[0.02316419780254364,-0.2916939854621887,-0.00601591169834137],[0.11875174939632416,-0.09064130485057831,0.1301744282245636]],[[0.048216138035058975,0.024799911305308342,-0.056622568517923355],[0.15649423003196716,0.8505477905273438,-0.15446341037750244],[-0.030929017812013626,0.038264207541942596,0.24452494084835052]],[[0.09509444236755371,0.38191473484039307,-0.25985991954803467],[0.04045187681913376,0.3030209541320801,-0.24762746691703796],[-0.0889652892947197,-0.03374326601624489,0.023431504145264626]],[[-0.03521803393959999,-0.026621650904417038,0.2154810130596161],[0.21458886563777924,0.29756513237953186,0.17553271353244781],[-0.10933997482061386,-0.1218283399939537,0.16630908846855164]],[[0.10275758802890778,-0.11861473321914673,-0.05798256769776344],[0.003877887036651373,-0.1049211397767067,0.14947573840618134],[0.003601863980293274,0.005743900313973427,0.052775293588638306]],[[-0.04375023394823074,0.034824009984731674,0.055069033056497574],[0.038547009229660034,0.23336459696292877,0.048472244292497635],[-0.040765076875686646,0.04997093230485916,-0.0005767589900642633]],[[-0.0021231872960925102,0.10578785836696625,-0.08695288747549057],[0.04785355180501938,-0.41724681854248047,0.18265105783939362],[0.06875189393758774,0.18435560166835785,-0.0156732015311718]],[[-0.06550925225019455,-0.04349609091877937,0.09432291239500046],[0.10306855291128159,0.41984823346138,0.003815055126324296],[-0.018589738756418228,-0.07451296597719193,-0.09906093031167984]]]],"biases":[0.014193659648299217,0.016482239589095116,-0.025264201685786247,0.03921066224575043,0.015084589831531048,0.06472112238407135,0.04335577413439751,0.011035585775971413]},"conv7":{"weights":[[[[-0.007051947992295027,-0.012546819634735584,0.04797578603029251],[-0.05278599634766579,0.18974320590496063,-0.014201355166733265],[-0.03472493216395378,0.17518751323223114,0.02241438254714012]],[[0.13481548428535461,-0.12147700786590576,0.025945499539375305],[0.010630540549755096,-0.10433635115623474,0.029049187898635864],[0.06056239455938339,-0.018843257799744606,-0.06013874709606171]],[[0.0033593042753636837,0.13651655614376068,-0.07033585011959076],[-0.07305867224931717,-0.18833217024803162,-0.01868254691362381],[0.08755567669868469,-0.04812587797641754,0.032817818224430084]],[[0.027814941480755806,-0.00972526241093874,-0.004102765116840601],[0.28538161516189575,-0.22893556952476501,0.08060798794031143],[0.11844594031572342,-0.2818186581134796,0.19715160131454468]],[[0.09864595532417297,0.3402985632419586,0.06640774756669998],[-0.11798025667667389,0.5222645401954651,-0.3276008367538452],[-0.03006921336054802,0.16217243671417236,0.018598075956106186]],[[0.06345949321985245,0.04888825863599777,-0.03948511928319931],[0.011219202540814877,-0.08060084283351898,-0.00035034838947467506],[0.16326962411403656,-0.33449843525886536,0.058623746037483215]],[[-0.10425572097301483,0.02827877178788185,0.023590179160237312],[-0.015768272802233696,-0.05500810220837593,0.17422617971897125],[-0.07693084329366684,0.022841069847345352,-0.052052609622478485]],[[0.020552877336740494,-0.06689167767763138,-0.056841831654310226],[-0.09383129328489304,0.4162541627883911,-0.13663612306118011],[-0.10443390905857086,0.24191777408123016,-0.1183609589934349]]],[[[-0.0012476517586037517,0.2737652361392975,-0.041042979806661606],[0.021427100524306297,-0.1867019534111023,0.35589203238487244],[0.07032209634780884,-0.004278749693185091,-0.22710351645946503]],[[-0.057327501475811005,0.09750662744045258,-0.12527725100517273],[-0.003452256554737687,0.1210787445306778,0.07216998934745789],[-0.025045249611139297,-0.055456504225730896,-0.051787786185741425]],[[-0.19325169920921326,0.13392354547977448,-0.12279462069272995],[0.05908593907952309,-0.12204640358686447,0.19244055449962616],[0.00558942137286067,0.0629744827747345,0.07433076947927475]],[[-0.07689478248357773,0.01758848875761032,0.383012980222702],[-0.0854119285941124,-0.33694279193878174,0.2168247401714325],[0.022676263004541397,0.036100469529628754,-0.024458440020680428]],[[-0.013384087942540646,0.19680069386959076,-0.6715562343597412],[-0.027579739689826965,0.08692757785320282,0.054625824093818665],[0.047823015600442886,0.06511975079774857,-0.060015249997377396]],[[-0.06737154722213745,-0.20542801916599274,-0.2165215164422989],[0.01242827344685793,1.1437065601348877,0.13684037327766418],[0.028348976746201515,-0.3648556172847748,-0.19506609439849854]],[[-0.02583848498761654,0.23758777976036072,-0.1477224975824356],[0.03333915397524834,-0.06993602216243744,-0.2510826885700226],[-0.033541589975357056,0.059278953820466995,0.04838920384645462]],[[0.09528914839029312,-0.34699931740760803,-0.02459886483848095],[0.17152756452560425,-0.40171486139297485,0.5999159812927246],[-0.019458971917629242,0.06611908972263336,-0.01161162368953228]]],[[[0.04411349818110466,0.13178189098834991,0.03034636750817299],[-0.06559966504573822,0.07106275856494904,0.051033034920692444],[0.01464652456343174,0.31361839175224304,-0.04653346538543701]],[[-0.06724660098552704,0.08635642379522324,-0.016462402418255806],[-0.08097973465919495,-0.14155197143554688,-0.04693393409252167],[0.11035402119159698,0.1221654936671257,0.014614081010222435]],[[0.10720959305763245,-0.25667133927345276,0.010319015011191368],[0.1862153261899948,0.10976070910692215,0.012672494165599346],[-0.025995776057243347,-0.015715187415480614,-0.07207111269235611]],[[-0.006497573107481003,0.0638863742351532,-0.05920841172337532],[-0.011296511627733707,0.7472683787345886,0.1484447717666626],[-0.003961460664868355,-0.10277453809976578,-0.12189218401908875]],[[0.10646576434373856,0.15837791562080383,0.07164351642131805],[-0.04938912391662598,-0.038399290293455124,-0.0987919420003891],[0.08354617655277252,-0.14358820021152496,0.06652335077524185]],[[-0.008955059573054314,-0.09967149794101715,-0.0910172313451767],[0.026712819933891296,0.16386663913726807,0.15999935567378998],[-0.05458199605345726,0.022644950076937675,0.01695309951901436]],[[0.057936932891607285,0.010422435589134693,-0.07944337278604507],[-0.12545855343341827,0.22783079743385315,0.06806372851133347],[-0.07204867899417877,0.1523478925228119,-0.1240866556763649]],[[0.01072703581303358,0.06321864575147629,0.0166679248213768],[0.25399258732795715,-0.33434611558914185,0.06950002163648605],[-0.03151124715805054,-0.027516061440110207,0.0865524485707283]]],[[[0.0251458752900362,0.09374342858791351,0.0535464808344841],[-0.005801456049084663,-0.0532035194337368,0.0644776001572609],[0.12350835651159286,0.35840582847595215,0.09548749774694443]],[[0.028098303824663162,-0.007057433947920799,0.0528993122279644],[0.06652882695198059,-0.02688402496278286,-0.043279241770505905],[-0.04872610419988632,0.01991083286702633,0.04781441390514374]],[[0.021140214055776596,-0.026862550526857376,-0.08133406192064285],[-0.2109295278787613,0.08903323858976364,-0.01755412481725216],[0.07379328459501266,-0.12683537602424622,-0.06974723190069199]],[[-0.00833788514137268,0.006018991116434336,0.0680653303861618],[-0.2517630159854889,0.26557496190071106,0.11017147451639175],[-0.06394292414188385,0.10563898831605911,-0.1093592569231987]],[[0.015689024701714516,0.25383585691452026,0.14892031252384186],[0.11327457427978516,-0.39315277338027954,-0.10833258926868439],[0.05974498763680458,-0.0036968039348721504,-0.10054221004247665]],[[-0.004181297495961189,0.011542514897882938,-0.1381208449602127],[0.09361584484577179,0.23901331424713135,-0.008115154691040516],[0.0964733436703682,0.47179752588272095,-0.04509035125374794]],[[-0.00022148797870613635,0.10866634547710419,-0.06900326162576675],[0.15153147280216217,-0.0755273848772049,0.08454874157905579],[0.03214302659034729,-0.05704830214381218,-0.03857485577464104]],[[-0.09527155756950378,-0.04417401924729347,-0.08078568428754807],[-0.06772316992282867,0.10233114659786224,0.1946348249912262],[0.07782907038927078,-0.23699764907360077,0.12403102964162827]]],[[[0.04187745600938797,0.07822254300117493,0.02781701274216175],[0.01934681087732315,0.060694754123687744,0.009295506402850151],[-0.010074103251099586,0.3977481722831726,-0.03860088065266609]],[[-0.030783621594309807,0.11029636114835739,0.01666002720594406],[-0.019616447389125824,-0.03177885338664055,-0.017697233706712723],[0.0333687923848629,-0.006432200316339731,-0.08413191139698029]],[[0.06338771432638168,-0.22412097454071045,0.025022143498063087],[0.08281382918357849,-0.055513229221105576,-0.011126945726573467],[0.03980933874845505,0.002142142504453659,-0.0748232901096344]],[[-0.034478455781936646,0.27459314465522766,-0.05345433950424194],[-0.08987253159284592,0.04895269125699997,0.1847962886095047],[-0.07144247740507126,0.008999157696962357,-0.04390491172671318]],[[0.07699310034513474,-0.015840254724025726,0.033679861575365067],[0.11011302471160889,-0.026944763958454132,-0.0787779837846756],[0.15484602749347687,-0.13413968682289124,0.08668207377195358]],[[-0.020125005394220352,-0.10467597842216492,-0.0982511043548584],[0.4713183343410492,-0.44160982966423035,0.269688218832016],[-0.15006303787231445,0.17873990535736084,0.034928273409605026]],[[0.09239476919174194,-0.0298075582832098,-0.06966318935155869],[-0.11127835512161255,-0.0028400025330483913,0.073375403881073],[0.0033082894515246153,0.2099815458059311,-0.1368752270936966]],[[-0.05754143372178078,0.1401350498199463,0.00459221052005887],[-0.14116394519805908,0.780465841293335,-0.055540695786476135],[0.11524314433336258,-0.20670372247695923,0.018345346674323082]]],[[[-0.07635413110256195,-0.0028831777162849903,0.06796983629465103],[0.09400086104869843,-0.16299845278263092,0.019183773547410965],[0.11242668330669403,-0.035981982946395874,-0.03188840299844742]],[[-0.11097986996173859,-0.059536173939704895,0.018115242943167686],[0.10035515576601028,-0.03790157288312912,-0.06524919718503952],[-0.07828262448310852,-0.0592489019036293,-0.009272001683712006]],[[0.05619299039244652,-0.03881443664431572,-0.016473425552248955],[-0.013465223833918571,0.015683388337492943,0.0033159421291202307],[-0.0499807670712471,0.1085524782538414,-0.016036223620176315]],[[-0.2254939079284668,-0.07370193302631378,-0.03024142049252987],[-0.06627216935157776,0.12305372208356857,0.09443336725234985],[0.06919711828231812,0.027270445600152016,0.09669157862663269]],[[-0.045303259044885635,0.07818375527858734,0.09310545027256012],[-0.04418988153338432,0.05979526415467262,-0.1636238992214203],[0.020329434424638748,-0.018925724551081657,0.03159845247864723]],[[0.03802810236811638,0.04075170308351517,0.009529897943139076],[-0.11332806199789047,0.02289372868835926,0.0693185031414032],[-0.10159271955490112,-0.014956886880099773,0.04611026868224144]],[[0.04535951837897301,0.1387120485305786,-0.027495944872498512],[0.2951482832431793,0.272641658782959,-0.012386392802000046],[0.1340581476688385,0.22042348980903625,-0.07037541270256042]],[[0.10981344431638718,0.06039052829146385,0.06337500363588333],[0.04325477033853531,-0.05717500299215317,-0.02354874648153782],[0.03343842178583145,-0.18081346154212952,-0.07467059046030045]]],[[[-0.023694200441241264,0.017058115452528,0.0167364664375782],[-0.2863790690898895,0.28387928009033203,0.08434637635946274],[-0.054974667727947235,-0.4379192590713501,-0.08449691534042358]],[[0.07098909467458725,-0.037446536123752594,0.01448799204081297],[0.00651159742847085,0.16640780866146088,0.0017840925138443708],[-0.10594524443149567,-0.07215313613414764,-0.027353398501873016]],[[0.13062559068202972,0.1512797772884369,0.04414166137576103],[0.1544460505247116,0.1657806634902954,0.06103901192545891],[0.19224831461906433,0.22709965705871582,0.06411485373973846]],[[0.035620782524347305,0.1496637761592865,0.1967839002609253],[-0.27335596084594727,-0.31919828057289124,-0.2487480193376541],[0.09707440435886383,0.12190142273902893,0.03364342451095581]],[[0.009448136202991009,-0.2575249969959259,-0.09796088933944702],[0.13968831300735474,0.3005976974964142,0.01565227471292019],[0.007230514660477638,-0.10616723448038101,-0.0005289013497531414]],[[0.03690936416387558,0.06045881658792496,0.10482171922922134],[0.3203268349170685,0.03582996129989624,-0.14477843046188354],[-0.24107734858989716,-0.26916179060935974,0.031992197036743164]],[[-0.047526367008686066,-0.21905778348445892,0.041518162935972214],[0.06685186177492142,-0.10013914108276367,-0.038931746035814285],[0.06144208088517189,0.2373785823583603,0.017829857766628265]],[[-0.05170978605747223,0.08959301561117172,-0.002035431331023574],[-0.21129979193210602,0.15033376216888428,0.15013045072555542],[0.27237892150878906,-0.3147072494029999,-0.0711434930562973]]],[[[-0.02209593541920185,0.04115137830376625,-0.016746405512094498],[0.01034616306424141,0.12045222520828247,0.1280263066291809],[-0.14749765396118164,-0.010898487642407417,-0.05090174078941345]],[[0.12321833521127701,0.1600591540336609,0.08542715013027191],[0.09140369296073914,0.1512884944677353,0.10122348368167877],[0.10659900307655334,0.16228152811527252,0.09811688214540482]],[[-0.09786073863506317,-0.11881504952907562,-0.0984276533126831],[0.11216393858194351,0.23882140219211578,-0.015475085005164146],[-0.028488166630268097,-0.03634262830018997,0.022353114560246468]],[[0.18868380784988403,0.07022659480571747,-0.042364973574876785],[0.1800483614206314,-0.042395349591970444,-0.05146342143416405],[-0.041051462292671204,-0.05705186352133751,-0.20623132586479187]],[[0.034550659358501434,0.0426718145608902,0.04532894492149353],[0.028710152953863144,0.06557028740644455,-0.037314023822546005],[-0.0438949353992939,-0.0035401827190071344,-0.03777870535850525]],[[0.020652716979384422,-0.10366714745759964,0.03563658893108368],[0.06883231550455093,-0.14442375302314758,-0.028167851269245148],[0.19060076773166656,0.03059343993663788,-0.08748625963926315]],[[-0.042729903012514114,0.0025962924119085073,0.02274497225880623],[-0.039738789200782776,-0.020813986659049988,0.0428755097091198],[0.07766294479370117,0.02954217791557312,-0.03313862904906273]],[[-0.1486252099275589,0.06107970327138901,0.035375215113162994],[-0.11248628795146942,0.036757323890924454,0.2599320113658905],[-0.19598472118377686,-0.08987798541784286,0.17856770753860474]]]],"biases":[0.04985923692584038,-0.13841752707958221,0.05133607238531113,-0.01821046881377697,0.00818729493767023,0.24762360751628876,0.012550514191389084,0.05835874006152153]},"conv8":{"weights":[[[[0.10194187611341476,-0.029444267973303795,-4.119756698608398],[-0.024931300431489944,0.0972113087773323,-0.09361297637224197],[-0.027974415570497513,0.020023856312036514,0.020281387493014336]],[[0.10591979324817657,0.7283083200454712,0.25738203525543213],[0.025828003883361816,0.03272457793354988,0.028895264491438866],[-0.051400624215602875,0.003231713082641363,0.010326161049306393]],[[0.018123943358659744,-0.08907829225063324,-0.7016990780830383],[-0.08583579212427139,0.4732261598110199,0.46336114406585693],[-0.039723530411720276,-0.014779969118535519,-0.009193147532641888]],[[0.07025709748268127,-0.010834376327693462,-2.5920796394348145],[-0.0048418203368783,0.14951756596565247,0.058032844215631485],[0.001095373765565455,0.044138647615909576,-0.09736782312393188]],[[-0.10338786989450455,0.16610920429229736,-1.5664247274398804],[0.07658673077821732,-0.2344122976064682,-0.16000992059707642],[0.07488811761140823,0.012462984770536423,0.1397990882396698]],[[-0.10717694461345673,0.307160347700119,-2.238901376724243],[0.0423654280602932,0.37393054366111755,0.48301348090171814],[-0.09620438516139984,0.16522477567195892,-0.10402461886405945]],[[0.0059015387669205666,-0.09281959384679794,0.1339160054922104],[0.032382115721702576,0.09580570459365845,0.07167447358369827],[-0.06729378551244736,-0.0021431182976812124,-0.011471016332507133]],[[0.0654633566737175,-0.12500768899917603,-2.7355082035064697],[-0.05030903220176697,-0.0943552777171135,-0.016885552555322647],[0.05420995503664017,0.006519846152514219,-0.03801008313894272]]],[[[-0.02334550954401493,0.033790964633226395,-0.06796534359455109],[-0.006307375617325306,0.04753929376602173,0.14576049149036407],[-0.051050927489995956,-0.021298769861459732,-0.02757011167705059]],[[-0.023556478321552277,0.027084166184067726,-0.04388074576854706],[0.3330569565296173,-0.15432290732860565,0.050441719591617584],[0.07391931861639023,0.053138915449380875,-0.011657225899398327]],[[0.02901610918343067,-0.1086675152182579,-0.12907783687114716],[-0.04295162484049797,0.328242689371109,-0.11230175942182541],[0.021454591304063797,0.06381233781576157,-0.005022861994802952]],[[-0.16260385513305664,0.034978825598955154,0.10900163650512695],[-0.10122442990541458,0.11050698906183243,0.019104892387986183],[-0.01974802277982235,0.05261990800499916,0.056654077023267746]],[[0.1175849512219429,0.14735494554042816,0.044242773205041885],[0.06126493215560913,-0.0667940154671669,-0.047863416373729706],[-0.003980858717113733,-0.062427274882793427,-0.09444829076528549]],[[0.0319705493748188,0.22484739124774933,0.17381486296653748],[0.1945415437221527,0.278055340051651,0.23263633251190186],[-0.036276672035455704,0.1442607045173645,0.1070532277226448]],[[-0.007985698990523815,0.0453508235514164,-0.08542200177907944],[0.04152730852365494,-0.006604946218430996,0.06730809807777405],[0.04910208284854889,-0.09809465706348419,-0.027692893519997597]],[[-0.018504172563552856,0.04442036151885986,0.025609593838453293],[-0.07159622758626938,-0.003303908510133624,-0.01537519320845604],[0.04480001702904701,0.038759052753448486,0.007886083796620369]]],[[[0.07508350908756256,0.2600138783454895,-0.10878138244152069],[0.10256154090166092,0.03004330024123192,0.08737792074680328],[0.04563165828585625,0.008295011706650257,-0.02814459800720215]],[[-0.09198074787855148,-0.04029623419046402,0.003447118913754821],[-0.03293521702289581,-0.19123858213424683,0.036116693168878555],[0.03624096140265465,0.07928740233182907,-0.015046210959553719]],[[0.17541351914405823,0.12983153760433197,-0.07281395047903061],[0.25190645456314087,-0.06835497170686722,-0.17471939325332642],[0.010327531956136227,0.0070327953435480595,0.06873783469200134]],[[0.2149420529603958,-0.09399804472923279,-0.024917403236031532],[-0.0018536120187491179,0.09846252202987671,0.03550000488758087],[-0.0017564583104103804,-0.0023549755569547415,-0.015463670715689659]],[[0.2295529991388321,-0.08081594854593277,0.10239928215742111],[-0.13945552706718445,0.04572150111198425,0.13142551481723785],[-0.003348515834659338,0.0032560350373387337,-0.038604844361543655]],[[0.07162553817033768,-0.0685386210680008,0.08894358575344086],[-0.1098681390285492,-0.023176873102784157,0.023996679112315178],[-0.020663337782025337,-0.002990442095324397,0.008163436315953732]],[[-0.20752067863941193,0.18210524320602417,-0.04334217682480812],[0.2483239471912384,0.03364264965057373,0.06376191228628159],[-0.0171845443546772,-0.05789243429899216,-0.021206075325608253]],[[-0.12567706406116486,0.00782232079654932,0.06770633906126022],[-0.14174684882164001,0.22107574343681335,0.07224193960428238],[-0.048274386674165726,0.001962735317647457,-0.004478899296373129]]],[[[0.0061716195195913315,0.00003987978561781347,0.028983132913708687],[-0.07329756021499634,0.1583194136619568,0.2408711016178131],[0.04520196467638016,0.07371199876070023,-0.06606496125459671]],[[0.012455465272068977,-0.0033930528443306684,-0.005685866344720125],[0.3079725205898285,0.09303207695484161,-0.016613898798823357],[0.22042715549468994,0.3469725251197815,-0.11146557331085205]],[[-0.017284955829381943,-0.007219979073852301,-0.1084277406334877],[0.08622458577156067,-0.2443840652704239,-0.05006615072488785],[0.13389915227890015,0.05575073882937431,0.10912646353244781]],[[-0.15484990179538727,0.035583507269620895,0.10401851683855057],[0.07076279819011688,-0.117759570479393,0.16768062114715576],[-0.058496419340372086,-0.025805935263633728,0.06522385030984879]],[[-0.07762552052736282,0.20580615103244781,-0.06051512435078621],[0.23172354698181152,0.40508851408958435,-0.1516282856464386],[-0.02323632501065731,-0.0023412760347127914,-0.21228866279125214]],[[-0.04099711403250694,0.0907280296087265,0.018248021602630615],[0.17368659377098083,-0.07480262964963913,-0.05822678655385971],[-0.08102080225944519,-0.03357642516493797,0.021886585280299187]],[[0.08240870386362076,-0.06388776004314423,0.02638063207268715],[-0.16664059460163116,0.07595450431108475,0.03646400570869446],[0.14686334133148193,-0.06741627305746078,-0.07848446816205978]],[[-0.01054189819842577,0.07103986293077469,-0.02095934934914112],[0.049111589789390564,0.14407700300216675,-0.021255718544125557],[-0.0628180056810379,-0.11080391705036163,-0.0049123456701636314]]],[[[0.22508898377418518,-0.1361711323261261,0.046785611659288406],[-0.10440752655267715,0.14944356679916382,-0.07032161951065063],[0.03433143347501755,0.006866690702736378,0.01135050319135189]],[[-0.04245052486658096,-0.00963189173489809,0.06472491472959518],[0.07905948907136917,0.08877693861722946,0.035338275134563446],[0.07837289571762085,0.011850873939692974,0.03772561997175217]],[[0.21456022560596466,-0.2458042949438095,0.19986045360565186],[0.06643311679363251,-0.6516742706298828,0.24995999038219452],[-0.1103987991809845,0.11162993311882019,0.047424186021089554]],[[0.4173997640609741,0.8581254482269287,-0.29267486929893494],[-0.1804524064064026,-0.09190575778484344,-0.2224380075931549],[-0.03486650437116623,-0.07276973873376846,-0.10228915512561798]],[[0.005648785270750523,-0.21751554310321808,-0.2833632230758667],[-0.09583348780870438,0.724200427532196,-0.07131963223218918],[0.1212434321641922,0.07766494899988174,0.01702895388007164]],[[-0.07416461408138275,-0.13107559084892273,0.030219461768865585],[0.028396466746926308,-0.08061082661151886,0.040215782821178436],[-0.005258914083242416,0.06198799982666969,-0.002439271891489625]],[[0.016995294019579887,0.25032109022140503,-0.21132898330688477],[0.13043026626110077,0.05964895710349083,-0.10875315219163895],[-0.11004144698381424,-0.10706888884305954,-0.002365658525377512]],[[0.004583852831274271,-0.10883162170648575,-0.0036480033304542303],[-0.06306181102991104,0.06227738410234451,-0.000160962255904451],[-0.049603138118982315,0.05575651302933693,0.03327380493283272]]],[[[0.45659080147743225,-0.36713671684265137,-0.10382034629583359],[0.036428555846214294,0.01979859545826912,-0.06352057307958603],[0.06879053264856339,-0.07264792919158936,-0.09255874902009964]],[[0.22271724045276642,0.09011539816856384,-0.051970720291137695],[0.06179916486144066,0.03191019594669342,-0.0039267027750611305],[-0.04813813045620918,0.0635671466588974,-0.0514637790620327]],[[-0.47511911392211914,-0.27792447805404663,0.07585936039686203],[-0.13474884629249573,-0.6027583479881287,0.05394710972905159],[0.000042604839109117165,-0.11113682389259338,0.16065239906311035]],[[-1.255349040031433,-0.14781107008457184,0.015068527311086655],[0.2243655025959015,-0.1488189995288849,0.10388567298650742],[-0.03836436942219734,-0.03860202059149742,-0.05290139093995094]],[[-0.06848330795764923,0.09612932801246643,0.10208172351121902],[-0.06098876893520355,0.3671973645687103,-0.04579578712582588],[0.1309722363948822,-0.01672598160803318,0.09416832029819489]],[[-0.9236958622932434,0.2164333015680313,0.10443955659866333],[0.2249264121055603,-0.14443856477737427,0.09682201594114304],[-0.033755019307136536,0.012681985273957253,-0.00172320194542408]],[[0.20422421395778656,-0.12456817924976349,-0.0747159793972969],[0.06908148527145386,0.16317671537399292,-0.03359661251306534],[-0.10138274729251862,-0.07753670960664749,-0.02425970323383808]],[[-0.8942644000053406,0.12102886289358139,-0.05111190676689148],[0.10564692318439484,0.3901027739048004,0.06399599462747574],[0.03683678060770035,0.09225299209356308,-0.13384369015693665]]],[[[0.11931919306516647,0.04417337104678154,0.015497253276407719],[0.20354242622852325,-0.04232041537761688,-0.12330371886491776],[0.22766512632369995,-0.019940238445997238,-0.15998339653015137]],[[-0.05839415639638901,0.0413668192923069,0.015138068236410618],[0.00877130962908268,-0.04852209612727165,0.13065952062606812],[0.10526994615793228,0.2117510735988617,0.0924094095826149]],[[0.02106299065053463,-0.023547790944576263,0.054514434188604355],[0.20569643378257751,-0.5138730406761169,0.1456402838230133],[-0.030337823554873466,-0.3377076983451843,0.4168025851249695]],[[0.11713000386953354,0.012420698069036007,-0.08989173918962479],[0.2890768349170685,0.3713461458683014,-0.3617181181907654],[0.24924471974372864,-0.07928241044282913,-0.32794275879859924]],[[0.044983986765146255,0.20752382278442383,-0.02978348918259144],[0.015746548771858215,-1.037532091140747,0.0456833578646183],[0.18475069105625153,0.6765581369400024,0.058739155530929565]],[[-0.057720884680747986,0.06049544736742973,-0.06986463814973831],[-0.09536709636449814,0.18064263463020325,0.03787783160805702],[0.08560929447412491,-0.4204559028148651,0.16636838018894196]],[[-0.06326346844434738,-0.05327152460813522,0.023447388783097267],[0.028496691957116127,0.09685283899307251,-0.21885402500629425],[-0.0032191418576985598,0.304368257522583,-0.26534682512283325]],[[0.021811144426465034,-0.050628412514925,0.03276081383228302],[-0.10561999678611755,-0.044071655720472336,0.10595230013132095],[-0.0989135205745697,0.18038907647132874,-0.0991581380367279]]],[[[-0.07286986708641052,0.0197222251445055,0.2737717926502228],[0.03696552291512489,-0.06114649027585983,-0.048510756343603134],[-0.0826435461640358,-0.08054222166538239,0.04116798937320709]],[[0.12540623545646667,0.06348957121372223,-0.0055396766401827335],[0.2790050506591797,0.006936648860573769,-0.062091436237096786],[-0.06006327643990517,-0.2402663230895996,0.09043283015489578]],[[0.08342020958662033,0.1665552258491516,0.23402248322963715],[0.0007532541058026254,-0.24509185552597046,-0.016113391146063805],[-0.038136716932058334,-0.045976120978593826,-0.2003987729549408]],[[0.06707775592803955,-0.20353098213672638,0.016471529379487038],[0.11030208319425583,0.06927507370710373,-0.06721842288970947],[0.035266220569610596,0.01642201840877533,-0.026975898072123528]],[[-0.08369381725788116,-0.0506005696952343,-0.08159094303846359],[-0.2596675157546997,0.28092893958091736,0.04754326492547989],[-0.03555988520383835,0.013089216314256191,0.18502654135227203]],[[0.014259302988648415,0.03498819097876549,-0.05594075471162796],[-0.053145233541727066,0.04734587296843529,0.10309575498104095],[0.011029736138880253,-0.007824646309018135,0.002633440773934126]],[[0.01955532096326351,-0.0853121355175972,0.057504504919052124],[0.10861633718013763,-0.03458345681428909,0.02465813420712948],[-0.09030170738697052,0.008083184249699116,0.0024134935811161995]],[[0.11151339113712311,0.1513771116733551,0.0005883798585273325],[0.15285153687000275,0.2566750943660736,0.17419855296611786],[0.03125375136733055,0.121165432035923,0.040899354964494705]]]],"biases":[0.10253026336431503,-0.00039498289697803557,-0.06032508239150047,0.06761518865823746,-0.09231944382190704,0.09006336331367493,-0.08348570019006729,0.049573205411434174]},"conv9":{"weights":[[[[-0.0641135424375534,0.24773187935352325,-0.10568290203809738],[0.005891784094274044,0.0410211905837059,0.060114409774541855],[-0.08217956870794296,0.18968386948108673,-0.03382646664977074]],[[-0.012360267341136932,-0.04629014432430267,-0.09645509719848633],[0.1135040819644928,0.03968089446425438,0.2208617925643921],[-0.09309890866279602,0.09620395302772522,-0.21849676966667175]],[[-0.11674492061138153,-0.0445760041475296,-0.024253685027360916],[0.3234408497810364,0.10456711798906326,0.298881471157074],[-0.13820528984069824,0.009292343631386757,-0.41876456141471863]],[[-0.3302077651023865,0.017043929547071457,0.14702388644218445],[0.17892418801784515,-0.4750317633152008,-0.328950971364975],[0.019363250583410263,-0.1220737025141716,0.22987303137779236]],[[-0.10973463952541351,-0.0015471308724954724,-0.0731625184416771],[-0.08833727240562439,0.7604875564575195,0.4213047921657562],[-0.16395331919193268,0.38176608085632324,0.0368068628013134]],[[0.020043347030878067,0.22597448527812958,-0.0015930706867948174],[-0.20656345784664154,0.5138322114944458,0.10223023593425751],[0.18602897226810455,-0.14434656500816345,-0.9367988705635071]],[[-0.16017630696296692,0.46763351559638977,0.1500641405582428],[-0.00881635956466198,-0.012582844123244286,0.2410886585712433],[-0.04737073555588722,0.09052290767431259,0.028099576011300087]],[[0.2832995057106018,0.08093572407960892,0.04926520213484764],[0.05500523000955582,-0.871749758720398,0.18017764389514923],[0.09589026868343353,-0.005050182342529297,0.1589473932981491]]],[[[-0.1289358139038086,0.06925150007009506,-0.07363542169332504],[0.21522021293640137,0.08289895951747894,0.0712994933128357],[-0.3014773428440094,0.02399309165775776,-0.0012058934662491083]],[[-0.08108159154653549,0.10726172477006912,0.018745621666312218],[0.05564406141638756,-0.3095835745334625,0.08627361059188843],[0.07711444795131683,0.06382395327091217,-0.0253828726708889]],[[0.056044332683086395,0.013042161241173744,0.15028521418571472],[-0.1635131686925888,0.20987513661384583,-0.3042198717594147],[0.1583794355392456,0.3123140037059784,0.09051637351512909]],[[0.26053330302238464,0.008761251345276833,-0.04023566469550133],[-0.09873800724744797,0.2514707148075104,0.22370952367782593],[-0.1284109503030777,-0.12314766645431519,-0.03473339229822159]],[[-0.052112285047769547,0.1683540940284729,0.01964108645915985],[-0.07214095443487167,-0.4271235764026642,-0.15672563016414642],[-0.025089289993047714,-0.18054147064685822,-0.08659568428993225]],[[0.04095405712723732,0.14005345106124878,-0.08769878000020981],[-0.09147476404905319,0.48206034302711487,-0.6767734289169312],[0.2620221674442291,0.36717528104782104,1.6263378858566284]],[[0.0037131088320165873,0.7513359189033508,0.16119384765625],[0.060371242463588715,0.2364376187324524,0.09795650094747543],[0.02809532918035984,0.05017140880227089,0.014854693785309792]],[[0.028628338128328323,-0.2751607894897461,0.07954544574022293],[0.07682055234909058,0.03910267725586891,0.08490211516618729],[0.025850823149085045,-0.0414174385368824,-0.04302597790956497]]],[[[-0.2844044864177704,0.276174932718277,-0.12227386236190796],[-0.26754894852638245,-0.12329252064228058,0.12499897181987762],[0.4447368085384369,0.36193323135375977,0.11009649187326431]],[[-0.02974538691341877,-0.06773257255554199,0.013647138141095638],[-0.014446395449340343,-0.040578197687864304,0.09953568875789642],[0.003858807496726513,-0.07054537534713745,-0.0253122728317976]],[[0.009697355329990387,-0.036128684878349304,-0.07293613255023956],[0.22749918699264526,0.039682965725660324,-0.14452651143074036],[0.12232702225446701,-0.022445326671004295,-0.12591934204101562]],[[-0.18812628090381622,-0.12847717106342316,-0.052051134407520294],[-0.210641011595726,0.2282795011997223,0.09880215674638748],[0.11309029906988144,0.12414272129535675,0.019417699426412582]],[[0.03610849380493164,0.0036758659407496452,0.05136377364397049],[-0.12618476152420044,0.009374871850013733,-0.05837631970643997],[-0.07329071313142776,0.07298412919044495,0.030734732747077942]],[[0.0437142439186573,0.053673889487981796,0.021653303876519203],[0.20142701268196106,0.6849892735481262,0.3793984353542328],[-0.25100868940353394,0.23760339617729187,4.35581636428833]],[[0.06939900666475296,-0.06194235384464264,0.07275190949440002],[-0.007624192163348198,-0.08699927479028702,0.021504264324903488],[-0.0013691048370674253,0.008171774446964264,-0.011983987875282764]],[[0.07256120443344116,-0.010332169011235237,0.03721955046057701],[0.23827435076236725,0.2679276764392853,0.08465716242790222],[0.15209154784679413,0.15415365993976593,-0.0992644652724266]]],[[[0.2200779914855957,0.11633941531181335,0.18735146522521973],[0.2198645919561386,-0.10349105298519135,0.11361109465360641],[0.02213163487613201,-0.0660564973950386,0.05067340284585953]],[[-0.011761270463466644,-0.06056702882051468,0.06869737803936005],[0.09757541865110397,-0.04688744992017746,-0.061746057122945786],[-0.03241097554564476,-0.06680097430944443,0.10610698908567429]],[[-0.020313499495387077,0.04052647948265076,0.1635783463716507],[-0.15250246226787567,0.03836928308010101,0.17491008341312408],[0.06522582471370697,-0.05462106689810753,-0.29487186670303345]],[[0.13168717920780182,0.10121152549982071,0.03745334967970848],[-0.13935157656669617,0.4470881521701813,-0.02702333964407444],[0.04456847161054611,0.024283934384584427,0.07872036844491959]],[[0.005212423857301474,0.03630141168832779,0.1565120369195938],[0.23353058099746704,0.33339235186576843,-0.12796495854854584],[0.05562322586774826,0.09640708565711975,-0.0208460483700037]],[[-0.014720753766596317,-0.17846086621284485,-0.15481100976467133],[0.020876698195934296,-0.3013172745704651,0.14137929677963257],[-0.0732361450791359,0.045600779354572296,-0.5782515406608582]],[[0.0011370998108759522,-0.39022719860076904,0.13960018754005432],[-0.04290202260017395,0.08046534657478333,0.060875389724969864],[-0.00302247516810894,-0.0006220121867954731,-0.008952920325100422]],[[-0.08272502571344376,-0.25715649127960205,-0.10041790455579758],[-0.13240927457809448,0.5598071217536926,0.058791227638721466],[0.09114309400320053,0.017288411036133766,-0.027035878971219063]]],[[[-0.14321699738502502,-0.018841758370399475,-0.04617347568273544],[-0.1210227683186531,-0.10272815823554993,0.015290426090359688],[-3.4104199409484863,-0.01780506782233715,0.006429846398532391]],[[-0.10078543424606323,0.010951708070933819,-0.023322390392422676],[0.05472427234053612,0.12201154232025146,-0.07358558475971222],[0.08772284537553787,-0.0352548286318779,0.005157520994544029]],[[0.13080669939517975,0.06454241275787354,-0.11768689006567001],[-0.2550918757915497,0.23444947600364685,-0.08507964760065079],[-0.06587860733270645,-0.04347699508070946,0.023725600913167]],[[0.33919987082481384,0.1954338252544403,-0.012127980589866638],[-0.006295689847320318,0.3125012218952179,-0.04829610884189606],[-0.10809353739023209,0.1460748016834259,0.010883483104407787]],[[-0.05079240724444389,0.1318996399641037,0.0012120429892092943],[0.1298477053642273,-0.24152500927448273,0.09512972831726074],[0.11744143068790436,-0.0918225422501564,0.014724376611411572]],[[0.07818910479545593,-0.047379594296216965,0.0689077228307724],[0.03508315607905388,-0.10938423871994019,0.22974225878715515],[0.15566985309123993,-0.22857443988323212,0.02786296047270298]],[[-0.03169972077012062,0.08060025423765182,-0.04750025272369385],[-0.01607690192759037,0.11176369339227676,-0.0706389993429184],[0.04161393642425537,0.008999509736895561,-0.008769617415964603]],[[-0.15844230353832245,0.09861002117395401,0.03246558830142021],[-0.14540047943592072,0.2074480801820755,-0.061156194657087326],[-0.06505034863948822,0.06829698383808136,0.010037770494818687]]],[[[-0.02820069156587124,0.14187365770339966,-0.047386784106492996],[-0.03747895359992981,-0.08269346505403519,0.007488107308745384],[-3.651766538619995,-0.04437771812081337,0.07135645300149918]],[[-0.03672138974070549,0.09334798902273178,-0.010237304493784904],[-0.07840516418218613,0.07112258672714233,-0.07680363953113556],[0.06446554511785507,0.073015958070755,-0.0074343509040772915]],[[0.047917578369379044,0.009556807577610016,0.10905124247074127],[0.12235693633556366,0.0496373325586319,-0.10235272347927094],[-0.22601543366909027,-0.14394618570804596,0.3119692802429199]],[[-0.0035889851860702038,0.03326055780053139,-0.07555141299962997],[0.3545062243938446,0.059311602264642715,0.21544019877910614],[-0.03427651524543762,0.08637882024049759,-0.04477187618613243]],[[0.006926172412931919,0.07079340517520905,0.11865346878767014],[-0.06822101771831512,0.1252969652414322,-0.0783843919634819],[0.08243965357542038,-0.15065880119800568,-0.03497162461280823]],[[-0.04444508254528046,0.14163361489772797,0.007668676786124706],[-0.10314982384443283,-0.18423978984355927,-0.0766545981168747],[-0.006605238188058138,-0.07666531205177307,-0.3428165018558502]],[[0.008865750394761562,-0.08000128716230392,0.15715354681015015],[0.0007317045819945633,0.10110171884298325,-0.009450790472328663],[0.04373162239789963,0.009288184344768524,0.004318431951105595]],[[0.0028754600789397955,-0.19296936690807343,0.04534144327044487],[0.03764556348323822,0.0996290072798729,-0.012955128215253353],[-0.02866101823747158,0.026956861838698387,-0.022916320711374283]]],[[[-0.028366759419441223,0.17132297158241272,0.05345774069428444],[-0.2992660105228424,-0.13735099136829376,-0.018992234021425247],[-3.8966751098632812,0.17654839158058167,-0.0704377293586731]],[[0.06316625326871872,-0.15617117285728455,0.055248863995075226],[0.017308292910456657,-0.19872751832008362,0.06932247430086136],[-0.015484609641134739,0.3104577362537384,-0.12708503007888794]],[[-0.12393147498369217,0.0012289804872125387,-0.04543798044323921],[0.1628645807504654,0.27306708693504333,0.009450075216591358],[-0.1610899269580841,0.24168400466442108,0.09104037284851074]],[[-0.10696013271808624,-0.15384460985660553,0.05601537972688675],[0.22628335654735565,0.3711144030094147,0.009548739530146122],[-0.028723590075969696,-0.18078972399234772,0.02387283742427826]],[[0.0576205737888813,0.021970223635435104,-0.008817005902528763],[0.058002907782793045,0.3914102613925934,-0.0030544970650225878],[0.17726582288742065,-0.14947256445884705,0.021001389250159264]],